1.189321994781494141e+00 -6.133649945259094238e-01 -8.158558011054992676e-01 2.542840540409088135e-01 1.028749585151672363e+00
-1.300973176956176758e+00 6.581370830535888672e-01 -2.571344852447509766e+00 -1.617981046438217163e-01 1.084170460700988770e+00
-1.855168581008911133e+00 2.107775360345840454e-01 1.125905513763427734e-01 -9.859797358512878418e-01 2.577984333038330078e+00
-7.274701595306396484e-01 -1.029752969741821289e+00 -6.452389955520629883e-01 -2.547116205096244812e-02 2.944509088993072510e-01
2.977179586887359619e-01 9.800199270248413086e-01 4.022812247276306152e-01 -1.310154236853122711e-02 6.490136384963989258e-01
-8.932510614395141602e-01 6.752702593803405762e-01 1.753083467483520508e+00 5.452993512153625488e-01 -3.216061294078826904e-01
2.644665837287902832e-01 1.161475896835327148e+00 -2.111653804779052734e+00 -1.314378380775451660e+00 1.224334836006164551e+00
-2.360532045364379883e+00 -1.860186755657196045e-01 2.662369906902313232e-01 1.157899141311645508e+00 1.914926409721374512e+00
-1.241510152816772461e+00 -8.657800555229187012e-01 2.177031338214874268e-01 -6.235392093658447266e-01 1.331650018692016602e+00
-4.008672535419464111e-01 9.897692203521728516e-01 -4.001183211803436279e-01 3.556874990463256836e-01 9.155357480049133301e-01
5.214188694953918457e-01 5.699886679649353027e-01 9.827917814254760742e-01 9.211717844009399414e-01 2.443567812442779541e-01
-5.443782806396484375e-01 1.205393299460411072e-01 -2.200312614440917969e-01 -1.413463652133941650e-01 2.445975065231323242e+00
5.817887187004089355e-01 -3.129073977470397949e-01 1.325171738862991333e-01 1.357320427894592285e+00 1.672125458717346191e+00
-1.653651356697082520e+00 9.257614612579345703e-01 4.582028687000274658e-01 1.957400083541870117e+00 7.658224105834960938e-01
-2.797970175743103027e-01 2.714033722877502441e-01 -1.410917997360229492e+00 1.858411431312561035e+00 -7.087819576263427734e-01
4.733358025550842285e-01 -4.959750473499298096e-01 9.653751850128173828e-01 -7.805048823356628418e-01 9.211038351058959961e-01
-5.242016315460205078e-01 -1.578634500503540039e+00 1.268972396850585938e+00 -6.064386367797851562e-01 -7.126966714859008789e-01
-1.118244171142578125e+00 3.100698441267013550e-02 1.602446198463439941e+00 -8.352962136268615723e-01 -3.514609858393669128e-02
-8.143395781517028809e-01 8.122969269752502441e-01 3.546009957790374756e-01 1.705599188804626465e+00 -3.377360403537750244e-01
-2.015023231506347656e+00 -1.104955300688743591e-01 4.169006645679473877e-01 2.185824871063232422e+00 4.009911417961120605e-01
1.020490288734436035e+00 2.703056633472442627e-01 -3.059075474739074707e-01 1.276600807905197144e-01 -5.440178513526916504e-01
1.645117163658142090e+00 -2.294587612152099609e+00 -1.290275573730468750e+00 3.822946846485137939e-01 -4.062595069408416748e-01
-1.422196626663208008e+00 2.263327121734619141e+00 -4.199445247650146484e-01 -8.594581484794616699e-02 -1.464766502380371094e+00
1.396002769470214844e+00 7.541165351867675781e-01 6.979373097419738770e-01 -8.254953622817993164e-01 2.334003597497940063e-01
-1.162174701690673828e+00 -5.355638265609741211e-01 6.728655099868774414e-01 9.059536457061767578e-01 -1.245556592941284180e+00
3.036198616027832031e-01 -1.305472701787948608e-01 -5.253616571426391602e-01 -5.036903023719787598e-01 -5.915809273719787598e-01
-1.794700503349304199e+00 1.713445782661437988e+00 -5.406139492988586426e-01 9.415088295936584473e-01 9.536485373973846436e-02
-8.352415263652801514e-02 -1.594098210334777832e-01 -5.444833636283874512e-01 5.299844741821289062e-01 4.627456963062286377e-01
-1.259121537208557129e+00 -1.334180593490600586e+00 -3.886254131793975830e-01 1.443213701248168945e+00 -6.226314306259155273e-01
-7.307466268539428711e-01 6.674679517745971680e-01 3.859464228153228760e-01 -1.186124086380004883e+00 1.378800123929977417e-01
-4.076278209686279297e-01 4.192510247230529785e-01 9.540988802909851074e-01 1.562077760696411133e+00 6.304551362991333008e-01
-1.510445833206176758e+00 8.122255653142929077e-02 1.652692079544067383e+00 -7.219611406326293945e-01 1.130611777305603027e+00
-6.784021258354187012e-01 1.987264633178710938e+00 -4.862766265869140625e-01 -1.867205619812011719e+00 1.583430320024490356e-01
1.109969496726989746e+00 1.342677593231201172e+00 -8.071185350418090820e-01 -6.046795472502708435e-02 -1.523725271224975586e+00
1.047236099839210510e-01 -1.216375946998596191e+00 -1.243557214736938477e+00 7.584525346755981445e-01 -3.710412383079528809e-01
6.718803048133850098e-01 -1.194397568702697754e+00 8.727623820304870605e-01 6.984684467315673828e-01 8.254883885383605957e-01
-7.111634016036987305e-01 1.316196799278259277e+00 3.395282030105590820e-01 -9.535557031631469727e-02 3.152028620243072510e-01
-1.419971734285354614e-01 -1.001025557518005371e+00 8.225681185722351074e-01 2.193665266036987305e+00 -1.048093587160110474e-01
-2.336061149835586548e-01 3.959836065769195557e-01 -3.610730469226837158e-01 -1.750121831893920898e+00 2.922359108924865723e-01
-1.039937853813171387e+00 -2.305151939392089844e+00 6.813050508499145508e-01 4.354748129844665527e-01 8.301592469215393066e-01
2.644058465957641602e-01 -9.901867508888244629e-01 -1.197259426116943359e+00 7.135728001594543457e-01 -4.490990936756134033e-02
1.230038523674011230e+00 7.234647870063781738e-01 3.149569928646087646e-01 1.733509778976440430e+00 -2.678083255887031555e-02
1.607599377632141113e+00 8.212473988533020020e-02 -2.536670565605163574e-01 -7.103890776634216309e-01 1.065707445144653320e+00
-4.613487422466278076e-02 4.812553822994232178e-01 1.726813316345214844e+00 -1.843280345201492310e-01 -1.737955451011657715e+00
4.098118841648101807e-01 2.027100175619125366e-01 7.377437353134155273e-01 -8.628787398338317871e-01 -5.741584897041320801e-01
9.968756437301635742e-01 2.672028243541717529e-01 -1.755923986434936523e+00 -5.183860063552856445e-01 2.359770983457565308e-01
1.446962803602218628e-01 1.273141264915466309e+00 -1.071518063545227051e+00 3.235935568809509277e-01 -2.444286823272705078e+00
-1.053975224494934082e+00 7.511812448501586914e-01 3.655180335044860840e-01 -1.098394870758056641e+00 -5.724930167198181152e-01
-1.574103116989135742e+00 -7.920921444892883301e-01 -8.368025422096252441e-01 1.393271446228027344e+00 1.451231241226196289e+00
-6.825277209281921387e-01 -1.290687918663024902e+00 -2.860588729381561279e-01 1.407662749290466309e+00 -3.567000627517700195e-01
-1.377810716629028320e+00 -6.764746308326721191e-01 -5.483548641204833984e-01 -4.744884073734283447e-01 1.529038399457931519e-01
2.122376412153244019e-01 -2.233530044555664062e+00 1.226022914052009583e-01 -1.340231537818908691e+00 -1.125499010086059570e+00
-1.210711240768432617e+00 -4.881945997476577759e-02 9.204062819480895996e-01 3.446940779685974121e-01 -1.858754277229309082e+00
-6.179185509681701660e-01 1.649832874536514282e-01 1.325165033340454102e+00 6.635845303535461426e-01 -2.069702863693237305e+00
1.168996453285217285e+00 -2.608785629272460938e+00 6.062687039375305176e-01 -1.736701726913452148e+00 -1.812832951545715332e+00
1.118965268135070801e+00 -9.754728078842163086e-01 1.237708568572998047e+00 8.155176639556884766e-01 1.128397941589355469e+00
4.590584337711334229e-01 7.594066262245178223e-01 5.911091566085815430e-01 5.906269550323486328e-01 -1.331945776939392090e+00
-8.980346918106079102e-01 -1.622274518013000488e+00 5.829793810844421387e-01 3.061253070831298828e+00 1.064337372779846191e+00
1.455478191375732422e+00 3.813776969909667969e-01 -5.997574925422668457e-01 1.033359646797180176e+00 -1.036300063133239746e+00
1.150229811668395996e+00 -3.313596546649932861e-01 2.769210338592529297e-01 -4.228829145431518555e-01 1.431072652339935303e-01
-4.234173297882080078e-01 -2.130644768476486206e-01 1.181405544281005859e+00 7.948673367500305176e-01 5.917725563049316406e-01
-1.460205197334289551e+00 -5.552476644515991211e-01 2.916713654994964600e-01 -5.618652105331420898e-01 1.176898002624511719e+00
5.923271179199218750e-01 -1.457997918128967285e+00 6.907061338424682617e-01 6.617420911788940430e-01 -1.079740643501281738e+00
1.522748827934265137e+00 -1.624550700187683105e+00 -1.023468375205993652e+00 6.005444526672363281e-01 1.680088400840759277e+00
-9.001537561416625977e-01 1.694164633750915527e+00 -2.594056427478790283e-01 -6.076221466064453125e-01 -5.140972733497619629e-01
5.795908570289611816e-01 1.050500869750976562e+00 1.327423572540283203e+00 -1.070765852928161621e+00 -1.275164008140563965e+00
1.112735152244567871e+00 2.153659015893936157e-01 -1.281631469726562500e+00 -1.590096831321716309e+00 1.034966468811035156e+00
1.929046660661697388e-01 -2.915040969848632812e+00 9.190514087677001953e-01 1.213676810264587402e+00 -1.897099852561950684e+00
9.149586409330368042e-02 -9.675651788711547852e-01 -1.164676904678344727e+00 1.845822095870971680e+00 -6.303048133850097656e-01
1.819486618041992188e+00 -1.384181141853332520e+00 7.461018562316894531e-01 1.245944499969482422e+00 -5.434746742248535156e-01
5.076213479042053223e-01 -4.224616885185241699e-01 -1.072917461395263672e+00 4.651685655117034912e-01 -1.486007031053304672e-02
-7.079828381538391113e-01 2.947373092174530029e-01 -7.230092287063598633e-01 -2.929542660713195801e-01 -1.177839040756225586e+00
7.600203156471252441e-01 5.416227579116821289e-01 -1.326721072196960449e+00 1.169098973274230957e+00 -4.343576729297637939e-01
8.805200457572937012e-01 -1.377584934234619141e+00 3.672506809234619141e-01 6.425050497055053711e-01 -8.394633531570434570e-01
1.080283641815185547e+00 4.123605191707611084e-01 -2.253691852092742920e-01 -2.593297362327575684e-01 -1.337629318237304688e+00
1.211347222328186035e+00 -8.795900940895080566e-01 5.731392651796340942e-02 -7.509266734123229980e-01 -1.302073597908020020e+00
-1.466603159904479980e+00 4.516232609748840332e-01 7.862485051155090332e-01 6.262287497520446777e-01 -3.475415110588073730e-01
7.418282628059387207e-01 -3.216269910335540771e-01 1.315558433532714844e+00 8.937866091728210449e-01 -1.768657684326171875e+00
3.093623161315917969e+00 -6.729846000671386719e-01 -1.925920367240905762e+00 1.605302453041076660e+00 1.206816434860229492e+00
3.941556811332702637e-01 2.322634160518646240e-01 2.836345136165618896e-01 4.504332840442657471e-01 -7.377541661262512207e-01
7.241283655166625977e-01 -6.659497022628784180e-01 -1.148765802383422852e+00 1.693228363990783691e+00 1.179449081420898438e+00
-4.856955409049987793e-01 -1.778477132320404053e-01 -3.359746336936950684e-01 -8.308651447296142578e-01 -5.859179496765136719e-01
-4.056729078292846680e-01 1.424142122268676758e+00 1.581342458724975586e+00 -4.548610150814056396e-01 -6.247631832957267761e-02
-7.103773355484008789e-01 -1.492792814970016479e-01 5.308592692017555237e-02 -3.562061190605163574e-01 -3.602158427238464355e-01
2.450268417596817017e-01 1.495431512594223022e-01 7.673672437667846680e-01 2.606627345085144043e-01 -9.750848412513732910e-01
-1.015415787696838379e+00 -7.222304940223693848e-01 2.994402348995208740e-01 -2.640300430357456207e-03 8.442785143852233887e-01
-3.313718438148498535e-01 7.110835313796997070e-01 1.088831305503845215e+00 -1.618770003318786621e+00 1.430440247058868408e-01
2.332502417266368866e-02 6.676979660987854004e-01 -4.211245849728584290e-02 2.910193800926208496e-01 4.105814397335052490e-01
6.605265736579895020e-01 -8.420615792274475098e-01 9.404367208480834961e-02 2.648839950561523438e-01 -6.580836176872253418e-01
-6.296508908271789551e-01 -1.003173708915710449e+00 -9.067885875701904297e-01 4.488211870193481445e-01 7.271054983139038086e-01
2.439974248409271240e-01 6.492031812667846680e-01 1.238506674766540527e+00 -5.420327782630920410e-01 -5.145531296730041504e-01
-7.290044426918029785e-01 9.146682024002075195e-01 1.083633542060852051e+00 6.050083637237548828e-01 1.029103279113769531e+00
4.346382021903991699e-01 1.025184541940689087e-01 -6.017038226127624512e-01 1.110841870307922363e+00 -1.198200464248657227e+00
8.145168423652648926e-02 6.439886689186096191e-01 -5.646636337041854858e-02 -1.131596639752388000e-01 -3.378849327564239502e-01
-5.511375144124031067e-02 -3.789329826831817627e-01 -2.308031320571899414e+00 -1.696013212203979492e+00 -6.178290843963623047e-01
8.518794178962707520e-01 5.699507426470518112e-03 4.212962388992309570e-01 -2.036743640899658203e+00 6.697085499763488770e-01
-1.470456480979919434e+00 1.436055421829223633e+00 -7.923240065574645996e-01 6.899963617324829102e-01 7.666302323341369629e-01
-1.252985447645187378e-01 -5.259261131286621094e-01 -5.021244287490844727e-02 -1.979721903800964355e+00 4.885005950927734375e-01
1.847259104251861572e-01 1.767508864402770996e+00 2.468808412551879883e+00 -2.414728164672851562e+00 6.438989043235778809e-01
-2.973437905311584473e-01 -6.561425924301147461e-01 -5.316998362541198730e-01 -1.285263419151306152e+00 -1.555256843566894531e+00
-8.243197798728942871e-01 2.398383855819702148e+00 -7.268888950347900391e-01 6.868789345026016235e-02 -6.684412360191345215e-01
-8.619494438171386719e-01 -1.034472465515136719e+00 7.359689474105834961e-02 -1.546879708766937256e-01 8.454216122627258301e-01
6.181319952011108398e-01 -3.667122125625610352e-01 -1.118034958839416504e+00 -2.664299249649047852e+00 8.226965069770812988e-01
1.197333812713623047e+00 -1.374294281005859375e+00 -8.111959099769592285e-01 6.364847421646118164e-01 -6.658318042755126953e-01
-7.662093639373779297e-02 -6.237963438034057617e-01 5.012222528457641602e-01 -1.498399972915649414e+00 -1.117674857378005981e-01
-7.626317143440246582e-01 -7.865458130836486816e-01 -1.226278692483901978e-01 -1.057867527008056641e+00 7.971583865582942963e-03
8.985443711280822754e-01 -8.125410079956054688e-01 1.129584789276123047e+00 -1.722179651260375977e-01 3.032205700874328613e-01
-4.457731544971466064e-01 1.219609826803207397e-01 2.856169700622558594e+00 -1.164735078811645508e+00 1.780618906021118164e+00
-8.095127940177917480e-01 1.237353205680847168e+00 -8.873988389968872070e-01 -7.315435409545898438e-01 -5.832596421241760254e-01
-5.824579671025276184e-02 -7.174745798110961914e-01 -6.512901186943054199e-01 -5.176083445549011230e-01 1.073348760604858398e+00
3.409520089626312256e-01 -1.963744759559631348e+00 3.269803524017333984e-01 2.461358010768890381e-01 -4.803941845893859863e-01
-8.729707449674606323e-02 1.005794644355773926e+00 2.230509966611862183e-01 4.301377534866333008e-01 -8.259715139865875244e-02
-6.831122040748596191e-01 1.931522190570831299e-01 2.085637092590332031e+00 -6.610627174377441406e-01 5.382707118988037109e-01
-2.224115878343582153e-01 -4.497986286878585815e-02 1.441057205200195312e+00 9.663978219032287598e-01 5.623112320899963379e-01
5.381571054458618164e-01 6.782615184783935547e-02 -3.775389492511749268e-01 -8.037560619413852692e-03 -1.913134336471557617e+00
-4.893558472394943237e-02 -1.000638484954833984e+00 -8.898909687995910645e-01 2.131381481885910034e-01 -1.024364709854125977e+00
2.595410346984863281e-01 -1.077505469322204590e+00 -6.573426127433776855e-01 1.394800901412963867e+00 6.195766329765319824e-01
-5.401613116264343262e-01 -1.240635383874177933e-02 1.403506278991699219e+00 7.221353054046630859e-02 1.091655269265174866e-01
2.203344851732254028e-01 -5.109410881996154785e-01 -8.697758913040161133e-01 -1.058622598648071289e+00 9.427059292793273926e-01
-1.654140502214431763e-01 9.254913330078125000e-01 -1.371153950691223145e+00 -1.013673424720764160e+00 7.825719714164733887e-01
-3.716580271720886230e-01 -1.654347926378250122e-01 -8.584899306297302246e-01 2.684831619262695312e-01 1.432160854339599609e+00
3.850962519645690918e-01 -9.835344552993774414e-01 -1.037550687789916992e+00 -1.163080215454101562e+00 -1.273555278778076172e+00
1.238214373588562012e+00 -2.634184062480926514e-01 -9.069304168224334717e-02 1.706976294517517090e+00 2.814550101757049561e-01
3.386796638369560242e-02 -1.659568667411804199e+00 -1.260704100131988525e-01 6.694536209106445312e-01 4.557071030139923096e-01
-1.195614814758300781e+00 6.851392984390258789e-02 -6.192491054534912109e-01 7.877980470657348633e-01 1.200281143188476562e+00
9.177849888801574707e-01 2.726186811923980713e-01 -1.277713924646377563e-01 -1.037185117602348328e-01 -1.743480861186981201e-01
9.390527009963989258e-01 2.049603313207626343e-01 1.107146143913269043e+00 -1.131296157836914062e+00 6.172631978988647461e-01
-9.290987253189086914e-01 -1.477105498313903809e+00 -9.489461779594421387e-02 6.647150516510009766e-01 1.055580496788024902e+00
3.217298984527587891e-01 4.990394413471221924e-01 1.088118672370910645e+00 6.931467354297637939e-02 -2.862392663955688477e-01
-1.051592111587524414e+00 1.180079877376556396e-01 -1.742528378963470459e-01 6.279433369636535645e-01 1.200776338577270508e+00
1.358285665512084961e+00 -2.642801403999328613e-01 1.823851913213729858e-01 -6.829267144203186035e-01 -6.780465841293334961e-01
-7.730678915977478027e-01 -5.176120996475219727e-01 -6.934625506401062012e-01 -1.087219357490539551e+00 -3.865489959716796875e-01
3.484919369220733643e-01 -5.552662014961242676e-01 2.379771232604980469e+00 5.868790745735168457e-01 1.546633392572402954e-01
-2.073691844940185547e+00 -7.348048686981201172e-01 -1.122630238533020020e+00 1.335864663124084473e+00 7.663995027542114258e-01
-1.335817575454711914e+00 2.240123003721237183e-01 1.636143028736114502e-01 -4.252347648143768311e-01 3.901027739048004150e-01
-6.781206130981445312e-01 -1.094734892249107361e-01 2.047880887985229492e+00 -1.162335157394409180e+00 1.968575358390808105e+00
1.009511828422546387e+00 2.836140096187591553e-01 7.278057932853698730e-01 1.354981303215026855e+00 3.736112117767333984e-01
1.024435758590698242e+00 1.366375923156738281e+00 -8.690085262060165405e-02 1.138075143098831177e-01 3.492969572544097900e-01
-2.755575180053710938e-01 -5.057811141014099121e-01 8.849110603332519531e-01 -1.000828027725219727e+00 -1.399486660957336426e+00
-1.073630213737487793e+00 -1.521495580673217773e+00 -1.039993286132812500e+00 3.804280161857604980e-01 -3.334848284721374512e-01
-8.167086839675903320e-01 3.773227930068969727e-01 5.651265382766723633e-01 -4.573601484298706055e-01 1.167191505432128906e+00
-2.212307453155517578e+00 2.383109182119369507e-01 7.529881596565246582e-01 4.841941297054290771e-01 3.279302716255187988e-01
2.813373804092407227e-01 2.173393964767456055e+00 1.724286317825317383e+00 3.772879540920257568e-01 6.145478412508964539e-02
-8.780577033758163452e-02 8.584958314895629883e-01 6.602349132299423218e-02 2.018610715866088867e+00 2.890617251396179199e-01
-4.298746287822723389e-01 3.514911830425262451e-01 5.522935986518859863e-01 -2.736664533615112305e+00 -4.096324145793914795e-01
-9.851386547088623047e-01 4.471276998519897461e-01 4.049240648746490479e-01 -3.933506906032562256e-01 -3.483453691005706787e-01
-2.904390096664428711e-01 -3.408689796924591064e-01 5.588335394859313965e-01 2.732345461845397949e-01 1.147785663604736328e+00
-7.533869147300720215e-01 1.369819521903991699e+00 -2.299657836556434631e-02 -7.870761156082153320e-01 -9.780780673027038574e-01
-5.710349678993225098e-01 1.904125213623046875e+00 4.004944860935211182e-02 -1.033408761024475098e+00 -8.046593666076660156e-01
-2.429030090570449829e-02 1.537058949470520020e+00 3.038170933723449707e-01 -1.054110407829284668e+00 -9.066922068595886230e-01
3.852279484272003174e-01 2.638786733150482178e-01 3.405361175537109375e-01 4.362367093563079834e-01 6.234967112541198730e-01
3.988202214241027832e-01 -2.279330641031265259e-01 1.006242394447326660e+00 -5.039470791816711426e-01 -2.204617857933044434e-01
6.317888498306274414e-01 1.037121176719665527e+00 1.607325196266174316e+00 -3.467533588409423828e-01 -5.487134680151939392e-02
4.147594571113586426e-01 -2.311168313026428223e-01 1.053838491439819336e+00 -7.175810933113098145e-01 2.775730788707733154e-01
2.954127490520477295e-01 -7.991244792938232422e-01 -1.419829964637756348e+00 -1.549661308526992798e-01 -1.707220435142517090e+00
1.837991952896118164e+00 -6.873314976692199707e-01 -6.575514376163482666e-02 -2.011114835739135742e+00 -6.549343466758728027e-01
-2.632817506790161133e+00 -1.522304117679595947e-01 -6.730536222457885742e-01 9.020388722419738770e-01 -6.860474497079849243e-02
-1.597348332405090332e+00 3.671175837516784668e-01 3.967050462961196899e-02 1.225561738014221191e+00 7.149294614791870117e-01
7.395070791244506836e-02 9.774650931358337402e-01 4.133900701999664307e-01 1.698128581047058105e+00 1.107279300689697266e+00
-6.312453746795654297e-01 -1.031599164009094238e+00 3.479230701923370361e-01 -2.056890130043029785e-01 -5.905486345291137695e-01
-2.482913494110107422e+00 -4.926239848136901855e-01 1.546674728393554688e+00 -5.113406181335449219e-01 1.602820515632629395e+00
-2.085695028305053711e+00 -1.730634570121765137e+00 -9.006012082099914551e-01 -2.940708100795745850e-01 -1.486207962036132812e+00
1.087521314620971680e+00 -3.643268346786499023e-01 -7.690171599388122559e-01 -1.938149213790893555e+00 -2.699607014656066895e-01
5.288532376289367676e-01 -2.210646569728851318e-01 3.565664887428283691e-01 -3.060328066349029541e-01 -1.400647163391113281e+00
1.713352203369140625e+00 -2.110415220260620117e+00 8.819139599800109863e-01 3.917778134346008301e-01 -1.033571481704711914e+00
-8.814749717712402344e-01 -8.534610867500305176e-01 -6.032896041870117188e-01 -3.689679503440856934e-01 9.192560911178588867e-01
6.071419119834899902e-01 1.979124188423156738e+00 1.406852483749389648e+00 -2.938651144504547119e-01 -4.198785871267318726e-02
6.432637572288513184e-02 6.061555743217468262e-01 7.225735783576965332e-01 3.266401290893554688e-01 -8.434845805168151855e-01
4.399503171443939209e-01 -2.901201248168945312e-01 4.261028170585632324e-01 8.392252027988433838e-02 1.426322460174560547e+00
-9.880695343017578125e-01 3.849869370460510254e-01 -8.181922137737274170e-02 1.712395906448364258e+00 -6.088856458663940430e-01
7.462680339813232422e-01 -1.221592426300048828e+00 -5.713866949081420898e-01 5.928235054016113281e-01 1.610318899154663086e+00
-3.532313108444213867e-01 1.158896923065185547e+00 4.741943776607513428e-01 -1.361186623573303223e+00 4.079449772834777832e-01
4.275771677494049072e-01 1.350334286689758301e+00 5.040512681007385254e-01 2.260425090789794922e-01 4.848188757896423340e-01
2.242932796478271484e+00 8.579074144363403320e-01 8.946610689163208008e-01 7.161768078804016113e-01 8.194309473037719727e-01
-6.236527562141418457e-01 -1.419246554374694824e+00 1.389975428581237793e+00 4.326280578970909119e-02 5.692815780639648438e-01
9.616299867630004883e-01 -2.022763013839721680e+00 -3.486998975276947021e-01 2.623830139636993408e-01 1.041680812835693359e+00
3.327778354287147522e-02 1.414359331130981445e+00 1.169022083282470703e+00 2.105269908905029297e+00 5.100148320198059082e-01
-4.573528766632080078e-01 9.999959468841552734e-01 1.678949920460581779e-03 1.231941580772399902e+00 1.020018815994262695e+00
3.261831104755401611e-01 5.681223273277282715e-01 1.610827445983886719e+00 -1.235516071319580078e+00 1.906053066253662109e+00
-1.725218296051025391e-01 -1.937219500541687012e-01 1.013082265853881836e+00 1.092472195625305176e+00 -3.957521617412567139e-01
6.657734513282775879e-01 -4.383997526019811630e-03 5.635086894035339355e-01 -6.025679707527160645e-01 1.110454872250556946e-01
-1.587330251932144165e-01 7.084303498268127441e-01 -2.268241167068481445e+00 9.790347814559936523e-01 8.024972677230834961e-01
2.893490791320800781e+00 1.045552372932434082e+00 -6.318209171295166016e-01 1.123512268066406250e+00 -1.570120096206665039e+00
1.081072986125946045e-01 1.724406480789184570e+00 9.084157943725585938e-01 5.222468376159667969e-01 -5.437000989913940430e-01
-1.001464366912841797e+00 7.490364909172058105e-01 9.285129606723785400e-02 -7.577376961708068848e-01 1.190170407295227051e+00
2.035020440816879272e-01 1.410346776247024536e-01 2.512683905661106110e-02 -1.044530153274536133e+00 1.342739820480346680e+00
-1.331285238265991211e-01 -2.486823052167892456e-01 -9.551952779293060303e-02 1.933307528495788574e+00 5.977298021316528320e-01
1.997244358062744141e+00 4.280216693878173828e-01 2.117682993412017822e-01 -2.797441482543945312e-01 -1.539378017187118530e-01
-2.742732763290405273e-01 4.597114026546478271e-01 9.065023660659790039e-01 -7.482594251632690430e-01 1.666866898536682129e+00
1.047070264816284180e+00 -2.912909090518951416e-01 7.465037703514099121e-01 -3.927054703235626221e-01 -8.178701996803283691e-01
6.447174549102783203e-01 -1.378967285156250000e+00 -1.773586124181747437e-01 -1.158463120460510254e+00 -1.345979332923889160e+00
-7.453123331069946289e-01 -1.019388794898986816e+00 -7.322857975959777832e-01 1.771964907646179199e+00 -8.583111166954040527e-01
5.617373585700988770e-01 -5.738137960433959961e-01 -7.314404249191284180e-01 2.397279292345046997e-01 1.422933936119079590e+00
4.001747965812683105e-01 2.559589445590972900e-01 1.084640100598335266e-01 -2.574843466281890869e-01 -9.955950379371643066e-01
-2.599210143089294434e-01 3.925756216049194336e-01 1.220463737845420837e-01 1.612153291702270508e+00 -7.036857604980468750e-01
9.825997948646545410e-01 2.079720050096511841e-01 9.421480298042297363e-01 1.081268072128295898e+00 -1.958540439605712891e+00
-8.066124320030212402e-01 1.576761752367019653e-01 -1.751237213611602783e-01 9.604419022798538208e-02 -2.443584650754928589e-01
7.609736919403076172e-01 -6.978138536214828491e-02 9.338116645812988281e-01 2.112364530563354492e+00 1.081281542778015137e+00
-5.036941766738891602e-01 -6.740464568138122559e-01 -7.528190016746520996e-01 1.835137009620666504e+00 2.780030250549316406e+00
-1.208662986755371094e+00 -6.983219981193542480e-01 -3.848651051521301270e-01 1.081762790679931641e+00 -2.828371524810791016e-01
4.679103791713714600e-01 -3.889640867710113525e-01 5.440965890884399414e-01 -1.179488420486450195e+00 1.064438104629516602e+00
1.559703826904296875e+00 -2.294092029333114624e-01 4.187359288334846497e-02 1.047954931855201721e-01 6.015886068344116211e-01
-6.277993917465209961e-01 2.895595729351043701e-01 -9.509113430976867676e-01 -3.149472475051879883e-01 2.053819298744201660e-01
-8.840616941452026367e-01 7.265886068344116211e-01 3.149600923061370850e-01 -6.732240915298461914e-01 -6.490553021430969238e-01
-1.216372728347778320e+00 1.333209037780761719e+00 -1.622505187988281250e+00 -2.748314142227172852e+00 -6.773884892463684082e-01
6.465926766395568848e-01 -4.229143559932708740e-01 7.969461083412170410e-01 2.016536742448806763e-01 -4.409561157226562500e-01
-2.565422058105468750e-01 -7.012333273887634277e-01 -9.652536511421203613e-01 -1.800047159194946289e-01 5.523418784141540527e-01
-1.708837389945983887e+00 -7.429245114326477051e-01 -7.080134749412536621e-01 -1.463597774505615234e+00 -5.368565917015075684e-01
-2.930431365966796875e-01 4.098149761557579041e-02 -8.128279447555541992e-01 -2.926690578460693359e-01 -1.323343664407730103e-01
-1.524934291839599609e+00 1.119519352912902832e+00 2.140749394893646240e-01 5.153424739837646484e-01 -1.234318494796752930e+00
-8.745177984237670898e-01 -8.571850061416625977e-01 2.052287310361862183e-01 6.421578526496887207e-01 -4.277397394180297852e-01
-2.923416495323181152e-01 5.413084030151367188e-01 1.234387397766113281e+00 1.768206477165222168e+00 -2.260986089706420898e+00
1.873298436403274536e-01 -1.271530747413635254e+00 -7.630316615104675293e-01 1.839287638664245605e+00 -5.525482296943664551e-01
-6.688581109046936035e-01 1.097018361091613770e+00 -5.666929483413696289e-01 -2.282518297433853149e-01 -2.205922365188598633e+00
-2.270862817764282227e+00 1.779680848121643066e+00 3.650954663753509521e-01 -1.058697342872619629e+00 6.848163604736328125e-01
-1.290640830993652344e+00 -3.073046803474426270e-01 -3.285939991474151611e-01 -1.163880467414855957e+00 1.498741865158081055e+00
-5.264195054769515991e-02 1.115031957626342773e+00 -3.550044000148773193e-01 1.833244204521179199e+00 -1.982346892356872559e+00
6.740433573722839355e-01 1.996302604675292969e-01 2.398396730422973633e-01 5.650661587715148926e-01 1.221684932708740234e+00
8.125496506690979004e-01 -5.269448161125183105e-01 -1.087600111961364746e+00 8.458527922630310059e-01 4.615237712860107422e-01
4.559984505176544189e-01 -9.696531295776367188e-01 4.718149006366729736e-01 1.537283211946487427e-01 -4.086398780345916748e-01
1.229612588882446289e+00 -7.803183048963546753e-02 5.354684591293334961e-01 1.798462033271789551e+00 2.690251469612121582e-01
-7.697166204452514648e-01 8.614913225173950195e-01 -3.989007771015167236e-01 4.541614353656768799e-01 6.586763858795166016e-01
-1.540965676307678223e+00 5.853622406721115112e-02 2.153095453977584839e-01 2.957744300365447998e-01 3.713797926902770996e-01
1.462995648384094238e+00 -4.630413055419921875e-01 -2.438307553529739380e-01 -5.497683286666870117e-01 -2.796775996685028076e-01
2.639284431934356689e-01 -1.508966088294982910e+00 -3.128558993339538574e-01 -2.499945312738418579e-01 -1.605618119239807129e+00
-4.132866263389587402e-01 -1.084580421447753906e+00 2.277961820363998413e-01 1.273921251296997070e+00 -2.369052171707153320e+00
-1.696787476539611816e-01 -5.959312915802001953e-01 8.241515755653381348e-01 -1.606440842151641846e-01 8.794873207807540894e-02
-6.096013635396957397e-02 -1.526125788688659668e+00 5.494072288274765015e-02 1.902704238891601562e-01 -3.337225914001464844e-01
-1.659621745347976685e-01 9.176355600357055664e-01 1.904725193977355957e+00 2.788693308830261230e-01 1.179020881652832031e+00
-3.885870054364204407e-02 -1.859333276748657227e+00 -6.647002100944519043e-01 -2.512638807296752930e+00 9.686031937599182129e-01
-5.205217599868774414e-01 4.920985102653503418e-01 -1.706286430358886719e+00 -2.838895916938781738e-01 1.669559180736541748e-01
2.722607135772705078e+00 -1.104827523231506348e+00 3.098640143871307373e-01 5.392845869064331055e-01 5.403838753700256348e-01
-6.423673629760742188e-01 -1.102833867073059082e+00 1.496090888977050781e+00 -9.692510366439819336e-01 -2.392041683197021484e-01
5.577071309089660645e-01 -9.190543293952941895e-01 -1.097743391990661621e+00 -1.782901585102081299e-01 2.887683212757110596e-01
-1.287230134010314941e+00 6.260812878608703613e-01 5.932840704917907715e-01 -2.956349551677703857e-01 7.583062648773193359e-01
-1.908668041229248047e+00 -6.910067051649093628e-02 -1.675731986761093140e-01 -1.227666735649108887e+00 -1.411346316337585449e+00
5.297763347625732422e-01 -2.189997911453247070e+00 -4.272228106856346130e-02 5.895504951477050781e-01 -9.072492718696594238e-01
-1.035529613494873047e+00 -4.175887703895568848e-01 6.240389347076416016e-01 3.982331976294517517e-02 2.056435346603393555e+00
3.514687120914459229e-01 5.221281573176383972e-02 3.155667066574096680e+00 3.579523786902427673e-02 2.597929537296295166e-01
1.357637494802474976e-01 1.079369425773620605e+00 1.344292610883712769e-01 -9.163041710853576660e-01 1.087203264236450195e+00
-2.014252662658691406e+00 2.085076868534088135e-01 7.103503942489624023e-01 -7.150973677635192871e-01 -1.572923660278320312e+00
-2.075756788253784180e+00 1.432478427886962891e+00 7.713939249515533447e-02 6.896710395812988281e-01 6.459481120109558105e-01
9.026263952255249023e-01 4.651559591293334961e-01 -9.240220785140991211e-01 -8.753853291273117065e-02 -7.676913142204284668e-01
-1.191592216491699219e+00 2.854986786842346191e-01 5.404734611511230469e-01 1.350546479225158691e+00 1.405431985855102539e+00
-6.782580614089965820e-01 3.413233458995819092e-01 1.464392423629760742e+00 1.765369772911071777e+00 -1.341255903244018555e-01
-3.352895006537437439e-02 9.590058922767639160e-01 4.686134308576583862e-02 -3.112874329090118408e-01 5.501618981361389160e-01
-7.104222774505615234e-01 -6.970667243003845215e-01 -1.373663902282714844e+00 -1.438833475112915039e+00 7.379935979843139648e-01
-5.706416368484497070e-01 -4.952678978443145752e-01 -1.725279927253723145e+00 -5.184305310249328613e-01 5.360017418861389160e-01
-1.274005532264709473e+00 3.449997007846832275e-01 -6.341814994812011719e-01 -1.089653730392456055e+00 1.107633113861083984e+00
-1.464241147041320801e+00 6.884483098983764648e-01 1.838222861289978027e+00 6.245971918106079102e-01 1.257743388414382935e-01
9.812803864479064941e-01 9.656044244766235352e-01 -5.721397399902343750e-01 1.357869148254394531e+00 -1.306985765695571899e-01
-1.233023881912231445e+00 6.073374748229980469e-01 -1.019745588302612305e+00 -5.375952720642089844e-01 7.239864468574523926e-01
-1.502963304519653320e-01 6.134948134422302246e-02 -3.473508358001708984e-01 -1.372125387191772461e+00 -9.951645135879516602e-02
-3.494826257228851318e-01 2.609410509467124939e-02 -2.583104558289051056e-02 -1.008423566818237305e+00 1.091333866119384766e+00
9.384196996688842773e-01 -1.868608146905899048e-01 -5.395250320434570312e-01 -7.427424788475036621e-01 1.110526248812675476e-01
2.112097479403018951e-02 1.015545010566711426e+00 -1.290418386459350586e+00 -9.027085304260253906e-01 3.644078075885772705e-01
-6.587733030319213867e-01 4.312213957309722900e-01 -2.053785800933837891e+00 1.071360468864440918e+00 6.244453787803649902e-01
-8.354119062423706055e-01 -3.174390792846679688e-01 -5.754178762435913086e-01 -1.762783765792846680e+00 -1.556038141250610352e+00
2.497765719890594482e-01 -1.394960045814514160e+00 -1.122430205345153809e+00 7.332643270492553711e-01 -1.410862684249877930e+00
-6.807188391685485840e-01 -5.765005350112915039e-01 8.607364296913146973e-01 -1.194897294044494629e+00 5.108692049980163574e-01
4.163321554660797119e-01 -2.467370748519897461e+00 -5.106404423713684082e-01 4.300762712955474854e-01 -8.768888115882873535e-01
-1.374832391738891602e+00 6.553146839141845703e-01 -1.233108162879943848e+00 3.771364986896514893e-01 -2.193866111338138580e-02
-6.040029600262641907e-02 -1.944749712944030762e+00 4.411334395408630371e-01 -1.890018433332443237e-01 -8.964124321937561035e-01
-8.016064167022705078e-01 -1.437879204750061035e+00 4.256171584129333496e-01 2.242665290832519531e+00 2.526976168155670166e-01
1.314715027809143066e+00 1.950446069240570068e-01 4.503955841064453125e-01 -4.168218672275543213e-01 -3.995889723300933838e-01
-3.453160822391510010e-01 6.337676942348480225e-02 1.250722050666809082e+00 -5.236938595771789551e-01 -2.793308198451995850e-01
-1.495060026645660400e-01 1.884535551071166992e+00 1.094282507896423340e+00 -1.605644345283508301e+00 -3.308245539665222168e-01
-2.198825962841510773e-02 5.250428915023803711e-01 4.856072738766670227e-02 -2.751323878765106201e-01 2.351286649703979492e+00
8.451527953147888184e-01 -8.376266956329345703e-01 -4.495933651924133301e-01 -6.149166226387023926e-01 -2.120591104030609131e-01
-9.496636986732482910e-01 -5.256419181823730469e-01 -2.450635194778442383e+00 -5.170572400093078613e-01 -1.782086610794067383e+00
-1.400492191314697266e+00 3.827846646308898926e-01 1.887724041938781738e+00 3.414306342601776123e-01 8.130818009376525879e-01
1.481964349746704102e+00 5.612598657608032227e-01 2.280686378479003906e+00 -1.104840993881225586e+00 -6.805506348609924316e-01
1.859446614980697632e-01 -4.867907464504241943e-01 -3.175801336765289307e-01 1.395863294601440430e+00 -1.290836781263351440e-01
-1.232384666800498962e-01 1.109973549842834473e+00 8.442869186401367188e-01 8.720290064811706543e-01 -1.249336481094360352e+00
7.388638705015182495e-02 -1.385186761617660522e-01 1.484778970479965210e-01 6.599749326705932617e-01 2.044209688901901245e-01
1.397094130516052246e+00 -1.586894512176513672e+00 3.687316477298736572e-01 -3.834372758865356445e-01 -6.036478281021118164e-01
5.079576000571250916e-02 1.107348561286926270e+00 4.781691133975982666e-01 -5.545577406883239746e-01 -7.342713326215744019e-02
8.606970310211181641e-01 -1.586000174283981323e-01 -6.513622589409351349e-03 -1.220842242240905762e+00 -1.508235216140747070e+00
-1.374166369438171387e+00 1.579663008451461792e-01 -2.743936181068420410e-01 -6.851706504821777344e-01 -1.372881293296813965e+00
-3.256002962589263916e-01 -2.561196684837341309e-01 -2.204057455062866211e+00 -1.338588893413543701e-01 -1.157790422439575195e-01
-6.396174430847167969e-01 -6.541618704795837402e-01 1.030560731887817383e+00 -3.187992274761199951e-01 -3.564231693744659424e-01
1.634123086929321289e+00 -1.230125069618225098e+00 7.722725868225097656e-01 -2.249373197555541992e-01 -7.508503794670104980e-01
-6.187333464622497559e-01 -9.060518145561218262e-01 -6.204491257667541504e-01 7.097453474998474121e-01 7.523850798606872559e-01
1.405696719884872437e-01 -6.613587141036987305e-01 -1.191102981567382812e+00 -1.077476859092712402e+00 -6.169362738728523254e-02
1.164908409118652344e+00 -1.382979750633239746e+00 8.809280991554260254e-01 1.318624019622802734e+00 -7.737951278686523438e-01
8.845741748809814453e-01 2.515090107917785645e-01 1.406120181083679199e+00 -8.066246658563613892e-02 4.976492524147033691e-01
-1.188339114189147949e+00 1.249213933944702148e+00 -6.123864650726318359e-01 7.133709788322448730e-01 -6.837193965911865234e-01
5.301861763000488281e-01 2.180304050445556641e+00 1.980945825576782227e+00 -5.680203437805175781e-01 -8.667965531349182129e-01
-9.347339272499084473e-01 -8.001001924276351929e-02 -1.022268056869506836e+00 1.628567576408386230e+00 5.976653695106506348e-01
-2.680777907371520996e-01 -5.616527795791625977e-01 5.654591321945190430e-01 1.321297168731689453e+00 6.710532903671264648e-01
9.743889570236206055e-01 -6.648350954055786133e-01 1.055878400802612305e+00 -2.253068208694458008e+00 -1.651800125837326050e-01
-3.612332642078399658e-01 -8.566390275955200195e-01 1.754687547683715820e+00 -1.415683776140213013e-01 2.656884193420410156e+00
2.589617967605590820e-01 -6.487865447998046875e-01 -8.967769145965576172e-01 1.179709076881408691e+00 8.735483884811401367e-01
1.559848427772521973e+00 -4.560400843620300293e-01 -2.651139395311474800e-03 -2.679686844348907471e-01 -4.617162048816680908e-01
-6.641116142272949219e-01 1.768772453069686890e-01 -4.372900724411010742e-01 -1.003615185618400574e-01 -3.318823128938674927e-02
1.403360009193420410e+00 -4.312205910682678223e-01 -6.821593642234802246e-01 -9.159215688705444336e-01 -1.805849373340606689e-01
-8.791342377662658691e-01 8.871870636940002441e-01 -1.174705743789672852e+00 -5.077679753303527832e-01 7.215743511915206909e-02
-9.224373698234558105e-01 -4.924544095993041992e-01 9.196062088012695312e-01 1.169269561767578125e+00 -8.663570880889892578e-01
-8.815451264381408691e-01 -1.015664935111999512e+00 -9.315828084945678711e-01 -1.600350975990295410e+00 1.012810111045837402e+00
4.912723004817962646e-01 1.275150895118713379e+00 -1.100087404251098633e+00 8.062119483947753906e-01 6.310664415359497070e-01
1.806131482124328613e+00 1.305551290512084961e+00 1.902693390846252441e+00 2.840895950794219971e-01 8.946522474288940430e-01
1.044568061828613281e+00 -4.069445133209228516e-01 -9.477354884147644043e-01 -8.219048976898193359e-01 8.680367469787597656e-01
5.851132869720458984e-01 -7.036451101303100586e-01 -3.803495690226554871e-02 -8.517109155654907227e-01 -1.009443163871765137e+00
3.763908147811889648e-01 -1.167256832122802734e+00 -5.655456781387329102e-01 -2.365411221981048584e-01 9.066699743270874023e-01
1.367973089218139648e+00 8.160459995269775391e-01 -4.247520267963409424e-01 1.250880241394042969e+00 1.203233480453491211e+00
9.988099336624145508e-01 1.591023921966552734e+00 1.031606793403625488e+00 -1.179318428039550781e+00 6.955605745315551758e-01
6.710223555564880371e-01 1.946961760520935059e+00 7.614535093307495117e-01 -9.652370214462280273e-01 -7.354831695556640625e-01
4.687284827232360840e-01 1.004537701606750488e+00 1.011533856391906738e+00 5.394327044486999512e-01 8.355422019958496094e-01
-5.005196332931518555e-01 -9.411835074424743652e-01 -4.416983723640441895e-01 1.809798002243041992e+00 -7.032955288887023926e-01
8.181032538414001465e-01 -6.074438691139221191e-01 7.580942511558532715e-01 -9.136183559894561768e-02 1.976099461317062378e-01
-3.740641176700592041e-01 -1.339669108390808105e+00 -9.187701344490051270e-02 -1.220903396606445312e+00 4.853088259696960449e-01
-7.927278280258178711e-01 2.140799283981323242e+00 1.083349108695983887e+00 -1.055830478668212891e+00 1.874065250158309937e-01
-7.014153003692626953e-01 -2.149546146392822266e-01 -1.564573049545288086e+00 2.179159164428710938e+00 3.074198663234710693e-01
-8.606877923011779785e-01 5.410956740379333496e-01 1.059969186782836914e+00 -6.381615400314331055e-01 -1.146271944046020508e+00
-3.920604288578033447e-01 9.994395971298217773e-01 -4.452545344829559326e-01 -9.054281115531921387e-01 5.333385467529296875e-01
-1.046998858451843262e+00 -2.074704915285110474e-01 1.140783354640007019e-01 -2.412645578384399414e+00 -1.105892896652221680e+00
-4.657051861286163330e-01 -6.810035556554794312e-02 1.680608242750167847e-01 -8.447307944297790527e-01 6.499820947647094727e-01
1.120266556739807129e+00 3.386653661727905273e-01 -5.881420969963073730e-01 1.896853595972061157e-01 -6.843357812613248825e-03
-1.691334962844848633e+00 1.924994111061096191e+00 5.868493914604187012e-01 1.890129089355468750e+00 -2.733437716960906982e-01
-7.429493665695190430e-01 4.659887552261352539e-01 -2.102906554937362671e-01 -1.619552969932556152e+00 -3.706574141979217529e-01
-1.186981439590454102e+00 1.188886523246765137e+00 -3.364458382129669189e-01 1.714518427848815918e+00 5.674279332160949707e-01
-5.902287736535072327e-02 -2.162916064262390137e-01 -2.423945903778076172e+00 1.317471504211425781e+00 1.092201113700866699e+00
9.558370709419250488e-01 8.854044601321220398e-03 -2.570080161094665527e-01 -3.225535750389099121e-01 -2.876925654709339142e-02
8.166825175285339355e-01 5.490786582231521606e-02 6.803135275840759277e-01 -2.269392013549804688e+00 -1.173076391220092773e+00
-7.197592258453369141e-01 -2.841874659061431885e-01 -8.078929781913757324e-01 -1.251688957214355469e+00 1.942357182502746582e+00
1.338510274887084961e+00 7.633903026580810547e-01 -2.976472079753875732e-01 1.145735383033752441e+00 3.613162785768508911e-02
-2.203646659851074219e+00 9.033554792404174805e-01 2.732515633106231689e-01 -1.349803954362869263e-01 3.800879120826721191e-01
2.278431177139282227e+00 2.136135578155517578e+00 1.947733014822006226e-01 -3.316956162452697754e-01 -1.501091480255126953e+00
-8.536041378974914551e-01 9.322881102561950684e-01 -5.916504263877868652e-01 -1.878513932228088379e+00 3.617674410343170166e-01
6.528803706169128418e-01 1.106664389371871948e-01 -6.652702689170837402e-01 -1.489715099334716797e+00 1.501191377639770508e+00
-1.743337035179138184e+00 4.511955678462982178e-01 1.476493000984191895e+00 -1.296100169420242310e-01 4.541717767715454102e-01
2.283278703689575195e-01 1.123593091964721680e+00 6.001205444335937500e-01 -3.751473724842071533e-01 2.313046716153621674e-02
-1.389086097478866577e-01 -1.867457866668701172e+00 -1.147511959075927734e+00 -8.858106732368469238e-01 9.589249491691589355e-01
-6.197940707206726074e-01 2.128901034593582153e-01 1.633614897727966309e-01 1.431864976882934570e+00 7.703838348388671875e-01
-1.052294135093688965e+00 3.871329426765441895e-01 5.833809971809387207e-01 1.357962727546691895e+00 2.394332140684127808e-01
4.348835945129394531e-01 9.343553185462951660e-01 -1.416898250579833984e+00 1.558157801628112793e+00 -1.892728686332702637e+00
3.157399892807006836e-01 -1.079826593399047852e+00 -2.290774434804916382e-01 -1.881939731538295746e-02 1.370381936430931091e-02
-2.697860896587371826e-01 1.705259680747985840e-01 -1.817270554602146149e-02 1.746982812881469727e+00 5.963647365570068359e-01
1.446205496788024902e+00 -5.958896279335021973e-01 1.283262133598327637e+00 -2.557940721511840820e+00 2.242457866668701172e-01
-1.560214400291442871e+00 3.343262374401092529e-01 7.261205464601516724e-02 8.328362703323364258e-01 1.519751310348510742e+00
7.930706739425659180e-01 -1.387538552284240723e+00 -1.625332117080688477e+00 -3.562156856060028076e-01 -1.504376173019409180e+00
-3.644813776016235352e+00 4.225974977016448975e-01 -1.430193632841110229e-01 -2.805233955383300781e+00 5.131130814552307129e-01
2.078438848257064819e-01 -2.355745434761047363e-02 -8.072848320007324219e-01 -2.302898168563842773e-01 -7.991678267717361450e-02
-2.214866876602172852e-01 7.296850681304931641e-01 4.039612710475921631e-01 -4.832785427570343018e-01 1.756113022565841675e-01
-1.957329750061035156e+00 5.705872178077697754e-01 1.359171718358993530e-01 1.552020549774169922e+00 -3.186166286468505859e-01
-5.154626369476318359e-01 1.189763545989990234e+00 4.986836016178131104e-01 8.524268269538879395e-01 -9.977279305458068848e-01
3.910562992095947266e-01 -9.296527504920959473e-02 5.229167938232421875e-01 -1.046629786491394043e+00 -1.787399768829345703e+00
-2.356027841567993164e+00 4.349482655525207520e-01 -1.528150558471679688e+00 3.283827379345893860e-02 2.406042218208312988e-01
1.759390950202941895e+00 -1.731041908264160156e+00 6.626038551330566406e-01 -1.053460359573364258e+00 1.546554327011108398e+00
3.729183077812194824e-01 -5.938683152198791504e-01 -9.996558427810668945e-01 1.663459658622741699e+00 -3.515638709068298340e-01
-2.635564804077148438e-01 5.019740462303161621e-01 3.121122717857360840e-01 2.576667368412017822e-01 3.865216970443725586e-01
-1.354846835136413574e+00 3.333355784416198730e-01 1.055952191352844238e+00 7.183973789215087891e-01 -3.888599872589111328e-01
-4.665935412049293518e-02 -3.235201835632324219e-01 -9.427624344825744629e-01 -7.725958824157714844e-01 -3.527222573757171631e-01
4.434283375740051270e-01 -2.957234859466552734e+00 5.277234315872192383e-01 8.272888660430908203e-01 1.439740419387817383e+00
-3.677469193935394287e-01 -3.262029960751533508e-02 -4.249723255634307861e-01 2.714992463588714600e-01 3.917136788368225098e-01
1.381871253252029419e-01 -3.834677636623382568e-01 -7.391738295555114746e-01 1.521372556686401367e+00 -2.449350208044052124e-01
1.989208817481994629e+00 -1.446606159210205078e+00 -8.365603089332580566e-01 -6.013431549072265625e-01 -1.440253019332885742e+00
3.390832245349884033e-01 -1.569509506225585938e-01 -2.212828159332275391e+00 -2.752460837364196777e-01 3.171611130237579346e-01
4.893448576331138611e-02 -1.484014838933944702e-01 3.264770805835723877e-01 -2.120151072740554810e-01 9.829549193382263184e-01
2.540337443351745605e-01 -8.425639271736145020e-01 -8.185369079001247883e-04 3.462531566619873047e-01 -7.155131101608276367e-01
1.386434912681579590e+00 1.087811589241027832e-01 1.378612518310546875e+00 -4.767445325851440430e-01 -1.861076951026916504e-01
9.410836100578308105e-01 -5.146356821060180664e-01 -9.090972542762756348e-01 9.962557554244995117e-01 1.539262890815734863e+00
8.226691484451293945e-01 -4.522900283336639404e-01 -1.114897131919860840e+00 4.205335080623626709e-01 2.783535718917846680e-01
4.057004302740097046e-02 6.391936540603637695e-01 -1.545874923467636108e-01 6.186056733131408691e-01 5.523791909217834473e-02
1.119042158126831055e+00 6.654502749443054199e-01 -9.974479675292968750e-01 1.345416069030761719e+00 -1.757870316505432129e-01
3.954242169857025146e-01 5.064966082572937012e-01 5.629388093948364258e-01 -2.476480603218078613e-01 6.790409684181213379e-01
3.358424007892608643e-01 -1.678841114044189453e-01 -9.680706858634948730e-01 -8.632032275199890137e-01 3.493514657020568848e-01
-1.512481272220611572e-01 -4.867821931838989258e-01 -9.272335767745971680e-01 1.477753877639770508e+00 -6.165475249290466309e-01
1.303478956222534180e+00 4.632807970046997070e-01 -1.407867550849914551e+00 3.376613184809684753e-02 1.069221377372741699e+00
1.201191470026969910e-01 5.643227100372314453e-01 -3.108943700790405273e-01 -1.086583137512207031e+00 -1.161824226379394531e+00
2.183065414428710938e+00 7.375957909971475601e-03 -3.347749114036560059e-01 2.018294572830200195e+00 -6.843187808990478516e-01
-1.664895296096801758e+00 -2.012066602706909180e+00 -9.807195663452148438e-01 7.545342445373535156e-01 8.746345639228820801e-01
7.378169298171997070e-01 -3.504348173737525940e-02 -1.375804990530014038e-01 5.543736815452575684e-01 3.009394407272338867e-01
-3.531003594398498535e-01 4.640301167964935303e-01 -6.619908809661865234e-01 -2.421298176050186157e-01 -1.089579463005065918e+00
-1.104295134544372559e+00 1.251071453094482422e+00 -8.106148838996887207e-01 -1.459590673446655273e+00 6.362804770469665527e-01
-5.892204046249389648e-01 5.684495568275451660e-01 9.795694947242736816e-01 1.316319108009338379e-01 -1.002653121948242188e+00
1.326383471488952637e+00 1.016827702522277832e+00 2.626987695693969727e+00 9.694026708602905273e-01 2.682757079601287842e-01
2.942115366458892822e-01 5.461705327033996582e-01 2.649666666984558105e-01 -5.301122069358825684e-01 -1.242953777313232422e+00
1.160640716552734375e+00 -2.119637727737426758e+00 -1.369759440422058105e-01 4.445912241935729980e-01 7.600913047790527344e-01
1.026877880096435547e+00 -4.325790405273437500e-01 1.081100404262542725e-01 2.040968239307403564e-01 -8.586080074310302734e-01
-4.914772212505340576e-01 1.098702907562255859e+00 8.990807533264160156e-01 -6.831024289131164551e-01 -1.588721871376037598e+00
-3.423402309417724609e-01 -3.063351809978485107e-01 5.646613240242004395e-01 -8.100380301475524902e-01 -1.199274063110351562e+00
-8.914896845817565918e-02 2.590074241161346436e-01 6.029852032661437988e-01 3.526714816689491272e-02 -4.158728122711181641e-01
-3.471786677837371826e-01 6.980100274085998535e-01 3.294688463211059570e-01 -6.314561367034912109e-01 -9.345473051071166992e-01
-7.156298160552978516e-01 -1.815088689327239990e-01 6.186915636062622070e-01 2.025824069976806641e+00 2.045089006423950195e+00
1.008275374770164490e-01 -1.224234178662300110e-01 3.584492206573486328e-01 2.700459063053131104e-01 8.359601497650146484e-01
4.705002605915069580e-01 -1.381415009498596191e+00 -5.427013635635375977e-01 1.829494684934616089e-01 -5.370836853981018066e-01
1.009375214576721191e+00 2.730345487594604492e+00 5.290251374244689941e-01 -1.319710731506347656e+00 1.194773077964782715e+00
-1.259661912918090820e+00 7.064310312271118164e-01 3.711007535457611084e-01 -4.669919610023498535e-01 2.565073668956756592e-01
-6.169468760490417480e-01 1.477607041597366333e-01 1.971193589270114899e-03 1.437574863433837891e+00 -8.231084942817687988e-01
-3.814861178398132324e-01 1.978548526763916016e+00 7.250550389289855957e-01 -1.448258757591247559e+00 -2.637586355209350586e+00
-1.888670474290847778e-01 -9.047871828079223633e-01 -1.083744913339614868e-01 4.068990647792816162e-01 -3.471107920631766319e-03
-1.007357597351074219e+00 2.288829721510410309e-02 -9.402345418930053711e-01 -2.495791018009185791e-01 3.976336717605590820e-01
1.429799318313598633e+00 -2.751236259937286377e-01 6.010111570358276367e-01 -5.118796825408935547e-01 1.361921072006225586e+00
-3.827945291996002197e-01 -3.203126192092895508e-01 8.264848589897155762e-01 3.721335828304290771e-01 6.474683284759521484e-01
-7.268691807985305786e-02 -1.303435444831848145e+00 1.230991780757904053e-01 -6.708924770355224609e-01 1.805079698562622070e+00
1.688881993293762207e+00 -4.603043496608734131e-01 -9.531401395797729492e-01 5.203504115343093872e-02 -1.737155556678771973e+00
-3.855846226215362549e-01 2.453539073467254639e-01 7.268791198730468750e-01 6.338461302220821381e-03 1.255274415016174316e-01
-1.183322668075561523e+00 3.602215647697448730e-02 -8.912612199783325195e-01 -7.121856510639190674e-02 -1.133965030312538147e-01
6.077058911323547363e-01 1.481899619102478027e+00 1.558983206748962402e+00 2.341472357511520386e-01 2.061834096908569336e+00
-3.625606596469879150e-01 2.545705139636993408e-01 4.995036125183105469e-01 2.045522212982177734e+00 6.606383919715881348e-01
-2.145543843507766724e-01 1.569055467844009399e-01 9.393599033355712891e-01 4.687407016754150391e-01 -4.570235013961791992e-01
1.338258862495422363e+00 1.168649673461914062e+00 1.115278482437133789e+00 -5.661162734031677246e-01 -4.931742846965789795e-01
-8.238226771354675293e-01 -8.064203262329101562e-01 8.079830408096313477e-01 -6.255068182945251465e-01 -5.728068351745605469e-01
4.630969464778900146e-01 3.056892007589340210e-02 6.992344856262207031e-01 1.435461044311523438e-01 -8.455678224563598633e-01
1.613849639892578125e+00 -4.961775243282318115e-01 -8.609275221824645996e-01 1.215215120464563370e-02 -8.157808184623718262e-01
-1.810352325439453125e+00 -7.219620943069458008e-01 -7.108199596405029297e-01 4.571089744567871094e-01 -3.057700693607330322e-01
5.249266698956489563e-02 -1.810685992240905762e+00 7.924868464469909668e-01 3.166422545909881592e-01 8.411988615989685059e-01
3.852321207523345947e-02 1.585353732109069824e+00 8.259807229042053223e-01 -2.289667576551437378e-01 -4.968062043190002441e-01
-1.039355993270874023e-02 1.306950330734252930e+00 3.064945638179779053e-01 7.660520076751708984e-01 -6.767585277557373047e-01
4.725560843944549561e-01 -5.252522230148315430e-01 6.315175890922546387e-01 -2.749289274215698242e-01 4.715903699398040771e-01
-8.492527008056640625e-01 2.487104654312133789e+00 1.221705228090286255e-01 5.582115054130554199e-01 -1.939007639884948730e-01
-1.619885683059692383e+00 6.264085769653320312e-01 6.799167394638061523e-01 1.145665526390075684e+00 1.671184062957763672e+00
-6.076412200927734375e-01 -5.762269496917724609e-01 7.681331634521484375e-01 -5.571622252464294434e-01 1.473716050386428833e-01
-1.047983169555664062e+00 2.046290874481201172e+00 -1.881356477737426758e+00 -7.589089274406433105e-01 -2.328395128250122070e+00
1.559890985488891602e+00 2.308998107910156250e+00 3.693813979625701904e-01 -1.490937829017639160e+00 -4.136322438716888428e-01
1.142046689987182617e+00 6.898213624954223633e-01 6.859492976218461990e-03 -6.785372495651245117e-01 -6.491846442222595215e-01
-7.704633474349975586e-01 -6.740113496780395508e-01 -1.765438020229339600e-01 5.422410741448402405e-02 -6.887171864509582520e-01
-8.987522125244140625e-01 4.544145166873931885e-01 -1.160108223557472229e-01 -6.844599246978759766e-01 1.081291913986206055e+00
2.200701832771301270e-02 1.854906827211380005e-01 2.089190244674682617e+00 -2.757934331893920898e-01 -1.150198578834533691e+00
1.735988497734069824e+00 7.067870348691940308e-02 -1.610538601875305176e+00 1.131251379847526550e-01 2.388392537832260132e-01
1.148560717701911926e-01 -1.878057003021240234e+00 -6.191903352737426758e-01 1.246744632720947266e+00 6.989771723747253418e-01
1.896911978721618652e+00 5.773156285285949707e-01 -1.053619503974914551e+00 2.663658559322357178e-01 1.863551259040832520e+00
7.900495529174804688e-01 -5.941146016120910645e-01 -1.407417178153991699e+00 5.075790286064147949e-01 8.303743004798889160e-01
1.573993086814880371e+00 5.594521760940551758e-01 1.851394176483154297e-01 -5.045605897903442383e-01 1.161492705345153809e+00
1.284573793411254883e+00 1.731702804565429688e+00 -9.741683602333068848e-01 -1.751890659332275391e+00 2.984096705913543701e-01
4.376185834407806396e-01 -4.936069548130035400e-01 1.549486160278320312e+00 2.322579622268676758e-01 -5.924012660980224609e-01
2.029039859771728516e+00 5.016769766807556152e-01 5.546056032180786133e-01 -1.218572616577148438e+00 1.158289909362792969e+00
-9.174038171768188477e-01 4.077183306217193604e-01 -6.818588823080062866e-02 1.861776225268840790e-02 -5.040755271911621094e-01
4.388117790222167969e-02 8.550066947937011719e-01 -2.998692035675048828e+00 1.379986047744750977e+00 5.993856191635131836e-01
2.486685037612915039e+00 8.605148792266845703e-01 -8.557326197624206543e-01 2.245716094970703125e+00 6.560397744178771973e-01
-1.408115983009338379e+00 -3.612633943557739258e-01 1.381047964096069336e-01 -2.621335029602050781e+00 8.106307983398437500e-01
2.605958878993988037e-01 -3.739278018474578857e-01 1.231977224349975586e+00 4.836752712726593018e-01 1.207127809524536133e+00
-1.423562288284301758e+00 7.740984559059143066e-01 1.013857603073120117e+00 -2.411990642547607422e+00 -1.286633253097534180e+00
1.434680819511413574e+00 5.315963029861450195e-01 1.381379723548889160e+00 -4.218309521675109863e-01 -8.776192665100097656e-01
-5.496378540992736816e-01 -2.613276541233062744e-01 -5.503408312797546387e-01 2.573531270027160645e-01 -2.155207246541976929e-01
-4.110472798347473145e-01 3.332309126853942871e-01 -3.313134312629699707e-01 -3.146756887435913086e-01 -1.603034585714340210e-01
-7.099886536598205566e-01 6.565009951591491699e-01 9.723901152610778809e-01 2.476659417152404785e-02 -1.120585441589355469e+00
-9.778648614883422852e-02 1.382177788764238358e-02 1.539475083351135254e+00 -5.223510265350341797e-01 7.539368867874145508e-01
1.349256873130798340e+00 -2.936764955520629883e-01 1.256743788719177246e+00 -6.989333629608154297e-01 -1.277908563613891602e+00
-7.511370182037353516e-01 -1.140513181686401367e+00 9.827277660369873047e-01 -1.581110507249832153e-01 -1.103513836860656738e+00
-4.162222445011138916e-01 -1.340751945972442627e-01 1.745283156633377075e-01 -4.916834235191345215e-01 7.672291398048400879e-01
1.750103533267974854e-01 2.184695482254028320e+00 1.931133270263671875e-01 1.025341033935546875e+00 7.956168651580810547e-01
-1.516749143600463867e+00 1.001940250396728516e+00 2.159714251756668091e-01 -1.441984415054321289e+00 -1.876270920038223267e-01
-1.159316778182983398e+00 -1.152044609189033508e-01 -2.838048338890075684e-02 6.149108409881591797e-01 6.076087355613708496e-01
1.800443232059478760e-02 -6.746779084205627441e-01 -1.608700901269912720e-01 2.601407527923583984e+00 -2.726037740707397461e+00
-8.711282610893249512e-01 -2.067202091217041016e+00 9.031673520803451538e-02 -1.918057203292846680e-01 1.382623553276062012e+00
2.209302634000778198e-01 7.679654359817504883e-01 1.703618280589580536e-02 -3.975422978401184082e-01 -7.076274156570434570e-01
1.766614913940429688e+00 1.009772866964340210e-01 -2.409394681453704834e-01 5.373297333717346191e-01 -2.564909867942333221e-03
1.245463252067565918e+00 -5.436890125274658203e-01 8.849691152572631836e-01 -8.427075743675231934e-01 4.981536269187927246e-01
1.636800728738307953e-02 2.658634260296821594e-02 -4.543663561344146729e-02 6.374033093452453613e-01 -1.271944284439086914e+00
-1.667266845703125000e+00 -1.474838018417358398e+00 -1.171760082244873047e+00 5.537907406687736511e-02 -2.322956621646881104e-01
1.636505722999572754e+00 1.779067397117614746e+00 -1.380733370780944824e+00 1.149649739265441895e+00 7.802199125289916992e-01
5.382849574089050293e-01 5.874265730381011963e-02 1.099714159965515137e+00 -7.725955247879028320e-01 -6.258063316345214844e-01
-2.441294044256210327e-01 7.726919054985046387e-01 2.893982827663421631e-01 1.580095887184143066e-01 1.677098751068115234e+00
2.322241365909576416e-01 9.683446288108825684e-01 4.475614726543426514e-01 1.164738982915878296e-01 2.444099783897399902e-01
6.796476840972900391e-01 -6.734728347510099411e-03 -3.942357599735260010e-01 -1.544083058834075928e-01 7.324087023735046387e-01
9.944401383399963379e-01 -5.198089480400085449e-01 8.855667710304260254e-01 -8.076905608177185059e-01 -2.532576322555541992e+00
-6.492744684219360352e-01 2.296544462442398071e-01 1.026635766029357910e-01 -1.125190734863281250e+00 -1.097762942314147949e+00
-7.861625552177429199e-01 6.355129480361938477e-01 -7.841374278068542480e-01 -3.025207817554473877e-01 2.829865813255310059e-01
-7.742870450019836426e-01 3.230576962232589722e-02 6.107938289642333984e-01 -7.959858179092407227e-01 -1.664160490036010742e+00
1.544879198074340820e+00 6.903904676437377930e-02 -1.720803737640380859e+00 2.069218903779983521e-01 1.171643614768981934e+00
1.955219954252243042e-01 -2.962727546691894531e-01 -5.764136910438537598e-01 -1.976548880338668823e-01 -7.119120657444000244e-02
2.793401479721069336e+00 -2.208098769187927246e-02 -5.532201528549194336e-01 -3.736992180347442627e-01 1.307505249977111816e+00
2.188045024871826172e+00 5.053978562355041504e-01 1.200644373893737793e-01 -1.973981112241744995e-01 6.924204062670469284e-03
-1.709505915641784668e-01 1.800776362419128418e+00 -4.495444893836975098e-01 -5.795954465866088867e-01 9.390463232994079590e-01
1.448725104331970215e+00 7.795298844575881958e-02 3.166033700108528137e-02 -4.115869104862213135e-02 1.354748308658599854e-01
-4.945206344127655029e-01 5.996615290641784668e-01 -2.449626445770263672e+00 3.983281552791595459e-01 -4.662285447120666504e-01
-6.475923061370849609e-01 -2.051891326904296875e+00 -1.562836289405822754e+00 4.598322883248329163e-02 -2.946007847785949707e-01
6.158753037452697754e-01 1.933338493108749390e-01 -8.525982499122619629e-01 2.402581721544265747e-01 -4.143237173557281494e-01
2.981015741825103760e-01 -2.885207235813140869e-01 -1.254536747932434082e+00 1.812655478715896606e-01 -9.095131754875183105e-01
-4.909804463386535645e-01 5.429307222366333008e-01 6.783576607704162598e-01 2.558346092700958252e-01 8.836990594863891602e-01
7.151514887809753418e-01 1.280416727066040039e+00 1.277364373207092285e+00 1.148185729980468750e+00 -1.208836287260055542e-01
-6.072589755058288574e-01 -5.689518451690673828e-01 1.262518644332885742e+00 2.202211618423461914e-01 8.143827319145202637e-02
5.131872296333312988e-01 5.870927125215530396e-02 -2.393799722194671631e-01 -1.472424417734146118e-01 -1.587641716003417969e+00
-1.795068621635437012e+00 3.602770864963531494e-01 -9.590400755405426025e-02 7.194952368736267090e-01 -4.020605981349945068e-01
-9.603388905525207520e-01 -5.298911929130554199e-01 8.469455242156982422e-01 4.092799723148345947e-01 9.292517304420471191e-01
-1.072771251201629639e-01 -9.417839646339416504e-01 3.303229808807373047e-01 3.200480639934539795e-01 -2.499753236770629883e-01
-1.170255780220031738e+00 -1.428183555603027344e+00 -9.326887726783752441e-01 5.295430421829223633e-01 -3.583442270755767822e-01
3.361303806304931641e-01 -1.829469084739685059e+00 3.523178696632385254e-01 1.379825234413146973e+00 1.297309756278991699e+00
