1.437409281730651855e+00 -3.474501371383666992e-01 -6.316938400268554688e-01 3.194212317466735840e-01 1.053937077522277832e+00
-1.040559291839599609e+00 8.588296771049499512e-01 -2.490863561630249023e+00 -2.771315872669219971e-01 1.000776886940002441e+00
-1.667628288269042969e+00 3.342463076114654541e-01 9.111049771308898926e-02 -1.162094712257385254e+00 2.557294607162475586e+00
-7.159441709518432617e-01 -1.097960591316223145e+00 -7.902904748916625977e-01 -9.755624830722808838e-02 5.283223390579223633e-01
1.346783190965652466e-01 7.271313667297363281e-01 1.870564520359039307e-01 5.923191457986831665e-02 1.088720321655273438e+00
-1.070086240768432617e+00 4.945191442966461182e-01 1.554507017135620117e+00 4.716639816761016846e-01 -2.427564710378646851e-01
1.703674942255020142e-01 1.157884836196899414e+00 -2.125866889953613281e+00 -1.415062069892883301e+00 1.217360734939575195e+00
-2.332389116287231445e+00 -8.260364085435867310e-02 2.655604779720306396e-01 1.033212542533874512e+00 1.921198368072509766e+00
-1.247783303260803223e+00 -9.260761141777038574e-01 9.265128523111343384e-02 -7.024080753326416016e-01 1.441792488098144531e+00
-4.700868427753448486e-01 8.557206392288208008e-01 -5.074104070663452148e-01 4.312337338924407959e-01 1.220778703689575195e+00
4.965368211269378662e-01 6.366842985153198242e-01 9.843443036079406738e-01 7.770259380340576172e-01 -5.514530465006828308e-02
-5.742920041084289551e-01 1.709376871585845947e-01 -1.897789984941482544e-01 -2.504930794239044189e-01 2.238682270050048828e+00
4.231043756008148193e-01 -3.714033663272857666e-01 1.627505421638488770e-01 1.336706638336181641e+00 1.674433708190917969e+00
-2.018819570541381836e+00 6.352301239967346191e-01 3.294139504432678223e-01 1.971654891967773438e+00 8.771944046020507812e-01
-7.326147556304931641e-01 -1.317078173160552979e-01 -1.630300879478454590e+00 1.845375657081604004e+00 -6.609870791435241699e-01
8.137601017951965332e-01 -2.817817032337188721e-01 1.285399675369262695e+00 -3.612257242202758789e-01 1.063937664031982422e+00
-3.462270796298980713e-01 -1.447237253189086914e+00 1.568331599235534668e+00 -3.254955708980560303e-01 -6.938340663909912109e-01
-1.119238734245300293e+00 1.341351419687271118e-01 1.721272945404052734e+00 -8.026233911514282227e-01 -1.286068111658096313e-01
-8.844621181488037109e-01 8.285968303680419922e-01 2.042917758226394653e-01 1.447768926620483398e+00 -5.768812298774719238e-01
-2.069549798965454102e+00 -1.232215687632560730e-01 1.907949447631835938e-01 1.835040926933288574e+00 1.431154459714889526e-01
1.026600003242492676e+00 5.713806152343750000e-01 2.625465989112854004e-01 5.736207365989685059e-01 -4.526628255844116211e-01
1.629705905914306641e+00 -2.048782110214233398e+00 -8.062669634819030762e-01 6.969568729400634766e-01 -4.603718817234039307e-01
-1.330776572227478027e+00 2.362857341766357422e+00 -2.437112927436828613e-01 -6.393289566040039062e-02 -1.680656671524047852e+00
1.705825090408325195e+00 6.791172623634338379e-01 4.856728315353393555e-01 -1.146969437599182129e+00 -1.132601723074913025e-01
-7.137452960014343262e-01 -6.362411379814147949e-01 2.879073917865753174e-01 4.321934878826141357e-01 -1.615553498268127441e+00
-7.786117494106292725e-02 -2.135505825281143188e-01 -3.329718112945556641e-01 -1.502522826194763184e-01 -2.376306504011154175e-01
-2.036806344985961914e+00 1.693552970886230469e+00 -3.635768890380859375e-01 1.141793847084045410e+00 2.190408557653427124e-01
-1.708128601312637329e-01 -5.719093233346939087e-02 -3.839967548847198486e-01 5.563058257102966309e-01 4.835368394851684570e-01
-1.216859102249145508e+00 -1.334716320037841797e+00 -5.107319951057434082e-01 1.230050921440124512e+00 -6.158958077430725098e-01
-7.325822114944458008e-01 4.665650427341461182e-01 2.466621436178684235e-02 -1.453410983085632324e+00 1.388047635555267334e-01
