1.293712973594665527e+00
-4.697475135326385498e-01
-7.418597936630249023e-01
2.710043489933013916e-01
9.886093139648437500e-01
-1.236440777778625488e+00
7.712649106979370117e-01
-2.566664218902587891e+00
-2.926893532276153564e-01
1.041150212287902832e+00
-1.769528508186340332e+00
2.390195280313491821e-01
2.917703939601778984e-03
-1.077975392341613770e+00
2.567062377929687500e+00
-7.227197885513305664e-01
-1.051282405853271484e+00
-7.053045630455017090e-01
-6.119763106107711792e-02
3.442799448966979980e-01
2.280280739068984985e-01
8.815862536430358887e-01
3.261973857879638672e-01
-4.131788015365600586e-02
6.741931438446044922e-01
-7.796787619590759277e-01
7.666866183280944824e-01
1.837242364883422852e+00
5.250561833381652832e-01
-3.955307006835937500e-01
3.788830339908599854e-01
1.253652453422546387e+00
-2.107186079025268555e+00
-1.380970358848571777e+00
1.163404226303100586e+00
-2.308294773101806641e+00
-1.535017043352127075e-01
2.450331151485443115e-01
1.077791690826416016e+00
1.929172158241271973e+00
-1.223049402236938477e+00
-8.888860940933227539e-01
9.256039559841156006e-02
-6.344956159591674805e-01
1.395137071609497070e+00
-4.302969872951507568e-01
8.292281031608581543e-01
-5.082231760025024414e-01
3.315832614898681641e-01
9.459448456764221191e-01
5.989464521408081055e-01
6.997210979461669922e-01
1.097909569740295410e+00
1.005098819732666016e+00
2.173894494771957397e-01
-3.962830007076263428e-01
3.302832543849945068e-01
-8.063638955354690552e-02
-1.232263445854187012e-01
2.474385261535644531e+00
7.170944213867187500e-01
-1.951863020658493042e-01
2.139021903276443481e-01
1.415001034736633301e+00
1.720033288002014160e+00
-1.629875183105468750e+00
9.198126792907714844e-01
4.055635333061218262e-01
1.895628452301025391e+00
8.460201025009155273e-01
-2.578133344650268555e-01
1.288741976022720337e-01
-1.619627356529235840e+00
1.781249880790710449e+00
-6.520171165466308594e-01
5.431829094886779785e-01
-3.797612190246582031e-01
1.070130586624145508e+00
-7.985070943832397461e-01
9.326484799385070801e-01
-4.540897011756896973e-01
-1.499818325042724609e+00
1.344470500946044922e+00
-5.931676030158996582e-01
-7.280922532081604004e-01
-1.051353335380554199e+00
7.803557813167572021e-02
1.598990917205810547e+00
-8.142521977424621582e-01
-4.564622417092323303e-02
-7.679050564765930176e-01
8.062214255332946777e-01
3.134316802024841309e-01
1.637860536575317383e+00
-2.835562825202941895e-01
-2.018031120300292969e+00
-1.599089652299880981e-01
3.050555586814880371e-01
2.112639188766479492e+00
4.191545844078063965e-01
9.721841216087341309e-01
2.332320064306259155e-01
-2.281604409217834473e-01
2.046555876731872559e-01
-5.146353244781494141e-01
1.553568959236145020e+00
-2.226299524307250977e+00
-1.219948053359985352e+00
4.788283109664916992e-01
-3.597086071968078613e-01
-1.416876196861267090e+00
2.314827442169189453e+00
-3.658765852451324463e-01
-1.967335306107997894e-02
-1.452568054199218750e+00
1.417536735534667969e+00
8.049002289772033691e-01
7.440971136093139648e-01
-8.306838870048522949e-01
1.905261278152465820e-01
-1.153508901596069336e+00
-5.097299814224243164e-01
6.950005888938903809e-01
8.413237333297729492e-01
-1.389704346656799316e+00
2.271068245172500610e-01
-8.532538264989852905e-02
-5.927128195762634277e-01
-5.482313632965087891e-01
-6.106846928596496582e-01
-1.823671460151672363e+00
1.690849423408508301e+00
-5.756265521049499512e-01
8.881797790527343750e-01
8.872629702091217041e-02
-9.904102236032485962e-02
-1.765417009592056274e-01
-4.902749359607696533e-01
5.390820503234863281e-01
4.676364958286285400e-01
-1.297125458717346191e+00
-1.328049540519714355e+00
-3.660823106765747070e-01
1.483417630195617676e+00
-5.905770063400268555e-01
-7.338017821311950684e-01
6.696448922157287598e-01
3.907193541526794434e-01
-1.178906917572021484e+00
1.489262878894805908e-01
-4.137614965438842773e-01
4.072685837745666504e-01
1.008863329887390137e+00
1.439938545227050781e+00
4.057411551475524902e-01
-1.612526893615722656e+00
9.146063029766082764e-02
1.603274941444396973e+00
-7.668427824974060059e-01
1.017164945602416992e+00
-7.087126970291137695e-01
2.100141525268554688e+00
-4.173428118228912354e-01
-1.844342947006225586e+00
7.928658276796340942e-02
1.238827586174011230e+00
1.575119376182556152e+00
-6.944185495376586914e-01
-1.128887478262186050e-02
-1.654566049575805664e+00
3.065136075019836426e-01
-1.016012072563171387e+00
-1.082195878028869629e+00
7.743051052093505859e-01
-5.555460453033447266e-01
6.098000407218933105e-01
-1.227139592170715332e+00
9.054604768753051758e-01
6.137583851814270020e-01
5.968341231346130371e-01
-8.756639361381530762e-01
1.281376123428344727e+00
3.985980451107025146e-01
-1.339355558156967163e-01
1.364383995532989502e-01
-1.867594420909881592e-01
-8.558138012886047363e-01
8.691806197166442871e-01
2.234932422637939453e+00
-1.662290841341018677e-01
-1.300611048936843872e-01
6.101832389831542969e-01
-2.501174211502075195e-01
-1.718164205551147461e+00
1.603002995252609253e-01
-9.310971498489379883e-01
-2.147533893585205078e+00
8.400303125381469727e-01
4.459262490272521973e-01
6.985586285591125488e-01
2.408607006072998047e-01
-9.575794935226440430e-01
-1.168096065521240234e+00
7.351633310317993164e-01
-3.006606400012969971e-01
1.300998568534851074e+00
7.611988782882690430e-01
3.154250681400299072e-01
1.632780671119689941e+00
-2.751491367816925049e-01
1.589267253875732422e+00
1.910569071769714355e-01
-3.332353532314300537e-01
-8.408139944076538086e-01
8.890591859817504883e-01
-8.227227628231048584e-02
6.261763572692871094e-01
1.751448273658752441e+00
-1.920965015888214111e-01
-1.844254612922668457e+00
4.361417591571807861e-01
2.575649619102478027e-01
8.415179848670959473e-01
-7.868310213088989258e-01
-6.531562805175781250e-01
8.940719962120056152e-01
2.255962342023849487e-01
-1.734343647956848145e+00
-4.804773032665252686e-01
1.338982880115509033e-01
-6.488670408725738525e-02
1.321350455284118652e+00
-1.017091155052185059e+00
3.306958675384521484e-01
-2.501559972763061523e+00
-1.124418497085571289e+00
9.187229871749877930e-01
5.655651688575744629e-01
-1.073119044303894043e+00
-5.579774379730224609e-01
-1.561872720718383789e+00
-6.034200191497802734e-01
-6.777464151382446289e-01
1.479703426361083984e+00
1.441402196884155273e+00
-6.098030805587768555e-01
-1.223491072654724121e+00
-1.945239454507827759e-01
1.539068579673767090e+00
-3.560957908630371094e-01
-1.512498497962951660e+00
-6.975727677345275879e-01
-5.117586851119995117e-01
-4.259743392467498779e-01
1.792645007371902466e-01
2.510732114315032959e-01
-2.220784664154052734e+00
2.364117056131362915e-01
-1.253533482551574707e+00
-1.051404237747192383e+00
-1.163796186447143555e+00
-6.313664466142654419e-02
1.015451312065124512e+00
4.614152610301971436e-01
-1.828557133674621582e+00
-6.155431270599365234e-01
8.658985793590545654e-02
1.345234274864196777e+00
7.454984784126281738e-01
-2.075668096542358398e+00
1.154656291007995605e+00
-2.695507287979125977e+00
6.247718334197998047e-01
-1.595399737358093262e+00
-1.726392745971679688e+00
1.089980006217956543e+00
-1.017222285270690918e+00
1.171470165252685547e+00
8.015785813331604004e-01
1.105902194976806641e+00
3.803555369377136230e-01
7.477871179580688477e-01
6.068010330200195312e-01
5.451732873916625977e-01
-1.288887619972229004e+00
-9.315022230148315430e-01
-1.604161500930786133e+00
5.913113355636596680e-01
3.044901847839355469e+00
1.072033524513244629e+00
1.511241316795349121e+00
4.720776975154876709e-01
-5.857437849044799805e-01
9.966710209846496582e-01
-1.021892786026000977e+00
1.183023571968078613e+00
-2.686868906021118164e-01
2.956330776214599609e-01
-4.519303739070892334e-01
1.033908277750015259e-01
-4.556965231895446777e-01
-1.627188771963119507e-01
1.204657554626464844e+00
7.871128916740417480e-01
6.059910058975219727e-01
-1.508801460266113281e+00
-5.325120687484741211e-01
3.592326641082763672e-01
-5.696764588356018066e-01
1.193445324897766113e+00
6.221151947975158691e-01
-1.352874755859375000e+00
7.502080798149108887e-01
6.907956004142761230e-01
-1.079753875732421875e+00
1.556528925895690918e+00
-1.534070491790771484e+00
-9.969301819801330566e-01
5.538057088851928711e-01
1.716719150543212891e+00
-8.710988759994506836e-01
1.700190901756286621e+00
-3.932528197765350342e-01
-6.793326735496520996e-01
-4.545359611511230469e-01
4.975627064704895020e-01
1.022760748863220215e+00
1.382761716842651367e+00
-1.092663645744323730e+00
-1.289334058761596680e+00
9.941713213920593262e-01
1.579847037792205811e-01
-1.245521187782287598e+00
-1.543163180351257324e+00
1.071089029312133789e+00
1.264936625957489014e-01
-2.835229158401489258e+00
1.017687678337097168e+00
1.261512041091918945e+00
-1.899729609489440918e+00
9.730591624975204468e-02
-9.327556490898132324e-01
-1.183482289314270020e+00
1.797790408134460449e+00
-5.733171701431274414e-01
1.900760054588317871e+00
-1.383709430694580078e+00
5.915335416793823242e-01
1.150538206100463867e+00
-4.964510798454284668e-01
3.611185550689697266e-01
-5.231990814208984375e-01
-1.066743850708007812e+00
4.324313402175903320e-01
-3.541437909007072449e-02
-8.562334179878234863e-01
2.054001390933990479e-01
-7.263649106025695801e-01
-3.336273431777954102e-01
-1.244128227233886719e+00
6.268311738967895508e-01
5.249300003051757812e-01
-1.317084074020385742e+00
1.140632390975952148e+00
-4.271597564220428467e-01
8.378910422325134277e-01
-1.358911991119384766e+00
3.740769326686859131e-01
6.008753180503845215e-01
-7.795886397361755371e-01
1.304431915283203125e+00
5.732993483543395996e-01
-2.018326818943023682e-01
-3.505973219871520996e-01
-1.267344594001770020e+00
1.086608767509460449e+00
-9.638838768005371094e-01
8.349521458148956299e-02
-7.362976670265197754e-01
-1.315520882606506348e+00
-1.619471192359924316e+00
4.436858892440795898e-01
8.654861450195312500e-01
7.128969430923461914e-01
-3.304165899753570557e-01
6.408374309539794922e-01
-3.569916188716888428e-01
1.336253643035888672e+00
9.444467425346374512e-01
-1.758904576301574707e+00
3.164284229278564453e+00
-6.802744865417480469e-01
-1.961957097053527832e+00
1.406930088996887207e+00
1.161823511123657227e+00
5.392589569091796875e-01
2.335078716278076172e-01
2.300115972757339478e-01
2.716549336910247803e-01
-7.510590553283691406e-01
7.323789596557617188e-01
-6.559087038040161133e-01
-1.152691364288330078e+00
1.682014942169189453e+00
1.197783589363098145e+00
-4.736628234386444092e-01
-2.248044610023498535e-01
-3.662531971931457520e-01
-8.812893033027648926e-01
-5.679038166999816895e-01
-4.038020670413970947e-01
1.283596873283386230e+00
1.540253520011901855e+00
-4.607935845851898193e-01
-1.062894836068153381e-01
-7.538430094718933105e-01
-2.630366683006286621e-01
-6.114153191447257996e-03
-3.207654356956481934e-01
-3.741755485534667969e-01
2.271786630153656006e-01
1.790744811296463013e-01
7.742471694946289062e-01
3.124470114707946777e-01
-9.940788149833679199e-01
-9.856513738632202148e-01
-6.867138147354125977e-01
3.603467941284179688e-01
5.548002198338508606e-02
8.848944902420043945e-01
-2.955516278743743896e-01
7.535448670387268066e-01
1.150438189506530762e+00
-1.601936936378479004e+00
1.052852571010589600e-01
-7.714084815233945847e-03
7.322595119476318359e-01
1.386483572423458099e-02
2.912258505821228027e-01
3.807226121425628662e-01
6.207268834114074707e-01
-8.786811232566833496e-01
7.982049137353897095e-02
2.348527461290359497e-01
-7.482931613922119141e-01
-6.606892347335815430e-01
-1.065124034881591797e+00
-9.838483333587646484e-01
3.558211326599121094e-01
7.245795726776123047e-01
2.643616795539855957e-01
6.394495368003845215e-01
1.198534846305847168e+00
-5.253654122352600098e-01
-4.568149745464324951e-01
-7.278728485107421875e-01
8.768056035041809082e-01
9.988654851913452148e-01
5.564357638359069824e-01
1.018443465232849121e+00
5.035777688026428223e-01
1.870650649070739746e-01
-6.361364722251892090e-01
1.074334383010864258e+00
-1.162102818489074707e+00
1.339079290628433228e-01
7.559531331062316895e-01
-5.333610996603965759e-02
-1.201634332537651062e-01
-2.627639174461364746e-01
-1.017912849783897400e-01
-3.482564985752105713e-01
-2.333365201950073242e+00
-1.705690145492553711e+00
-5.211079716682434082e-01
8.434780240058898926e-01
-1.999676041305065155e-02
3.878271281719207764e-01
-2.057715415954589844e+00
6.674429178237915039e-01
-1.471190333366394043e+00
1.481292724609375000e+00
-8.438316583633422852e-01
6.659650802612304688e-01
7.296466827392578125e-01
-6.016062572598457336e-02
-4.275605082511901855e-01
-7.055884599685668945e-02
-2.024190664291381836e+00
5.248368382453918457e-01
1.170957013964653015e-01
1.835793137550354004e+00
2.518173694610595703e+00
-2.425607919692993164e+00
7.072822451591491699e-01
-4.105102717876434326e-01
-6.229385733604431152e-01
-5.278546810150146484e-01
-1.270063161849975586e+00
-1.444411158561706543e+00
-8.537721633911132812e-01
2.282210350036621094e+00
-8.070650696754455566e-01
-4.457414895296096802e-02
-7.455694079399108887e-01
-8.245421648025512695e-01
-1.011328816413879395e+00
3.477541729807853699e-02
-1.930699199438095093e-01
8.776640295982360840e-01
5.417200326919555664e-01
-3.516313433647155762e-01
-1.094200253486633301e+00
-2.668157339096069336e+00
9.003530740737915039e-01
1.017336368560791016e+00
-1.377554416656494141e+00
-7.453541755676269531e-01
6.612146496772766113e-01
-5.957412123680114746e-01
-2.492947131395339966e-01
-5.682092308998107910e-01
4.992597103118896484e-01
-1.478699088096618652e+00
5.738189071416854858e-02
-7.434304952621459961e-01
-8.685026168823242188e-01
-1.733982563018798828e-01
-1.201084017753601074e+00
-4.407564178109169006e-02
8.733511567115783691e-01
-8.351664543151855469e-01
1.144949316978454590e+00
-2.215651124715805054e-01
3.014842271804809570e-01
-4.792506396770477295e-01
2.768881618976593018e-01
2.951127767562866211e+00
-1.127967596054077148e+00
1.769167304039001465e+00
-9.862850308418273926e-01
1.278148770332336426e+00
-7.997868061065673828e-01
-7.280273437500000000e-01
-5.100150704383850098e-01
-2.413476109504699707e-01
-6.996914148330688477e-01
-5.994198322296142578e-01
-4.914059340953826904e-01
1.163357496261596680e+00
3.631024062633514404e-01
-1.891335487365722656e+00
3.459671437740325928e-01
2.219788432121276855e-01
-4.748898744583129883e-01
3.592499718070030212e-02
1.033460617065429688e+00
1.947321891784667969e-01
4.449437856674194336e-01
-1.287677884101867676e-01
-5.861245393753051758e-01
2.423439621925354004e-01
2.027946949005126953e+00
-6.940692663192749023e-01
4.856172502040863037e-01
-1.980886608362197876e-01
-1.167760565876960754e-01
1.398351073265075684e+00
9.150111675262451172e-01
5.317470431327819824e-01
5.536823868751525879e-01
-6.167112663388252258e-02
-4.824351668357849121e-01
1.463124621659517288e-02
-1.856762647628784180e+00
-8.609669655561447144e-02
-1.055972337722778320e+00
-9.164115190505981445e-01
2.171272188425064087e-01
-1.014529585838317871e+00
2.690408825874328613e-01
-1.118713855743408203e+00
-6.901243329048156738e-01
1.400279521942138672e+00
7.168621420860290527e-01
-4.555898904800415039e-01
-2.230280637741088867e-02
1.486469864845275879e+00
6.406888365745544434e-02
1.039329171180725098e-01
3.376551568508148193e-01
-4.103879332542419434e-01
-7.704266905784606934e-01
-1.005246400833129883e+00
1.020987749099731445e+00
-1.319285184144973755e-01
9.865095019340515137e-01
-1.300636887550354004e+00
-1.003018379211425781e+00
8.269147276878356934e-01
-3.761914372444152832e-01
-2.151875644922256470e-01
-8.893679380416870117e-01
2.479944378137588501e-01
1.483921766281127930e+00
4.659589827060699463e-01
-1.032949566841125488e+00
-1.099793314933776855e+00
-1.128635048866271973e+00
-1.255973815917968750e+00
1.378297805786132812e+00
-2.889293730258941650e-01
1.098262518644332886e-02
1.806979656219482422e+00
2.700091898441314697e-01
7.423186302185058594e-02
-1.631744742393493652e+00
-4.576878994703292847e-02
4.987531304359436035e-01
3.558872342109680176e-01
-1.172786831855773926e+00
1.348130255937576294e-01
-6.815270781517028809e-01
5.838682055473327637e-01
1.209235906600952148e+00
9.396981000900268555e-01
2.769186198711395264e-01
-1.478623598814010620e-01
-1.063649058341979980e-01
-1.133665964007377625e-01
9.909062981605529785e-01
1.908678710460662842e-01
1.093736767768859863e+00
-1.088064908981323242e+00
6.398962736129760742e-01
-8.391137123107910156e-01
-1.462156176567077637e+00
3.657107427716255188e-02
6.840028166770935059e-01
1.031264781951904297e+00
4.736855626106262207e-01
6.156287193298339844e-01
1.133402585983276367e+00
-9.750054776668548584e-02
-3.673219084739685059e-01
-9.613703489303588867e-01
2.214404642581939697e-01
-2.404574751853942871e-01
3.527226448059082031e-01
1.203197002410888672e+00
1.201763272285461426e+00
-4.292325675487518311e-01
4.977514967322349548e-02
-7.819536924362182617e-01
-6.764267086982727051e-01
-8.698079586029052734e-01
-6.209493875503540039e-01
-8.297688364982604980e-01
-1.154823660850524902e+00
-3.342477381229400635e-01
3.325769305229187012e-01
-5.683426856994628906e-01
2.333235025405883789e+00
6.352108716964721680e-01
1.410506069660186768e-01
-1.995825171470642090e+00
-6.280700564384460449e-01
-1.059046387672424316e+00
1.232430577278137207e+00
7.448535561561584473e-01
-1.201545119285583496e+00
2.765449881553649902e-01
2.133194357156753540e-01
-6.662505269050598145e-01
2.552961409091949463e-01
-6.231746673583984375e-01
-7.595330476760864258e-02
1.991265296936035156e+00
-1.197304129600524902e+00
2.043538331985473633e+00
1.164847612380981445e+00
3.361007273197174072e-01
5.857926607131958008e-01
1.368222594261169434e+00
4.049156904220581055e-01
1.115878701210021973e+00
1.398614764213562012e+00
-1.195324212312698364e-01
1.675321757793426514e-01
3.200322389602661133e-01
-1.263594925403594971e-01
-4.691560268402099609e-01
9.426695704460144043e-01
-1.050796866416931152e+00
-1.592147946357727051e+00
-1.068125009536743164e+00
-1.473365902900695801e+00
-9.638509750366210938e-01
2.057599723339080811e-01
-4.823998212814331055e-01
-8.853428363800048828e-01
3.214421272277832031e-01
5.627003908157348633e-01
-5.074357986450195312e-01
1.111529469490051270e+00
-2.248940467834472656e+00
2.067837566137313843e-01
7.299985289573669434e-01
4.735873341560363770e-01
2.717392146587371826e-01
2.471819818019866943e-01
2.114387512207031250e+00
1.740723490715026855e+00
3.894322812557220459e-01
9.812059998512268066e-02
-1.739517152309417725e-01
9.229507446289062500e-01
3.723535314202308655e-02
2.022795438766479492e+00
3.730731308460235596e-01
-3.910349309444427490e-01
4.290712475776672363e-01
5.456479191780090332e-01
-2.647309541702270508e+00
-3.678883910179138184e-01
-9.597122669219970703e-01
4.754652678966522217e-01
4.059899747371673584e-01
-4.215782582759857178e-01
-3.517251610755920410e-01
-1.760255545377731323e-01
-2.894709706306457520e-01
5.586695075035095215e-01
3.518641591072082520e-01
1.229653239250183105e+00
-7.173992395401000977e-01
1.364677429199218750e+00
-9.970313869416713715e-03
-7.626237869262695312e-01
-9.464136958122253418e-01
-5.388689637184143066e-01
1.830123305320739746e+00
5.419513210654258728e-02
-1.077063798904418945e+00
-7.983692288398742676e-01
-5.960091203451156616e-02
1.560129046440124512e+00
2.573763430118560791e-01
-1.111159682273864746e+00
-9.083542227745056152e-01
4.197940528392791748e-01
2.675010561943054199e-01
2.840241193771362305e-01
3.518413901329040527e-01
5.722083449363708496e-01
4.276624321937561035e-01
-1.369470804929733276e-01
1.013614177703857422e+00
-5.917938947677612305e-01
-1.524351537227630615e-01
6.881111264228820801e-01
1.058912634849548340e+00
1.595630645751953125e+00
-3.322666883468627930e-01
-8.088550530374050140e-03
3.786371946334838867e-01
-2.281281650066375732e-01
9.577548503875732422e-01
-6.550936698913574219e-01
3.363224267959594727e-01
3.493260145187377930e-01
-8.862757682800292969e-01
-1.370163440704345703e+00
-5.034061148762702942e-02
-1.715947508811950684e+00
1.868410944938659668e+00
-6.873704791069030762e-01
-9.812382608652114868e-02
-2.091088771820068359e+00
-7.157036662101745605e-01
-2.614483833312988281e+00
-4.433761537075042725e-02
-6.394260525703430176e-01
8.220281600952148438e-01
-2.370684035122394562e-02
-1.576401352882385254e+00
4.067214429378509521e-01
3.177277743816375732e-02
1.194184899330139160e+00
7.915582060813903809e-01
8.011405169963836670e-02
8.785208463668823242e-01
3.680809736251831055e-01
1.761229872703552246e+00
1.140461921691894531e+00
-5.276259183883666992e-01
-1.139740824699401855e+00
2.812955379486083984e-01
-1.532498747110366821e-01
-6.275533437728881836e-01
-2.461045026779174805e+00
-5.087276697158813477e-01
1.538929462432861328e+00
-5.864132046699523926e-01
1.554162144660949707e+00
-2.120746850967407227e+00
-1.703969836235046387e+00
-8.497728109359741211e-01
-3.240401744842529297e-01
-1.510800004005432129e+00
1.090621113777160645e+00
-3.041578233242034912e-01
-7.090121507644653320e-01
-1.966673254966735840e+00
-1.912486702203750610e-01
5.785174369812011719e-01
-2.462296336889266968e-01
2.620340585708618164e-01
-3.108805716037750244e-01
-1.302492499351501465e+00
1.755269885063171387e+00
-2.206666231155395508e+00
6.288784742355346680e-01
3.228990137577056885e-01
-1.091701745986938477e+00
-8.485522270202636719e-01
-8.254177570343017578e-01
-5.336976051330566406e-01
-4.603507816791534424e-01
7.928798794746398926e-01
6.104196906089782715e-01
2.090970516204833984e+00
1.475376009941101074e+00
-3.439371883869171143e-01
-9.522744268178939819e-02
4.765593260526657104e-02
6.091983318328857422e-01
6.706849932670593262e-01
2.690128684043884277e-01
-8.971139192581176758e-01
4.163336157798767090e-01
-3.594452142715454102e-01
3.340559303760528564e-01
7.369097322225570679e-02
1.448861479759216309e+00
-8.712335228919982910e-01
4.434292912483215332e-01
-2.045415639877319336e-01
1.612027168273925781e+00
-6.133306026458740234e-01
6.547799706459045410e-01
-1.200942277908325195e+00
-5.969586968421936035e-01
5.452284216880798340e-01
1.468035459518432617e+00
-4.223698079586029053e-01
1.148988842964172363e+00
4.640511274337768555e-01
-1.425261974334716797e+00
3.734151721000671387e-01
4.320624768733978271e-01
1.343220829963684082e+00
4.994123280048370361e-01
2.680925428867340088e-01
4.544430673122406006e-01
2.267266511917114258e+00
8.772785067558288574e-01
9.121441245079040527e-01
7.339987158775329590e-01
7.978717684745788574e-01
-6.328954696655273438e-01
-1.416334629058837891e+00
1.418393015861511230e+00
5.224904976785182953e-03
5.463788509368896484e-01
1.029793500900268555e+00
-1.993731737136840820e+00
-3.424222469329833984e-01
2.574682831764221191e-01
1.031703710556030273e+00
6.571371108293533325e-02
1.457170605659484863e+00
1.177646160125732422e+00
2.073987007141113281e+00
4.563116431236267090e-01
-4.120366275310516357e-01
1.041458129882812500e+00
2.295351959764957428e-02
1.191598176956176758e+00
1.056962966918945312e+00
3.469961583614349365e-01
5.877923369407653809e-01
1.615996479988098145e+00
-1.272073864936828613e+00
1.969739437103271484e+00
-1.723382174968719482e-01
-2.184903025627136230e-01
9.681332111358642578e-01
1.129842758178710938e+00
-3.637003600597381592e-01
6.434008479118347168e-01
-7.483407855033874512e-02
5.552343726158142090e-01
-5.840091109275817871e-01
2.756494879722595215e-01
-1.400061249732971191e-01
6.603415012359619141e-01
-2.235342264175415039e+00
1.052441954612731934e+00
8.752126693725585938e-01
2.908069372177124023e+00
1.046813368797302246e+00
-5.717051625251770020e-01
1.155834078788757324e+00
-1.642165899276733398e+00
1.566622108221054077e-01
1.733322739601135254e+00
9.598507881164550781e-01
4.403405189514160156e-01
-6.735839843750000000e-01
-9.519526958465576172e-01
7.677328586578369141e-01
6.306284666061401367e-02
-8.670905828475952148e-01
1.102015614509582520e+00
1.215436458587646484e-01
6.488160789012908936e-02
8.902677148580551147e-02
-9.983540177345275879e-01
1.478832483291625977e+00
-1.324723809957504272e-01
-3.337429761886596680e-01
-8.916369825601577759e-02
2.003816604614257812e+00
6.020731329917907715e-01
1.980981945991516113e+00
3.458951413631439209e-01
3.006255924701690674e-01
-2.096395492553710938e-01
-2.831279039382934570e-01
-2.730522751808166504e-01
4.561819732189178467e-01
9.091774225234985352e-01
-8.006865978240966797e-01
1.506320238113403320e+00
1.119309306144714355e+00
-2.834113836288452148e-01
6.305516958236694336e-01
-5.477508306503295898e-01
-9.654899239540100098e-01
6.687361001968383789e-01
-1.451152563095092773e+00
-2.732721865177154541e-01
-1.200576543807983398e+00
-1.309471368789672852e+00
-8.489143252372741699e-01
-1.158077001571655273e+00
-8.215098381042480469e-01
1.718648910522460938e+00
-8.626463413238525391e-01
4.693241715431213379e-01
-7.550293803215026855e-01
-7.952726483345031738e-01
2.250194400548934937e-01
1.367672681808471680e+00
3.538706004619598389e-01
2.184443622827529907e-01
8.255032449960708618e-02
-2.778369486331939697e-01
-1.098966717720031738e+00
-1.162282675504684448e-01
4.872629344463348389e-01
4.885302856564521790e-02
1.542526841163635254e+00
-7.898266911506652832e-01
9.529533386230468750e-01
1.358295679092407227e-01
9.332543015480041504e-01
1.134950757026672363e+00
-1.874327182769775391e+00
-8.875393271446228027e-01
1.276589930057525635e-01
-2.239747494459152222e-01
1.652299016714096069e-01
-2.610647976398468018e-01
8.103893399238586426e-01
-6.633225083351135254e-02
9.195746183395385742e-01
2.156752824783325195e+00
9.903863668441772461e-01
-4.400197565555572510e-01
-6.795985698699951172e-01
-8.107058405876159668e-01
1.757572412490844727e+00
2.634591817855834961e+00
-1.082551479339599609e+00
-6.400392651557922363e-01
-4.222903847694396973e-01
9.318146109580993652e-01
-4.104653298854827881e-01
5.222558975219726562e-01
-3.318987190723419189e-01
5.878812670707702637e-01
-1.156222820281982422e+00
1.056103825569152832e+00
1.633526921272277832e+00
-1.679220348596572876e-01
4.168188944458961487e-02
5.118988826870918274e-02
5.079871416091918945e-01
-6.058750748634338379e-01
3.139652609825134277e-01
-9.515447020530700684e-01
-3.697215616703033447e-01
1.438048928976058960e-01
-9.299836754798889160e-01
7.430679798126220703e-01
3.182751834392547607e-01
-7.705850601196289062e-01
-6.459814310073852539e-01
-1.243209242820739746e+00
1.339782476425170898e+00
-1.584867119789123535e+00
-2.674349069595336914e+00
-6.570350527763366699e-01
6.074914932250976562e-01
-4.279396235942840576e-01
8.323263525962829590e-01
2.192213833332061768e-01
-4.505132436752319336e-01
-2.168369591236114502e-01
-6.676752567291259766e-01
-9.217134118080139160e-01
-1.839588880538940430e-01
6.304752826690673828e-01
-1.690222263336181641e+00
-7.017700076103210449e-01
-6.868806481361389160e-01
-1.414925813674926758e+00
-5.314197540283203125e-01
-3.500604331493377686e-01
2.300539053976535797e-02
-8.168832063674926758e-01
-3.014312088489532471e-01
-1.025661304593086243e-01
-1.558173418045043945e+00
1.040089130401611328e+00
1.330911666154861450e-01
4.507994651794433594e-01
-1.284841299057006836e+00
-8.857463598251342773e-01
-8.533367514610290527e-01
1.587049514055252075e-01
6.000269055366516113e-01
-3.817041814327239990e-01
-2.999780476093292236e-01
5.584977865219116211e-01
1.274499654769897461e+00
1.800011873245239258e+00
-2.263894796371459961e+00
1.385682672262191772e-01
-1.262655854225158691e+00
-7.534773945808410645e-01
1.763060927391052246e+00
-5.765566229820251465e-01
-6.429939866065979004e-01
1.076501965522766113e+00
-6.284782886505126953e-01
-2.977427244186401367e-01
-2.189695358276367188e+00
-2.257666349411010742e+00
1.820621728897094727e+00
2.770922780036926270e-01
-1.101785421371459961e+00
7.144272327423095703e-01
-1.286957859992980957e+00
-2.764485180377960205e-01
-3.570755124092102051e-01
-1.214839458465576172e+00
1.469173550605773926e+00
-3.426820738241076469e-03
1.107529044151306152e+00
-3.159515559673309326e-01
1.838960528373718262e+00
-1.991981506347656250e+00
6.711498498916625977e-01
1.679613441228866577e-01
2.580927908420562744e-01
5.278670787811279297e-01
1.130247592926025391e+00
8.792232871055603027e-01
-5.003771781921386719e-01
-1.129852056503295898e+00
8.139648437500000000e-01
5.037276744842529297e-01
5.028687715530395508e-01
-9.190146923065185547e-01
4.277593493461608887e-01
9.366031736135482788e-02
-3.457793891429901123e-01
1.201821565628051758e+00
-9.277841448783874512e-02
4.806629121303558350e-01
1.715775132179260254e+00
2.865924835205078125e-01
-7.896811366081237793e-01
8.054914474487304688e-01
-4.032914936542510986e-01
5.212853550910949707e-01
6.974763274192810059e-01
-1.423316955566406250e+00
1.328176409006118774e-01
3.720577955245971680e-01
4.030467569828033447e-01
3.964684009552001953e-01
1.691500186920166016e+00
-3.112787306308746338e-01
-1.414245367050170898e-01
-5.258411765098571777e-01
-2.518643438816070557e-01
3.836130499839782715e-01
-1.484871745109558105e+00
-3.418546020984649658e-01
-2.950520217418670654e-01
-1.561159610748291016e+00
-3.524972200393676758e-01
-1.118911504745483398e+00
2.818672955036163330e-01
1.252144813537597656e+00
-2.393431425094604492e+00
-8.121504634618759155e-02
-6.016979813575744629e-01
8.492265939712524414e-01
-1.132723093032836914e-01
5.106052383780479431e-03
2.113058790564537048e-02
-1.554217576980590820e+00
1.408338453620672226e-02
1.157159060239791870e-01
-4.385065436363220215e-01
-5.305189639329910278e-02
9.167563319206237793e-01
1.894477367401123047e+00
2.274644970893859863e-01
1.190214991569519043e+00
-5.331746768206357956e-03
-1.831788897514343262e+00
-5.892704129219055176e-01
-2.579543352127075195e+00
9.551187753677368164e-01
-4.928472340106964111e-01
5.170319080352783203e-01
-1.803273081779479980e+00
-3.775730133056640625e-01
7.363846153020858765e-02
2.781001567840576172e+00
-1.182930707931518555e+00
1.678852140903472900e-01
4.745903909206390381e-01
4.749726653099060059e-01
-6.808176636695861816e-01
-1.146499395370483398e+00
1.479771614074707031e+00
-1.003085494041442871e+00
-2.383432835340499878e-01
5.098574161529541016e-01
-8.784754872322082520e-01
-1.039027690887451172e+00
-1.296622902154922485e-01
3.483095765113830566e-01
-1.263486504554748535e+00
7.061958909034729004e-01
7.118359804153442383e-01
-2.055776268243789673e-01
7.299464344978332520e-01
-1.896018385887145996e+00
2.625473029911518097e-02
-1.018991842865943909e-01
-1.224103212356567383e+00
-1.360171675682067871e+00
5.319968461990356445e-01
-2.183399438858032227e+00
-7.083201408386230469e-02
5.865784883499145508e-01
-9.401039481163024902e-01
-1.072556376457214355e+00
-4.918351173400878906e-01
5.743178725242614746e-01
9.115451015532016754e-03
2.038454771041870117e+00
3.184280991554260254e-01
-1.803224906325340271e-02
3.127160549163818359e+00
-6.595655810087919235e-03
2.063000947237014771e-01
1.355806738138198853e-01
1.120263338088989258e+00
1.181488558650016785e-01
-9.136680960655212402e-01
1.132420182228088379e+00
-2.007842302322387695e+00
1.289972513914108276e-01
6.644610762596130371e-01
-6.879032254219055176e-01
-1.611157417297363281e+00
-2.100733757019042969e+00
1.351117014884948730e+00
4.799187183380126953e-02
7.310067415237426758e-01
6.574052572250366211e-01
9.072695374488830566e-01
4.539806246757507324e-01
-8.953723907470703125e-01
3.688242286443710327e-02
-8.008641600608825684e-01
-1.145349264144897461e+00
3.951786160469055176e-01
6.719900369644165039e-01
1.391636133193969727e+00
1.248652338981628418e+00
-6.391321420669555664e-01
4.988139271736145020e-01
1.563507437705993652e+00
1.645550131797790527e+00
-3.205218613147735596e-01
6.104003172367811203e-03
9.312072992324829102e-01
-5.099497362971305847e-02
-3.310582041740417480e-01
5.669415593147277832e-01
-6.809493899345397949e-01
-7.776393890380859375e-01
-1.457345247268676758e+00
-1.418295979499816895e+00
7.498491406440734863e-01
-5.430141091346740723e-01
-4.463559091091156006e-01
-1.665621519088745117e+00
-4.444533288478851318e-01
5.040494799613952637e-01
-1.165685415267944336e+00
4.613602757453918457e-01
-5.512911677360534668e-01
-1.095634102821350098e+00
9.556375741958618164e-01
-1.428752422332763672e+00
8.062438964843750000e-01
1.955070972442626953e+00
5.390482544898986816e-01
-5.183653533458709717e-02
9.606999158859252930e-01
9.166373014450073242e-01
-5.909459590911865234e-01
1.367301106452941895e+00
-1.166917905211448669e-01
-1.221840739250183105e+00
6.021975874900817871e-01
-1.040988445281982422e+00
-5.343869924545288086e-01
7.179169058799743652e-01
-1.513241380453109741e-01
6.917804479598999023e-02
-3.304885029792785645e-01
-1.337330341339111328e+00
-1.072726771235466003e-01
-3.754085898399353027e-01
1.126301661133766174e-01
1.940835267305374146e-02
-9.287090897560119629e-01
1.070589423179626465e+00
9.911195635795593262e-01
-1.157433539628982544e-01
-3.524647951126098633e-01
-6.713850498199462891e-01
-8.299570181407034397e-04
7.150351535528898239e-03
9.931763410568237305e-01
-1.349843382835388184e+00
-9.389604330062866211e-01
3.900819122791290283e-01
-5.957598090171813965e-01
4.099374115467071533e-01
-2.098142147064208984e+00
1.050230026245117188e+00
7.159700989723205566e-01
-8.343540430068969727e-01
-3.021510541439056396e-01
-4.992401301860809326e-01
-1.704013109207153320e+00
-1.542691469192504883e+00
2.705932259559631348e-01
-1.325853228569030762e+00
-9.497455358505249023e-01
8.138023018836975098e-01
-1.482712984085083008e+00
-6.513208746910095215e-01
-4.941807985305786133e-01
1.023203730583190918e+00
-1.152460098266601562e+00
3.944151103496551514e-01
4.860348403453826904e-01
-2.483358144760131836e+00
-5.390341877937316895e-01
3.868693411350250244e-01
-8.754137754440307617e-01
-1.328367590904235840e+00
6.691091656684875488e-01
-1.204767107963562012e+00
3.404978811740875244e-01
-6.008354574441909790e-02
-2.705406397581100464e-02
-1.953626990318298340e+00
4.388913810253143311e-01
-2.061804980039596558e-01
-9.109335541725158691e-01
-8.015751242637634277e-01
-1.471644878387451172e+00
4.320621490478515625e-01
2.291833877563476562e+00
2.971157133579254150e-01
1.301879167556762695e+00
1.696509718894958496e-01
4.710850417613983154e-01
-3.032364547252655029e-01
-3.140653669834136963e-01
-3.935488760471343994e-01
4.457974061369895935e-02
1.265905857086181641e+00
-4.905383288860321045e-01
-2.409862726926803589e-01
-1.783931553363800049e-01
1.872839093208312988e+00
1.082820534706115723e+00
-1.596673130989074707e+00
-3.114160895347595215e-01
-5.302453041076660156e-02
5.370190739631652832e-01
3.089413419365882874e-02
-2.867250144481658936e-01
2.368572235107421875e+00
8.147289752960205078e-01
-8.696758151054382324e-01
-4.656687378883361816e-01
-6.333696246147155762e-01
-2.392540127038955688e-01
-9.820884466171264648e-01
-5.591135025024414062e-01
-2.476718664169311523e+00
-6.017492413520812988e-01
-1.865768313407897949e+00
-1.359636902809143066e+00
1.873302310705184937e-01
1.758111476898193359e+00
3.438777029514312744e-01
8.833621144294738770e-01
1.462823033332824707e+00
2.710875272750854492e-01
2.052613496780395508e+00
-1.145339965820312500e+00
-6.316942572593688965e-01
9.422048926353454590e-02
-7.366905212402343750e-01
-4.328503012657165527e-01
1.466769933700561523e+00
-1.217887476086616516e-01
-1.427968293428421021e-01
1.044372797012329102e+00
8.771743774414062500e-01
1.003906726837158203e+00
-1.344329237937927246e+00
1.138707026839256287e-01
-1.534921824932098389e-01
1.783529520034790039e-01
7.180163264274597168e-01
6.044574081897735596e-02
1.444188475608825684e+00
-1.757686495780944824e+00
1.405798941850662231e-01
-4.548586905002593994e-01
-5.459615588188171387e-01
7.266417145729064941e-02
8.592944145202636719e-01
2.221331745386123657e-01
-5.163185596466064453e-01
-7.060152012854814529e-03
7.644721865653991699e-01
-2.956922650337219238e-01
-2.884737402200698853e-02
-1.039770245552062988e+00
-1.471416831016540527e+00
-1.414446949958801270e+00
1.338953375816345215e-01
-2.325490564107894897e-01
-5.082343220710754395e-01
-1.422216415405273438e+00
-3.075151443481445312e-01
-2.883886992931365967e-01
-2.226204872131347656e+00
-7.893126457929611206e-02
-2.201865166425704956e-01
-5.543913841247558594e-01
-8.773409128189086914e-01
6.341243386268615723e-01
-4.614170491695404053e-01
-2.467022687196731567e-01
1.681112766265869141e+00
-1.385385155677795410e+00
4.686253070831298828e-01
-2.770247459411621094e-01
-6.559644937515258789e-01
-7.222858667373657227e-01
-1.048651337623596191e+00
-7.825850844383239746e-01
8.437644839286804199e-01
8.834934830665588379e-01
-8.045754581689834595e-02
-8.297570347785949707e-01
-1.301992177963256836e+00
-8.947170972824096680e-01
-3.233654424548149109e-02
9.478412270545959473e-01
-1.522983670234680176e+00
7.729664444923400879e-01
1.391175985336303711e+00
-9.009936451911926270e-01
1.062815546989440918e+00
3.114100396633148193e-01
1.140995025634765625e+00
-2.362544536590576172e-01
4.931863248348236084e-01
-1.217382669448852539e+00
1.254679679870605469e+00
-8.236925601959228516e-01
6.742192506790161133e-01
-6.360001564025878906e-01
4.000116884708404541e-01
2.217928886413574219e+00
1.900307774543762207e+00
-4.721036553382873535e-01
-7.253994941711425781e-01
-1.041783690452575684e+00
2.864054404199123383e-02
-1.042024135589599609e+00
1.735730648040771484e+00
7.003022432327270508e-01
-3.565696477890014648e-01
-5.874536633491516113e-01
4.684167504310607910e-01
1.399338960647583008e+00
7.804108262062072754e-01
1.039924263954162598e+00
-4.944126605987548828e-01
1.192037701606750488e+00
-2.431658267974853516e+00
-4.933333098888397217e-01
-2.804889976978302002e-01
-7.389186024665832520e-01
1.833515763282775879e+00
-3.319790065288543701e-01
2.407670021057128906e+00
3.584315776824951172e-01
-6.354050636291503906e-01
-8.944995999336242676e-01
1.016926765441894531e+00
7.238841652870178223e-01
1.616819858551025391e+00
-5.210602283477783203e-01
-1.179386898875236511e-01
-4.318396151065826416e-01
-4.532247781753540039e-01
-6.879318356513977051e-01
-3.413741663098335266e-02
-5.898039937019348145e-01
-1.891553997993469238e-01
3.539850935339927673e-02
1.432800769805908203e+00
-4.371160864830017090e-01
-6.669142842292785645e-01
-8.708833456039428711e-01
-1.309498548507690430e-01
-7.982248067855834961e-01
9.556888937950134277e-01
-1.122304320335388184e+00
-4.565970003604888916e-01
1.173421964049339294e-01
-8.631992340087890625e-01
-3.882226049900054932e-01
1.008694767951965332e+00
1.271759271621704102e+00
-8.010551929473876953e-01
-8.228027224540710449e-01
-9.164649844169616699e-01
-8.087078332901000977e-01
-1.462698698043823242e+00
1.031404733657836914e+00
5.655015110969543457e-01
1.374335050582885742e+00
-1.023704648017883301e+00
9.195531606674194336e-01
6.515922546386718750e-01
1.843703746795654297e+00
1.322090506553649902e+00
1.769532680511474609e+00
2.675552070140838623e-01
9.638292789459228516e-01
9.801306724548339844e-01
-4.700257480144500732e-01
-1.024911761283874512e+00
-7.556148171424865723e-01
9.753766655921936035e-01
4.735117554664611816e-01
-7.257248759269714355e-01
-2.237526513636112213e-02
-7.748542428016662598e-01
-9.586240649223327637e-01
3.787680268287658691e-01
-1.131703972816467285e+00
-5.537313818931579590e-01
-2.293445318937301636e-01
8.768837451934814453e-01
1.436165690422058105e+00
8.400033712387084961e-01
-4.480879306793212891e-01
1.228211760520935059e+00
1.204911828041076660e+00
1.013400554656982422e+00
1.597237467765808105e+00
9.039689302444458008e-01
-1.212762236595153809e+00
7.519785761833190918e-01
5.598177909851074219e-01
1.863176941871643066e+00
7.128340601921081543e-01
-9.514155387878417969e-01
-6.841638088226318359e-01
3.845321238040924072e-01
9.794772863388061523e-01
1.024155139923095703e+00
5.511932969093322754e-01
8.172313570976257324e-01
-4.844890236854553223e-01
-8.818854689598083496e-01
-4.314280748367309570e-01
1.764268040657043457e+00
-7.285720705986022949e-01
8.829756379127502441e-01
-5.803706645965576172e-01
7.590396404266357422e-01
-1.029905900359153748e-01
1.916830241680145264e-01
-3.692845106124877930e-01
-1.286437869071960449e+00
-2.054811269044876099e-01
-1.299109101295471191e+00
5.240951180458068848e-01
-8.162059187889099121e-01
2.098912000656127930e+00
9.722837805747985840e-01
-1.083599090576171875e+00
2.140102088451385498e-01
-7.753375172615051270e-01
-2.839345932006835938e-01
-1.602141499519348145e+00
2.184172153472900391e+00
2.502129077911376953e-01
-8.722777366638183594e-01
5.814744234085083008e-01
1.127259969711303711e+00
-5.655987262725830078e-01
-1.138528943061828613e+00
-3.515541553497314453e-01
1.101996541023254395e+00
-3.345977663993835449e-01
-8.205245137214660645e-01
5.509463548660278320e-01
-1.057173490524291992e+00
-2.392146885395050049e-01
7.529584318399429321e-02
-2.459838390350341797e+00
-1.040927410125732422e+00
-5.112296938896179199e-01
-1.798219978809356689e-01
1.611639857292175293e-01
-8.491714596748352051e-01
7.309877276420593262e-01
1.090603709220886230e+00
3.141388893127441406e-01
-5.627837777137756348e-01
2.097894251346588135e-01
5.949500482529401779e-04
-1.694861888885498047e+00
1.970515131950378418e+00
5.989391207695007324e-01
1.855421543121337891e+00
-2.870885729789733887e-01
-7.365216612815856934e-01
4.867268204689025879e-01
-2.003820389509201050e-01
-1.631427049636840820e+00
-3.829489946365356445e-01
-1.137207508087158203e+00
1.230357289314270020e+00
-2.707079052925109863e-01
1.736592888832092285e+00
4.666772782802581787e-01
2.763702720403671265e-02
-1.840607076883316040e-01
-2.437460422515869141e+00
1.306767106056213379e+00
1.013106107711791992e+00
1.019837856292724609e+00
6.770079582929611206e-02
-3.245099782943725586e-01
-4.141016900539398193e-01
-4.401221871376037598e-02
8.442664742469787598e-01
4.255431145429611206e-02
5.839003920555114746e-01
-2.365726709365844727e+00
-1.143942832946777344e+00
-7.423995733261108398e-01
-3.407431840896606445e-01
-8.946050405502319336e-01
-1.299528121948242188e+00
2.007929563522338867e+00
1.318417310714721680e+00
8.016060590744018555e-01
-3.045905828475952148e-01
1.152145743370056152e+00
8.816491812467575073e-02
-2.242297410964965820e+00
8.925120234489440918e-01
2.700695693492889404e-01
-1.118725091218948364e-01
4.100268483161926270e-01
2.227889060974121094e+00
2.108787775039672852e+00
1.854341775178909302e-01
-3.191203773021697998e-01
-1.506389141082763672e+00
-8.649841547012329102e-01
9.601255655288696289e-01
-5.877029299736022949e-01
-1.873706459999084473e+00
3.298610746860504150e-01
6.492350101470947266e-01
1.133418008685112000e-01
-6.615387201309204102e-01
-1.498282909393310547e+00
1.465173602104187012e+00
-1.763944625854492188e+00
4.727041125297546387e-01
1.523990392684936523e+00
-6.622542440891265869e-02
4.170936048030853271e-01
2.664889097213745117e-01
1.193401575088500977e+00
6.546960473060607910e-01
-3.329819142818450928e-01
-1.925944909453392029e-02
6.278866901993751526e-03
-1.674950242042541504e+00
-1.046851992607116699e+00
-8.276270627975463867e-01
9.194077849388122559e-01
-4.955969750881195068e-01
4.167701303958892822e-01
3.197387456893920898e-01
1.445111632347106934e+00
6.380497217178344727e-01
-1.045908331871032715e+00
5.024209618568420410e-01
6.915598511695861816e-01
1.315827369689941406e+00
7.115628570318222046e-02
4.441892802715301514e-01
9.888610839843750000e-01
-1.380433320999145508e+00
1.587541580200195312e+00
-1.917815089225769043e+00
3.926213383674621582e-01
-9.379323124885559082e-01
-1.757249236106872559e-01
1.838438585400581360e-02
1.957688364200294018e-04
-1.633043289184570312e-01
3.973720967769622803e-01
1.539624333381652832e-01
1.858444571495056152e+00
5.924781560897827148e-01
1.498627662658691406e+00
-4.740461409091949463e-01
1.456629872322082520e+00
-2.495085000991821289e+00
1.483974307775497437e-01
-1.591156244277954102e+00
3.509196937084197998e-01
1.216376200318336487e-01
8.013545274734497070e-01
1.393650889396667480e+00
7.489805817604064941e-01
-1.425802469253540039e+00
-1.646871685981750488e+00
-3.525988459587097168e-01
-1.502728343009948730e+00
-3.657655000686645508e+00
5.366128087043762207e-01
-1.101973801851272583e-01
-2.792439460754394531e+00
5.220679044723510742e-01
1.522147208452224731e-01
6.065811961889266968e-02
-7.309073805809020996e-01
-1.178082078695297241e-01
2.448590658605098724e-02
-3.390517234802246094e-01
7.008943557739257812e-01
5.145437717437744141e-01
-3.714303970336914062e-01
2.631281912326812744e-01
-2.012603521347045898e+00
4.899939000606536865e-01
1.332113295793533325e-01
1.530369997024536133e+00
-4.058642983436584473e-01
-5.260641574859619141e-01
1.240465998649597168e+00
5.138899683952331543e-01
8.717344999313354492e-01
-9.787796139717102051e-01
3.311293125152587891e-01
2.725983224809169769e-02
6.332219839096069336e-01
-9.638856053352355957e-01
-1.739198207855224609e+00
-2.376091480255126953e+00
5.490087270736694336e-01
-1.295600652694702148e+00
1.945734173059463501e-01
2.859400808811187744e-01
1.792855262756347656e+00
-1.755061149597167969e+00
8.067886829376220703e-01
-9.409343600273132324e-01
1.528911590576171875e+00
4.277385473251342773e-01
-6.454300284385681152e-01
-9.938225746154785156e-01
1.711306452751159668e+00
-4.393994212150573730e-01
-2.260303497314453125e-01
5.272220373153686523e-01
3.141531944274902344e-01
2.593976259231567383e-01
3.547712266445159912e-01
-1.327710986137390137e+00
3.005883097648620605e-01
1.082935214042663574e+00
7.281531095504760742e-01
-4.474344253540039062e-01
7.518238388001918793e-03
-3.645350933074951172e-01
-9.373153448104858398e-01
-7.650744318962097168e-01
-4.201723635196685791e-01
4.596728384494781494e-01
-2.977205276489257812e+00
4.990132451057434082e-01
8.231713175773620605e-01
1.409798264503479004e+00
-3.768974244594573975e-01
-5.271661281585693359e-02
-4.643995761871337891e-01
2.944814562797546387e-01
4.299243688583374023e-01
1.220719963312149048e-01
-4.017852842807769775e-01
-7.489103674888610840e-01
1.504706978797912598e+00
-2.607190608978271484e-01
2.033708333969116211e+00
-1.399836421012878418e+00
-8.365479707717895508e-01
-6.173992156982421875e-01
-1.484245777130126953e+00
3.971945643424987793e-01
-4.423402249813079834e-02
-2.181989431381225586e+00
-2.798625826835632324e-01
2.666819095611572266e-01
1.127721220254898071e-01
-6.442307680845260620e-02
3.771128654479980469e-01
-1.671945899724960327e-01
9.592805504798889160e-01
2.577567696571350098e-01
-8.742748498916625977e-01
5.052658170461654663e-02
3.552401959896087646e-01
-7.645698785781860352e-01
1.056799411773681641e+00
-1.243474334478378296e-01
1.359022498130798340e+00
-3.684341311454772949e-01
-7.687078416347503662e-02
6.269101500511169434e-01
-6.644582152366638184e-01
-8.964866399765014648e-01
1.079391121864318848e+00
1.592290282249450684e+00
6.238530874252319336e-01
-5.714173913002014160e-01
-1.100542902946472168e+00
4.714577794075012207e-01
3.605014979839324951e-01
-1.943980157375335693e-02
5.315476655960083008e-01
-1.743025928735733032e-01
6.033663153648376465e-01
5.160964652895927429e-02
1.163796544075012207e+00
6.948959827423095703e-01
-9.828454852104187012e-01
1.339179277420043945e+00
-2.133616358041763306e-01
3.212150186300277710e-02
2.327679693698883057e-01
5.562871694564819336e-01
-1.294308006763458252e-01
8.463318943977355957e-01
1.727600023150444031e-02
-3.543689846992492676e-01
-9.497764706611633301e-01
-7.525174617767333984e-01
4.439243972301483154e-01
-3.605474233627319336e-01
-6.542531251907348633e-01
-9.191498756408691406e-01
1.517552137374877930e+00
-5.647870302200317383e-01
1.360757946968078613e+00
3.896179199218750000e-01
-1.449100494384765625e+00
2.469781599938869476e-02
1.077820062637329102e+00
2.820030152797698975e-01
6.386485099792480469e-01
-2.976615428924560547e-01
-1.022495746612548828e+00
-1.176765203475952148e+00
1.969913721084594727e+00
-3.184182941913604736e-01
-4.927516579627990723e-01
2.035917997360229492e+00
-5.226290225982666016e-01
-1.933057308197021484e+00
-2.291739225387573242e+00
-1.075013399124145508e+00
7.588304281234741211e-01
9.788087606430053711e-01
6.275922656059265137e-01
-1.987895369529724121e-01
-2.754707336425781250e-01
4.813291728496551514e-01
2.573370933532714844e-01
-2.152708470821380615e-01
4.797304272651672363e-01
-7.183446884155273438e-01
-3.728717863559722900e-01
-1.229580760002136230e+00
-8.730297088623046875e-01
1.352858066558837891e+00
-8.114735484123229980e-01
-1.434892773628234863e+00
6.228167414665222168e-01
-7.655641436576843262e-01
3.188387155532836914e-01
8.765053749084472656e-01
1.812734305858612061e-01
-8.620335459709167480e-01
1.181263804435729980e+00
8.377709984779357910e-01
2.526799678802490234e+00
9.300979971885681152e-01
3.253690004348754883e-01
3.497999310493469238e-01
4.588358104228973389e-01
1.923279464244842529e-01
-6.509295701980590820e-01
-1.270297288894653320e+00
1.275779485702514648e+00
-2.076129198074340820e+00
-2.327668815851211548e-01
4.244021773338317871e-01
7.265313267707824707e-01
1.212092161178588867e+00
-3.373312950134277344e-01
1.457371711730957031e-01
2.348617166280746460e-01
-8.324152231216430664e-01
-4.346604645252227783e-01
1.068185687065124512e+00
6.859175562858581543e-01
-8.604572415351867676e-01
-1.632052659988403320e+00
-3.133454620838165283e-01
-3.474184870719909668e-01
4.287372231483459473e-01
-9.374068975448608398e-01
-1.172958374023437500e+00
-5.860495194792747498e-02
2.671003937721252441e-01
5.326970219612121582e-01
4.510082304477691650e-02
-3.768238723278045654e-01
-3.880441486835479736e-01
7.005508542060852051e-01
4.075792133808135986e-01
-6.654076576232910156e-01
-8.934477567672729492e-01
-8.382143378257751465e-01
-1.470057815313339233e-01
7.644785046577453613e-01
2.126625299453735352e+00
2.106483936309814453e+00
1.025362461805343628e-01
-7.227528840303421021e-02
4.324357807636260986e-01
4.193488061428070068e-01
8.854944109916687012e-01
4.497681558132171631e-01
-1.366963386535644531e+00
-4.355877637863159180e-01
2.737588286399841309e-01
-4.775417447090148926e-01
9.740059375762939453e-01
2.659336566925048828e+00
5.005900859832763672e-01
-1.335482954978942871e+00
1.221530437469482422e+00
-1.264646649360656738e+00
6.411054134368896484e-01
3.162837028503417969e-01
-5.213642716407775879e-01
2.292599827051162720e-01
-5.809925198554992676e-01
9.972511976957321167e-02
-4.923077300190925598e-02
1.349170207977294922e+00
-8.023662567138671875e-01
-2.540377974510192871e-01
2.005751609802246094e+00
5.778797864913940430e-01
-1.599250316619873047e+00
-2.666993856430053711e+00
-1.058406233787536621e-01
-9.822307229042053223e-01
-2.249611616134643555e-01
4.295289814472198486e-01
1.377501757815480232e-03
-9.735429286956787109e-01
-8.669675141572952271e-02
-8.182208538055419922e-01
-2.631340026855468750e-01
3.012183606624603271e-01
1.418048501014709473e+00
-1.773198544979095459e-01
6.491498351097106934e-01
-5.765117406845092773e-01
1.344878315925598145e+00
-2.406515181064605713e-01
-1.990150660276412964e-01
8.346837162971496582e-01
4.158658981323242188e-01
7.007113695144653320e-01
8.425277471542358398e-02
-1.184642314910888672e+00
8.736135438084602356e-03
-8.133733272552490234e-01
1.775221467018127441e+00
1.782649278640747070e+00
-5.081893801689147949e-01
-9.880376458168029785e-01
3.056736849248409271e-02
-1.804188847541809082e+00
-4.089149534702301025e-01
2.617339193820953369e-01
8.307349085807800293e-01
1.010451838374137878e-02
5.589698906987905502e-03
-1.210426092147827148e+00
1.095323339104652405e-01
-8.455119132995605469e-01
-4.377105459570884705e-02
-1.504750251770019531e-01
7.073669433593750000e-01
1.584649324417114258e+00
1.422190070152282715e+00
2.157778888940811157e-01
2.100372314453125000e+00
-4.632166624069213867e-01
1.781546771526336670e-01
3.242893218994140625e-01
1.759661436080932617e+00
4.868857264518737793e-01
-3.098738193511962891e-01
2.870718017220497131e-02
7.494537234306335449e-01
2.440616339445114136e-01
-7.240450382232666016e-01
1.194964408874511719e+00
1.052214980125427246e+00
1.097017407417297363e+00
-6.171583533287048340e-01
-5.941855907440185547e-01
-8.610804677009582520e-01
-7.413486838340759277e-01
8.854295015335083008e-01
-5.248466730117797852e-01
-5.246655344963073730e-01
5.415861606597900391e-01
1.253854781389236450e-01
7.221861481666564941e-01
8.771909028291702271e-02
-8.166691064834594727e-01
1.581254243850708008e+00
-4.778522849082946777e-01
-9.834129810333251953e-01
-1.193450465798377991e-01
-9.826050996780395508e-01
-1.797156095504760742e+00
-7.266067266464233398e-01
-7.014729380607604980e-01
5.073837041854858398e-01
-3.662728667259216309e-01
9.975112229585647583e-02
-1.781446933746337891e+00
8.557345867156982422e-01
3.708897531032562256e-01
7.987169623374938965e-01
2.621319703757762909e-02
1.613217830657958984e+00
8.462800383567810059e-01
-3.502805233001708984e-01
-5.224066972732543945e-01
6.605596840381622314e-02
1.485769152641296387e+00
2.594354450702667236e-01
6.623263955116271973e-01
-6.593213677406311035e-01
3.693779110908508301e-01
-5.451422929763793945e-01
6.662287712097167969e-01
-3.400873541831970215e-01
3.752532899379730225e-01
-9.005414843559265137e-01
2.467118501663208008e+00
9.740456193685531616e-02
5.385267734527587891e-01
-2.651204168796539307e-01
-1.653541207313537598e+00
6.006745696067810059e-01
6.318606138229370117e-01
1.080415010452270508e+00
1.604314923286437988e+00
-6.174627542495727539e-01
-5.948697924613952637e-01
6.595764756202697754e-01
-6.288015246391296387e-01
2.006958276033401489e-01
-1.075983762741088867e+00
2.017085313796997070e+00
-1.825689911842346191e+00
-7.541116476058959961e-01
-2.312652587890625000e+00
1.667398571968078613e+00
2.401088476181030273e+00
4.452848732471466064e-01
-1.445205926895141602e+00
-3.629749417304992676e-01
1.237082481384277344e+00
7.410517930984497070e-01
6.072449311614036560e-02
-6.809321045875549316e-01
-6.319279670715332031e-01
-6.472119688987731934e-01
-6.092327237129211426e-01
-1.139063164591789246e-01
8.463881164789199829e-02
-6.499757766723632812e-01
-8.760975003242492676e-01
4.479109942913055420e-01
-8.745051920413970947e-02
-6.698094010353088379e-01
1.054261088371276855e+00
-3.396028280258178711e-02
1.222883090376853943e-01
1.994293570518493652e+00
-3.236925899982452393e-01
-1.178594231605529785e+00
1.730369329452514648e+00
-5.228289868682622910e-03
-1.658028483390808105e+00
1.897653341293334961e-01
3.393406569957733154e-01
3.513152524828910828e-02
-1.955440640449523926e+00
-5.322943925857543945e-01
1.426164031028747559e+00
7.399899959564208984e-01
1.781197190284729004e+00
5.600451827049255371e-01
-9.042726159095764160e-01
2.814200818538665771e-01
1.765107393264770508e+00
7.593412399291992188e-01
-5.958518385887145996e-01
-1.369746565818786621e+00
4.653413891792297363e-01
7.432389855384826660e-01
1.531134605407714844e+00
5.336835384368896484e-01
1.584315598011016846e-01
-5.543878078460693359e-01
1.183326482772827148e+00
1.326817631721496582e+00
1.645716547966003418e+00
-1.017647981643676758e+00
-1.642983436584472656e+00
4.076429307460784912e-01
3.112975656986236572e-01
-6.198884248733520508e-01
1.629414319992065430e+00
4.061092138290405273e-01
-5.708283185958862305e-01
1.929483652114868164e+00
5.108293294906616211e-01
6.685259342193603516e-01
-1.178768992424011230e+00
1.104232072830200195e+00
-9.288691282272338867e-01
3.878993988037109375e-01
-5.655993148684501648e-02
-5.421952530741691589e-02
-5.558405518531799316e-01
-5.884427577257156372e-03
7.781149148941040039e-01
-3.061732292175292969e+00
1.375021100044250488e+00
5.499218702316284180e-01
2.538721799850463867e+00
8.462284803390502930e-01
-8.828918933868408203e-01
2.346652984619140625e+00
7.778778076171875000e-01
-1.549210309982299805e+00
-5.702509880065917969e-01
6.658342480659484863e-02
-2.502354383468627930e+00
8.948332071304321289e-01
2.487483806908130646e-02
-5.224233269691467285e-01
1.280311107635498047e+00
6.165904998779296875e-01
1.237342357635498047e+00
-1.512500882148742676e+00
6.948451995849609375e-01
1.095788598060607910e+00
-2.350571155548095703e+00
-1.311863064765930176e+00
1.438793540000915527e+00
6.217157244682312012e-01
1.496101021766662598e+00
-4.902994036674499512e-01
-8.983865976333618164e-01
-5.332615375518798828e-01
-2.765851318836212158e-01
-6.319361925125122070e-01
3.303513824939727783e-01
-6.202773377299308777e-02
-4.919662475585937500e-01
1.487260907888412476e-01
-3.633323907852172852e-01
-1.906691193580627441e-01
-1.399769634008407593e-01
-7.896642088890075684e-01
5.090298056602478027e-01
9.260873198509216309e-01
4.910301789641380310e-02
-1.193648576736450195e+00
-1.379304379224777222e-01
-7.528760284185409546e-02
1.468374729156494141e+00
-5.188928246498107910e-01
7.155107259750366211e-01
1.296681523323059082e+00
-3.603422939777374268e-01
1.261523008346557617e+00
-7.533783316612243652e-01
-1.363497376441955566e+00
-6.952643990516662598e-01
-1.135304927825927734e+00
9.787681698799133301e-01
-2.091383486986160278e-01
-1.124163508415222168e+00
-3.814460337162017822e-01
-1.450872123241424561e-01
7.736848294734954834e-02
-6.312168836593627930e-01
6.808483600616455078e-01
2.191245704889297485e-01
2.128470182418823242e+00
-1.436503045260906219e-02
9.536161422729492188e-01
7.937287688255310059e-01
-1.527939200401306152e+00
9.139306545257568359e-01
1.272017061710357666e-01
-1.481338858604431152e+00
-1.354915648698806763e-01
-1.099395394325256348e+00
-1.788517683744430542e-01
-1.065523549914360046e-01
6.689850091934204102e-01
7.333822846412658691e-01
4.071082547307014465e-02
-6.780680418014526367e-01
-1.380767524242401123e-01
2.636992454528808594e+00
-2.726844072341918945e+00
-8.259364962577819824e-01
-2.029000759124755859e+00
9.239386022090911865e-02
-1.725013107061386108e-01
1.372364759445190430e+00
1.788384318351745605e-01
7.157168388366699219e-01
2.010126411914825439e-02
-3.984240591526031494e-01
-7.292661070823669434e-01
1.717860817909240723e+00
5.025526508688926697e-02
-2.710016369819641113e-01
4.781228005886077881e-01
-4.612486436963081360e-02
1.181289792060852051e+00
-5.788116455078125000e-01
8.258166909217834473e-01
-8.792248368263244629e-01
5.100249052047729492e-01
6.316169351339340210e-02
1.121256849728524685e-03
-8.676219731569290161e-02
6.746234297752380371e-01
-1.247083306312561035e+00
-1.679209709167480469e+00
-1.473262071609497070e+00
-1.181125164031982422e+00
4.347833245992660522e-02
-2.220847159624099731e-01
1.585709452629089355e+00
1.818004965782165527e+00
-1.365259408950805664e+00
1.152562141418457031e+00
8.196282386779785156e-01
5.008927583694458008e-01
3.400791063904762268e-02
1.080246329307556152e+00
-7.940094470977783203e-01
-6.824448108673095703e-01
-3.208406865596771240e-01
7.448986768722534180e-01
2.363348454236984253e-01
1.317297667264938354e-01
1.666885495185852051e+00
2.553413808345794678e-01
1.003762006759643555e+00
4.228464663028717041e-01
1.152257099747657776e-01
2.691806852817535400e-01
6.915110945701599121e-01
6.682967394590377808e-02
-3.804220855236053467e-01
-1.480190753936767578e-01
7.660322189331054688e-01
9.885914325714111328e-01
-5.071805715560913086e-01
8.966611623764038086e-01
-7.997390031814575195e-01
-2.539914369583129883e+00
-6.527711749076843262e-01
2.020799368619918823e-01
9.622883796691894531e-02
-1.131697058677673340e+00
-1.100594520568847656e+00
-9.052823781967163086e-01
5.862942337989807129e-01
-7.916508316993713379e-01
-3.429698646068572998e-01
2.980496883392333984e-01
-7.314739227294921875e-01
7.461836934089660645e-02
5.939999818801879883e-01
-7.866836190223693848e-01
-1.576616644859313965e+00
1.532853722572326660e+00
7.167676091194152832e-02
-1.724691748619079590e+00
2.435881197452545166e-01
1.206964612007141113e+00
1.261710226535797119e-01
-2.999820709228515625e-01
-5.224090814590454102e-01
-2.263858914375305176e-01
-6.501771509647369385e-02
2.744478940963745117e+00
-1.965172588825225830e-02
-5.938010811805725098e-01
-3.891734480857849121e-01
1.287120819091796875e+00
2.170891761779785156e+00
4.816555082798004150e-01
8.925072103738784790e-02
-2.638599276542663574e-01
-9.525934234261512756e-03
-9.241981804370880127e-02
1.852060437202453613e+00
-4.213185012340545654e-01
-5.838757753372192383e-01
9.735407829284667969e-01
1.441564679145812988e+00
7.568648457527160645e-02
7.786349207162857056e-02
-7.406293880194425583e-03
1.673530340194702148e-01
-5.494331121444702148e-01
5.615946054458618164e-01
-2.426276683807373047e+00
4.141895174980163574e-01
-4.741382300853729248e-01
-6.815432906150817871e-01
-2.093608379364013672e+00
-1.546024441719055176e+00
-8.068509399890899658e-03
-3.267249464988708496e-01
6.235581636428833008e-01
1.662310808897018433e-01
-9.304846525192260742e-01
2.058898210525512695e-01
-3.892645835876464844e-01
3.163117766380310059e-01
-2.595136761665344238e-01
-1.223823189735412598e+00
1.626959294080734253e-01
-9.565405249595642090e-01
-5.060099959373474121e-01
5.475151538848876953e-01
7.043056488037109375e-01
2.966991364955902100e-01
8.293083310127258301e-01
7.065440416336059570e-01
1.281116485595703125e+00
1.287901520729064941e+00
1.124434590339660645e+00
-1.377062350511550903e-01
-5.911077857017517090e-01
-5.848960876464843750e-01
1.211298823356628418e+00
2.290377765893936157e-01
6.990208476781845093e-02
4.814012348651885986e-01
6.345152109861373901e-02
-2.141225486993789673e-01
-1.575855463743209839e-01
-1.594237685203552246e+00
-1.752790212631225586e+00
3.834146559238433838e-01
-9.526649117469787598e-02
7.400650382041931152e-01
-3.775089383125305176e-01
-9.409647583961486816e-01
-5.021502971649169922e-01
8.889916539192199707e-01
3.804937005043029785e-01
9.545624256134033203e-01
-6.793991476297378540e-02
-9.022127985954284668e-01
3.402868509292602539e-01
3.256344199180603027e-01
-2.134512066841125488e-01
-1.158627271652221680e+00
-1.403124332427978516e+00
-9.057017564773559570e-01
5.644727945327758789e-01
-3.633786439895629883e-01
3.528134226799011230e-01
-1.799579143524169922e+00
3.840280771255493164e-01
1.365484833717346191e+00
1.320069432258605957e+00
-4.910219311714172363e-01
9.870443940162658691e-01
-1.303417801856994629e+00
-6.238739490509033203e-01
-5.681109428405761719e-01
-2.301176071166992188e+00
-1.041385650634765625e+00
-1.103266477584838867e+00
-2.405624985694885254e-01
-3.967098593711853027e-01
-1.550459146499633789e+00
3.142821788787841797e-01
-6.489554792642593384e-02
-1.571293354034423828e+00
1.675727128982543945e+00
-2.919481098651885986e-01
6.441903114318847656e-01
1.033276617527008057e-01
8.832546472549438477e-01
7.246660590171813965e-01
-2.144972562789916992e+00
1.028895020484924316e+00
-9.792690277099609375e-01
7.470542192459106445e-01
-1.602592110633850098e+00
-1.204260706901550293e+00
-7.821267247200012207e-01
1.068574309349060059e+00
-1.885686516761779785e+00
1.289937615394592285e+00
9.831232428550720215e-01
1.222157239913940430e+00
3.622814118862152100e-01
-4.362280070781707764e-01
1.202192381024360657e-01
-1.156693994998931885e-01
2.552296638488769531e+00
-1.306363582611083984e+00
2.699920535087585449e-01
-2.156535834074020386e-01
7.979730963706970215e-01
2.609168589115142822e-01
1.308807015419006348e+00
4.552384018898010254e-01
-4.614909291267395020e-01
-8.405762910842895508e-01
1.103681474924087524e-01
-3.292142152786254883e-01
-2.085713624954223633e+00
-1.066506743431091309e+00
-1.475397586822509766e+00
-1.726359844207763672e+00
5.451737046241760254e-01
-9.738126993179321289e-01
-5.095368623733520508e-01
7.041973471641540527e-01
-8.602707386016845703e-01
5.676648020744323730e-01
-1.069788575172424316e+00
-1.302547693252563477e+00
3.375975787639617920e-01
2.103721648454666138e-01
-1.628542184829711914e+00
-3.611994981765747070e-01
1.952080607414245605e+00
1.101139664649963379e+00
-9.281741976737976074e-01
-4.999092519283294678e-01
-9.363431930541992188e-01
-2.126938343048095703e+00
-2.050025701522827148e+00
9.184137582778930664e-01
-5.437931418418884277e-01
4.864427149295806885e-01
-6.622309684753417969e-01
3.773382902145385742e-01
1.347150355577468872e-01
9.803379178047180176e-01
4.374709725379943848e-01
3.254521787166595459e-01
2.153210192918777466e-01
-4.858535230159759521e-01
1.401597619056701660e+00
3.572005629539489746e-01
-1.620563864707946777e-01
5.577739477157592773e-01
-1.096198678016662598e+00
4.810850918292999268e-01
-6.245108246803283691e-01
-9.076990485191345215e-01
7.632700204849243164e-01
-3.474226891994476318e-01
-1.275565028190612793e+00
-2.503914237022399902e-01
-5.730871558189392090e-01
-7.674782276153564453e-01
9.162636399269104004e-01
8.773740530014038086e-01
-2.387941598892211914e+00
-5.055935978889465332e-01
-1.056325912475585938e+00
-1.632394045591354370e-01
4.446759819984436035e-01
1.068741917610168457e+00
4.990259706974029541e-01
-8.974722027778625488e-01
-5.803661346435546875e-01
-1.096427559852600098e+00
2.441349923610687256e-01
-4.866036176681518555e-01
-1.403461337089538574e+00
6.305499672889709473e-01
-1.755070924758911133e+00
-1.027976989746093750e+00
-7.727402448654174805e-02
9.062278270721435547e-01
-7.641599178314208984e-01
-1.768237203359603882e-01
-1.152208566665649414e+00
1.075511053204536438e-01
1.837497800588607788e-01
-1.127927564084529877e-02
1.389940977096557617e-01
7.841625213623046875e-01
2.072636365890502930e+00
3.032082319259643555e-01
-1.258008599281311035e+00
-3.708306849002838135e-01
9.231872558593750000e-01
8.059305697679519653e-02
5.079655647277832031e-01
5.126496553421020508e-01
1.241301894187927246e+00
4.015700221061706543e-01
-4.287095069885253906e-01
-2.876928746700286865e-01
1.046316981315612793e+00
-1.098001599311828613e+00
2.494317442178726196e-01
-1.220468729734420776e-01
4.069676995277404785e-01
-1.313725829124450684e+00
-2.704631805419921875e+00
1.452083706855773926e+00
1.965818852186203003e-01
-6.260299682617187500e-02
2.005685120820999146e-01
-7.300717830657958984e-01
1.190486431121826172e+00
7.308332920074462891e-01
1.405095010995864868e-01
-3.754520416259765625e-01
4.011360108852386475e-01
9.351493716239929199e-01
1.495068907737731934e+00
-1.293396830558776855e+00
5.722548067569732666e-02
2.053448855876922607e-01
1.408366680145263672e+00
-1.177131056785583496e+00
2.071666240692138672e+00
-3.344730734825134277e-01
-1.626427471637725830e-01
-4.273636639118194580e-01
4.963248670101165771e-01
-1.324077844619750977e-01
8.586691319942474365e-02
-1.028588891029357910e+00
2.007770389318466187e-01
3.200585544109344482e-01
-2.542294263839721680e+00
1.156726479530334473e+00
2.025044262409210205e-01
2.158992439508438110e-01
-1.242510199546813965e+00
-5.797075033187866211e-01
1.751382052898406982e-01
-1.896249651908874512e-01
2.139656096696853638e-01
-1.253613710403442383e+00
-1.391927957534790039e+00
-1.026055291295051575e-01
1.068184018135070801e+00
2.753745913505554199e-01
-7.128236889839172363e-01
-2.084445804357528687e-01
6.375762820243835449e-01
1.375673770904541016e+00
7.594173550605773926e-01
-1.597291707992553711e+00
-3.876674473285675049e-01
-6.382060647010803223e-01
1.083326458930969238e+00
3.194004297256469727e-01
-1.122775152325630188e-01
-6.253444552421569824e-01
-1.308458328247070312e+00
-1.748102307319641113e+00
1.030787467956542969e+00
-6.427546739578247070e-01
-4.674428105354309082e-01
-5.039581060409545898e-01
-4.973014444112777710e-02
-9.347627162933349609e-01
-4.580694437026977539e-02
9.424725174903869629e-01
1.150851488113403320e+00
-5.782035589218139648e-01
-3.220742344856262207e-01
9.819629788398742676e-02
-6.521490216255187988e-02
-2.193512439727783203e+00
-6.173703074455261230e-01
3.936429321765899658e-01
1.456125855445861816e+00
-1.364285707473754883e+00
-4.080351293087005615e-01
1.281506657600402832e+00
-1.316522240638732910e+00
8.117936253547668457e-01
1.391634047031402588e-01
-2.419376373291015625e+00
4.574832022190093994e-01
6.338900327682495117e-01
1.377232074737548828e-01
1.124303340911865234e+00
-5.946436151862144470e-02
-3.710462749004364014e-01
1.950795888900756836e+00
5.600329041481018066e-01
-7.369448542594909668e-01
-4.895185530185699463e-01
-1.277413010597229004e+00
1.019606113433837891e+00
-4.490310847759246826e-01
9.081305265426635742e-01
1.832222580909729004e+00
-1.108220696449279785e+00
1.364907741546630859e+00
-3.733391761779785156e-01
-9.688044190406799316e-01
8.975002169609069824e-01
-1.244854450225830078e+00
6.783095598220825195e-01
-1.588723301887512207e+00
1.219579696655273438e+00
-8.229216933250427246e-01
-1.060395166277885437e-01
-6.106658577919006348e-01
1.641116738319396973e+00
7.958146333694458008e-01
-1.247359037399291992e+00
1.942756772041320801e-01
4.717587828636169434e-01
-1.748914271593093872e-02
-3.380007147789001465e-01
-1.805131554603576660e+00
9.452518224716186523e-01
3.285447657108306885e-01
9.187408722937107086e-03
4.767232537269592285e-01
-1.829606652259826660e+00
-7.526904344558715820e-01
-1.146335840225219727e+00
-3.745016455650329590e-01
-6.265688538551330566e-01
9.426799416542053223e-02
-1.723701596260070801e+00
-1.009294629096984863e+00
4.915967881679534912e-01
7.701459527015686035e-02
1.549309849739074707e+00
1.113560080528259277e+00
7.183198332786560059e-01
6.452062726020812988e-01
3.667387068271636963e-01
-2.228755354881286621e-01
-2.000391930341720581e-01
1.177901983261108398e+00
-3.797507286071777344e-01
1.079126000404357910e-01
1.973247341811656952e-02
9.511592388153076172e-01
-9.326283931732177734e-01
9.934298992156982422e-01
-8.296303153038024902e-01
4.357840716838836670e-01
-9.223567843437194824e-01
5.844861268997192383e-01
1.719635725021362305e+00
-4.971144497394561768e-01
2.457184195518493652e-01
-2.072595804929733276e-01
4.735174477100372314e-01
1.883912086486816406e+00
-1.209378957748413086e+00
4.431160986423492432e-01
-7.377843856811523438e-01
2.072901248931884766e+00
-5.189552903175354004e-01
1.481164339929819107e-02
-8.659831285476684570e-01
-3.978198170661926270e-01
-1.819232106208801270e+00
1.321276783943176270e+00
-6.119379401206970215e-01
3.722517788410186768e-01
9.632010459899902344e-01
-1.124675869941711426e+00
-9.221259504556655884e-02
-1.025369286537170410e+00
5.359049141407012939e-02
-6.507487893104553223e-01
-1.167745709419250488e+00
-1.141382217407226562e+00
1.211877703666687012e+00
4.880094826221466064e-01
1.842196702957153320e+00
-3.583318591117858887e-01
1.524652719497680664e+00
-1.178511381149291992e+00
3.270139098167419434e-01
1.023441195487976074e+00
8.681180477142333984e-01
-4.153420627117156982e-01
-9.204644560813903809e-01
-4.416342973709106445e-01
2.023588180541992188e+00
-2.313742637634277344e+00
-3.240088820457458496e-01
1.623790860176086426e+00
-1.455108880996704102e+00
-4.490063190460205078e-01
3.849886357784271240e-01
-1.947134017944335938e+00
-1.119590044021606445e+00
-9.743202924728393555e-01
6.768082380294799805e-01
-5.047696828842163086e-01
3.605644106864929199e-01
-1.736978590488433838e-01
6.892168521881103516e-01
2.545233964920043945e+00
1.276793003082275391e+00
-6.770977973937988281e-01
-6.801789999008178711e-01
-1.066257119178771973e+00
-2.464981228113174438e-01
-2.728125154972076416e-01
-1.370760500431060791e-01
-6.030203104019165039e-01
1.003668308258056641e+00
-1.812495112419128418e+00
2.021684646606445312e+00
-1.945120990276336670e-01
1.566424727439880371e+00
-3.710868060588836670e-01
9.801126122474670410e-01
2.922049462795257568e-01
-1.424353480339050293e+00
6.149396300315856934e-01
8.767426609992980957e-01
-1.500904001295566559e-02
-3.282490372657775879e-01
-8.799564242362976074e-01
-2.242164850234985352e+00
-4.707796573638916016e-01
-2.662168145179748535e-01
-2.178494691848754883e+00
-3.092199862003326416e-01
-3.524737656116485596e-01
1.986776471138000488e+00
-9.697266668081283569e-02
-2.998349964618682861e-01
-7.576679587364196777e-01
9.360861033201217651e-02
1.543322801589965820e+00
-2.573839128017425537e-01
1.264627099037170410e+00
1.500531196594238281e+00
6.276487708091735840e-01
1.368322521448135376e-01
1.069624304771423340e+00
-5.314830541610717773e-01
-1.345694214105606079e-01
6.593451499938964844e-01
-4.969647824764251709e-01
-8.440778255462646484e-01
-8.688706159591674805e-01
-1.290373682975769043e+00
6.477898359298706055e-01
4.699144661426544189e-01
-1.909094095230102539e+00
1.201389431953430176e-01
-1.090900823473930359e-01
-1.339516520500183105e+00
7.503006458282470703e-01
8.376695513725280762e-01
-1.492250919342041016e+00
6.495262980461120605e-01
6.932861804962158203e-01
2.674071118235588074e-02
6.651120632886886597e-02
-1.500473141670227051e+00
2.987470626831054688e-01
-8.418866991996765137e-01
9.365333914756774902e-01
-1.787020087242126465e+00
1.560515761375427246e+00
1.293990492820739746e+00
2.072335779666900635e-01
5.645331144332885742e-01
1.425091773271560669e-01
1.910029649734497070e+00
4.635485708713531494e-01
-1.309671282768249512e+00
-4.940927922725677490e-01
-7.528489828109741211e-01
1.125808715820312500e+00
-6.130640506744384766e-01
-2.223153412342071533e-01
7.352881431579589844e-01
1.116894483566284180e+00
-1.235979437828063965e+00
6.690749526023864746e-01
5.535199046134948730e-01
-9.639587402343750000e-01
-5.775615572929382324e-01
-1.682998426258563995e-02
2.231278657913208008e+00
-2.011506706476211548e-01
2.906726896762847900e-01
8.943388462066650391e-01
-9.628955125808715820e-01
5.669845938682556152e-01
1.474234223365783691e+00
6.741400361061096191e-01
1.553498983383178711e+00
-3.558844029903411865e-01
2.436622381210327148e-01
-9.385766983032226562e-01
7.076203823089599609e-01
-3.247717916965484619e-01
-6.610471010208129883e-01
8.208137154579162598e-01
-2.273131608963012695e+00
-8.060863018035888672e-01
-1.744770288467407227e+00
-7.906516194343566895e-01
3.021635115146636963e-01
-2.865545451641082764e-01
-7.356780171394348145e-01
-1.004367232322692871e+00
-1.447656154632568359e-01
7.466906309127807617e-01
-9.905526638031005859e-01
1.929441243410110474e-01
-1.630812138319015503e-01
-5.370671153068542480e-01
-1.325228214263916016e+00
1.540377885103225708e-01
5.198072195053100586e-01
-1.260925054550170898e+00
7.479971051216125488e-01
1.649053245782852173e-01
-1.328465819358825684e+00
6.948614120483398438e-01
-5.383135676383972168e-01
-1.217442512512207031e+00
3.185186386108398438e-01
6.152631044387817383e-01
3.719284832477569580e-01
1.393625974655151367e+00
1.431149840354919434e+00
-4.023098647594451904e-01
-8.212082386016845703e-01
-1.713006198406219482e-01
6.117748618125915527e-01
-1.041503310203552246e+00
1.516740083694458008e+00
-1.473208785057067871e+00
-9.179028123617172241e-02
-5.533107519149780273e-01
9.230321645736694336e-01
6.354746818542480469e-01
-1.796473413705825806e-01
-3.293269574642181396e-01
4.589245021343231201e-01
-1.174565792083740234e+00
7.379884123802185059e-01
-9.159558266401290894e-02
8.558222651481628418e-01
-6.951186656951904297e-01
-9.093251824378967285e-01
6.546978950500488281e-01
-2.029075145721435547e+00
1.204138636589050293e+00
-1.799285769462585449e+00
3.504434227943420410e-01
1.759732484817504883e+00
1.290463805198669434e+00
4.130784869194030762e-01
1.110601902008056641e+00
1.340425491333007812e+00
3.006624281406402588e-01
-8.834235072135925293e-01
-3.848821222782135010e-01
-1.459774851799011230e+00
1.069237232208251953e+00
-7.688579708337783813e-02
7.830763459205627441e-01
5.226122736930847168e-01
7.423582673072814941e-01
6.950395107269287109e-01
7.808226943016052246e-01
-2.300110459327697754e-01
-6.424487233161926270e-01
-1.048122942447662354e-01
-2.516354918479919434e-01
-2.563023194670677185e-02
3.000700771808624268e-01
-9.510952830314636230e-01
7.419875860214233398e-01
-5.278486013412475586e-01
8.918993920087814331e-02
1.226465344429016113e+00
2.943260431289672852e+00
3.299573659896850586e-01
1.053196549415588379e+00
-1.654215157032012939e-01
1.675859987735748291e-01
-1.346264600753784180e+00
-9.825719594955444336e-01
6.848254799842834473e-01
-9.008613824844360352e-01
-1.543692499399185181e-01
2.415139079093933105e-01
-3.337883651256561279e-01
-9.370113164186477661e-02
-1.197551012039184570e+00
6.513071656227111816e-01
6.249672174453735352e-01
1.686087131500244141e+00
-1.852724909782409668e+00
2.408485114574432373e-01
2.021892219781875610e-01
2.539368569850921631e-01
-2.000392079353332520e-01
1.369738727807998657e-01
-4.776222705841064453e-01
3.706859350204467773e-01
-8.749743700027465820e-01
-4.795520007610321045e-02
5.657027289271354675e-02
-6.250960230827331543e-01
9.406358003616333008e-02
3.265129625797271729e-01
-5.300293564796447754e-01
1.182337641716003418e+00
-2.873651869595050812e-02
-5.170735120773315430e-01
-5.942925810813903809e-01
1.497951149940490723e+00
-3.588598966598510742e-01
1.068537235260009766e+00
1.320380926132202148e+00
-1.666082739830017090e+00
-6.660556793212890625e-01
-7.182347774505615234e-01
6.073998212814331055e-01
-1.501785218715667725e-02
5.840813741087913513e-03
2.032276630401611328e+00
-7.963699698448181152e-01
8.667541742324829102e-01
1.161530613899230957e+00
5.584507584571838379e-01
6.017018556594848633e-01
1.036337971687316895e+00
2.495189428329467773e+00
1.065031170845031738e+00
9.003331661224365234e-01
9.097513556480407715e-01
3.936605453491210938e-01
-9.388403296470642090e-01
-1.225090622901916504e+00
6.634172201156616211e-01
5.657256841659545898e-01
1.467732489109039307e-01
-2.782389223575592041e-01
9.626451730728149414e-01
-3.577173948287963867e-01
-2.918278872966766357e-01
-1.332030177116394043e+00
-3.420346379280090332e-01
1.547957777976989746e+00
8.887456059455871582e-01
-1.040458008646965027e-01
5.451309084892272949e-01
-8.377782702445983887e-01
-1.954458713531494141e+00
1.225683808326721191e+00
1.825867742300033569e-01
-1.936963796615600586e+00
7.047970890998840332e-01
2.857834696769714355e-01
8.245640993118286133e-01
-8.662284612655639648e-01
1.367674674838781357e-02
9.794452786445617676e-01
-5.182814598083496094e-01
1.005991578102111816e+00
1.453538417816162109e+00
1.033121585845947266e+00
8.073725104331970215e-01
-1.010484322905540466e-01
7.949796915054321289e-01
6.752472519874572754e-01
-3.045704066753387451e-01
-8.232444524765014648e-01
4.979745447635650635e-01
2.117508202791213989e-01
-2.628978729248046875e+00
-2.574589252471923828e-01
1.878046512603759766e+00
-8.106509447097778320e-01
1.665207982063293457e+00
1.429702520370483398e+00
4.161433875560760498e-01
1.508000373840332031e+00
8.098158240318298340e-01
-2.412538379430770874e-01
1.250642687082290649e-01
-2.311003161594271660e-03
-1.512010097503662109e+00
9.347239881753921509e-02
5.608216524124145508e-01
-6.312376260757446289e-02
-6.851414591073989868e-02
-1.151518464088439941e+00
-5.548220872879028320e-01
-1.939366698265075684e+00
-8.130640983581542969e-01
-5.148906111717224121e-01
-3.103156983852386475e-01
-4.007619917392730713e-01
-1.898561000823974609e+00
5.812126994132995605e-01
-8.821644783020019531e-01
4.339191615581512451e-01
-8.415235280990600586e-01
3.104803562164306641e-01
-2.407889068126678467e-02
7.449593544006347656e-01
-2.421102076768875122e-01
2.847050130367279053e-02
-1.466530799865722656e+00
1.858873218297958374e-01
-5.426310300827026367e-01
1.525498777627944946e-01
1.377096533775329590e+00
-8.147221207618713379e-01
3.008263707160949707e-01
-2.375773906707763672e+00
-7.047931551933288574e-01
-5.322996377944946289e-01
-1.207502126693725586e+00
6.317160725593566895e-01
2.738012373447418213e-01
3.477823138236999512e-01
-8.471758365631103516e-01
5.307233333587646484e-01
-7.358067631721496582e-01
1.881645321846008301e-01
1.037769794464111328e+00
6.767588853836059570e-01
3.998383283615112305e-01
4.859591424465179443e-01
9.137744307518005371e-01
2.109612226486206055e+00
-2.584899663925170898e+00
-1.310807347297668457e+00
1.748057723045349121e+00
-7.007236033678054810e-02
-7.035805583000183105e-01
-1.168633818626403809e+00
-1.061233758926391602e+00
-1.798612475395202637e-01
-1.702109456062316895e+00
-3.763215541839599609e-01
-1.013185024261474609e+00
-1.164478659629821777e+00
-8.874505758285522461e-01
-1.656350851058959961e+00
1.707608550786972046e-01
1.741158217191696167e-01
1.071327447891235352e+00
5.088636279106140137e-01
1.017341613769531250e+00
-5.336850285530090332e-01
-1.860360145568847656e+00
6.639115810394287109e-01
1.920269012451171875e+00
-9.381365776062011719e-01
-7.372254133224487305e-01
-1.664962887763977051e+00
-1.747445940971374512e+00
-3.923026025295257568e-01
2.596468925476074219e-01
-1.291938543319702148e+00
5.376787781715393066e-01
-7.494061589241027832e-01
3.100190460681915283e-01
-6.450391411781311035e-01
1.221031904220581055e+00
3.783344477415084839e-02
6.682612895965576172e-01
-6.414769291877746582e-01
2.143388986587524414e+00
-1.100724339485168457e-01
8.279983997344970703e-01
-1.052839636802673340e+00
2.067669868469238281e+00
7.495590448379516602e-01
1.858250141143798828e+00
5.370382666587829590e-01
-1.236974541097879410e-02
4.230077564716339111e-01
3.829678893089294434e-02
-3.716762363910675049e-01
-2.524941444396972656e+00
9.009236097335815430e-01
2.008347511291503906e-01
-2.281641960144042969e-01
-2.598219215869903564e-01
-8.160223811864852905e-02
9.152166247367858887e-01
-3.959417939186096191e-01
1.910334452986717224e-02
1.054863333702087402e+00
1.582138538360595703e-01
-7.313513159751892090e-01
-4.235178232192993164e-01
2.592723965644836426e-01
-5.647457242012023926e-01
9.831936657428741455e-02
-1.808188080787658691e+00
7.767100930213928223e-01
-1.181675314903259277e+00
-3.247774541378021240e-01
4.778375625610351562e-01
1.673407793045043945e+00
1.340591192245483398e+00
-8.814880251884460449e-01
6.717135906219482422e-01
-6.065030097961425781e-01
-6.894164085388183594e-01
8.087139129638671875e-01
3.057842254638671875e-01
1.416648745536804199e+00
-9.196660518646240234e-01
-1.025929927825927734e+00
-2.558901309967041016e-01
-4.588759243488311768e-01
2.553071677684783936e-01
-3.800947964191436768e-01
-2.586902491748332977e-02
-3.295277655124664307e-01
-2.799346685409545898e+00
1.236650347709655762e-01
-1.373086869716644287e-01
9.786590933799743652e-01
8.144061267375946045e-02
5.705574750900268555e-01
7.465731501579284668e-01
-1.364002227783203125e+00
-9.023443460464477539e-01
1.368198394775390625e+00
6.767174601554870605e-01
-1.052524328231811523e+00
-1.353272914886474609e+00
-2.147854566574096680e+00
-2.175661087036132812e+00
-1.398974180221557617e+00
1.754432201385498047e+00
-1.140435814857482910e+00
1.815254092216491699e+00
4.704335629940032959e-01
-2.807783782482147217e-01
-8.011166453361511230e-01
-5.152897238731384277e-01
-1.568198204040527344e-02
1.123831868171691895e+00
-4.072504043579101562e-01
3.161304891109466553e-01
2.881657779216766357e-01
9.148935675621032715e-01
-2.914974987506866455e-01
-4.197814762592315674e-01
-8.346645832061767578e-01
7.339866459369659424e-02
4.606885313987731934e-01
-1.643341541290283203e+00
-1.302717447280883789e+00
7.458251714706420898e-01
1.050964236259460449e+00
3.663701713085174561e-01
-2.517752051353454590e-01
9.271410703659057617e-01
-1.452885717153549194e-01
1.028763771057128906e+00
4.391875863075256348e-01
-4.181492924690246582e-01
1.780803084373474121e+00
-1.867454499006271362e-01
2.273228406906127930e+00
1.932219266891479492e+00
-5.124985575675964355e-01
9.834060072898864746e-01
4.702397808432579041e-02
3.375259935855865479e-01
4.546404778957366943e-01
2.482234001159667969e+00
6.656625866889953613e-01
8.861236572265625000e-01
2.264354228973388672e+00
5.181511640548706055e-01
8.195546865463256836e-01
3.098303079605102539e-01
4.616417884826660156e-01
-1.460129261016845703e+00
8.195060491561889648e-01
1.003704547882080078e+00
2.050205945968627930e+00
6.185554265975952148e-01
-5.101504176855087280e-02
6.817057132720947266e-01
-9.253785610198974609e-01
7.532476782798767090e-01
-1.257929205894470215e+00
3.563203513622283936e-01
-2.223623543977737427e-01
-2.989610731601715088e-01
-2.489789426326751709e-01
-2.170673847198486328e+00
-8.615879416465759277e-01
-7.512299418449401855e-01
-1.103056311607360840e+00
5.334839969873428345e-02
-8.929166793823242188e-01
5.180245041847229004e-01
-4.386201873421669006e-02
1.179590582847595215e+00
-1.004352867603302002e-01
-1.387197077274322510e-01
7.718392610549926758e-01
-4.759752452373504639e-01
-2.092964649200439453e+00
1.970063805580139160e+00
-2.211341619491577148e+00
-1.833094716072082520e+00
-6.060555577278137207e-01
-6.456770300865173340e-01
-1.288340687751770020e+00
-5.240772366523742676e-01
8.647366426885128021e-03
-1.241471767425537109e+00
-2.341886907815933228e-01
5.527418255805969238e-01
-1.806693315505981445e+00
-1.212049648165702820e-02
-3.701942861080169678e-01
7.112817168235778809e-01
-4.773651659488677979e-01
-3.366537094116210938e-01
-7.072868943214416504e-01
3.196062445640563965e-01
1.656099200248718262e+00
-7.170751690864562988e-01
-1.611046314239501953e+00
-9.223803877830505371e-01
-8.267912268638610840e-01
1.426900982856750488e+00
-7.444791793823242188e-01
1.374491930007934570e+00
4.502735137939453125e-01
1.882522702217102051e-01
-4.895413517951965332e-01
1.103524491190910339e-01
-5.063062906265258789e-01
-4.162065982818603516e-01
1.373182535171508789e-01
-2.031963586807250977e+00
-7.984747886657714844e-01
7.529569268226623535e-01
-1.500955462455749512e+00
2.701504945755004883e+00
8.148474246263504028e-02
-7.739398479461669922e-01
-1.494566559791564941e+00
-4.449910223484039307e-01
-7.397381663322448730e-01
-1.782420575618743896e-01
1.125604867935180664e+00
1.040608167648315430e+00
-2.277537107467651367e+00
3.179830610752105713e-01
1.195412650704383850e-01
-1.822865158319473267e-01
5.951126217842102051e-01
-1.059676051139831543e+00
6.899592876434326172e-01
-9.053121805191040039e-01
1.254096329212188721e-01
1.460958272218704224e-01
1.800811290740966797e+00
1.133551836013793945e+00
-4.727391600608825684e-01
-2.392454892396926880e-01
-7.812498807907104492e-01
-1.017045974731445312e+00
8.802786469459533691e-01
1.154850959777832031e+00
-8.401473164558410645e-01
-1.632078170776367188e+00
5.515631437301635742e-01
-9.136917591094970703e-01
4.040260612964630127e-01
-1.070535302162170410e+00
5.347893238067626953e-01
-4.341940283775329590e-01
-1.020708560943603516e+00
2.346035003662109375e+00
1.086566209793090820e+00
-9.714473038911819458e-02
-1.190810799598693848e+00
3.274247348308563232e-01
-1.172372102737426758e+00
6.441141366958618164e-01
-1.071235418319702148e+00
-1.428783059120178223e+00
5.015437006950378418e-01
8.894873857498168945e-01
8.928896188735961914e-01
-7.960014939308166504e-01
-5.953238010406494141e-01
-3.053164780139923096e-01
1.762225151062011719e+00
1.525758266448974609e+00
-1.141670569777488708e-01
-1.181876540184020996e+00
1.034599304199218750e+00
-1.193578362464904785e+00
-7.124289274215698242e-01
-7.433065176010131836e-01
-7.507253438234329224e-02
6.614378690719604492e-01
1.431345462799072266e+00
-2.180101394653320312e+00
3.155865669250488281e-01
3.437288701534271240e-01
7.158396393060684204e-02
1.284484386444091797e+00
1.593433499336242676e+00
-8.170221447944641113e-01
8.965881466865539551e-01
-1.599156856536865234e+00
6.399782299995422363e-01
-4.675468504428863525e-01
-1.528058052062988281e+00
-3.649226203560829163e-02
-1.366693496704101562e+00
-1.297404021024703979e-01
-4.290441572666168213e-01
-5.401188135147094727e-01
7.667752504348754883e-01
2.225618660449981689e-01
-8.899890780448913574e-01
1.070534467697143555e+00
9.219905138015747070e-01
-2.777092717587947845e-02
2.679919898509979248e-01
-6.786704659461975098e-01
1.051874995231628418e+00
1.651617288589477539e-01
-6.502369642257690430e-01
4.049181640148162842e-01
-7.577628493309020996e-01
3.821106553077697754e-01
-2.125506401062011719e-01
2.225783616304397583e-01
-1.623374670743942261e-01
-6.743555068969726562e-01
-1.587242931127548218e-01
-6.111623048782348633e-01
5.187801122665405273e-01
-5.934621095657348633e-01
1.793044060468673706e-02
-4.656582474708557129e-01
-7.707571983337402344e-01
-6.554961800575256348e-01
-1.521323323249816895e-01
-4.515258967876434326e-01
1.764817237854003906e+00
1.099098250269889832e-01
3.549867391586303711e+00
7.905058264732360840e-01
-4.323022365570068359e-01
7.134837508201599121e-01
-8.329145312309265137e-01
1.550370335578918457e+00
1.553477287292480469e+00
1.184377074241638184e-01
9.136723875999450684e-01
1.555851459503173828e+00
1.624239802360534668e+00
-5.321214348077774048e-02
-1.112533137202262878e-01
-9.726347327232360840e-01
-1.628246605396270752e-01
-2.642869353294372559e-01
6.450591087341308594e-01
-4.345998466014862061e-01
-2.549185156822204590e-01
6.980540156364440918e-01
-1.115281105041503906e+00
9.626682400703430176e-01
1.681565403938293457e+00
8.322182893753051758e-01
2.492205619812011719e+00
-2.499134838581085205e-01
5.069198608398437500e-01
-4.883302748203277588e-02
1.565233618021011353e-01
-2.131378948688507080e-01
7.800841331481933594e-01
-1.171335279941558838e-01
7.366688251495361328e-01
1.505697846412658691e+00
-2.492012381553649902e-01
1.931361705064773560e-01
4.440669417381286621e-01
1.025339603424072266e+00
-5.535420775413513184e-01
1.118880212306976318e-01
-3.642537593841552734e-01
1.103814482688903809e+00
2.812441810965538025e-02
1.128662824630737305e+00
-6.536716222763061523e-02
-1.902411937713623047e+00
4.100030362606048584e-01
9.465669989585876465e-01
-6.792099475860595703e-01
3.027319312095642090e-01
9.311937689781188965e-01
1.338613033294677734e+00
-9.512023329734802246e-01
4.858853816986083984e-01
8.911485970020294189e-02
-2.817331850528717041e-01
-2.606817781925201416e-01
-1.402740716934204102e+00
-3.091701567173004150e-01
1.426887750625610352e+00
-5.487852692604064941e-01
5.383653044700622559e-01
-8.009818196296691895e-01
2.343545295298099518e-02
1.138176441192626953e+00
4.388145506381988525e-01
-5.552875995635986328e-01
-5.185353159904479980e-01
-2.127132415771484375e+00
-2.456044405698776245e-02
3.302430510520935059e-01
-6.771315932273864746e-01
7.437924146652221680e-01
4.059579372406005859e-01
1.129462480545043945e+00
-7.734156847000122070e-01
4.652825891971588135e-01
2.493022531270980835e-01
-1.691969156265258789e+00
1.366252303123474121e+00
-2.139519006013870239e-01
-5.646107196807861328e-01
7.192442566156387329e-02
3.952587246894836426e-01
6.681675314903259277e-01
-9.795786738395690918e-01
1.298524260520935059e+00
-8.307703733444213867e-01
-1.578835964202880859e+00
-6.943890452384948730e-01
3.590710759162902832e-01
-4.886531829833984375e-01
1.692180514335632324e+00
-1.865351796150207520e-01
-1.328189671039581299e-01
-8.903340101242065430e-01
1.381640553474426270e+00
-9.907832145690917969e-01
6.022617816925048828e-01
-2.839825451374053955e-01
-7.582264542579650879e-01
-7.799168825149536133e-01
6.062055379152297974e-02
8.846594691276550293e-01
8.800379633903503418e-01
7.715642452239990234e-01
9.560102224349975586e-01
4.135343432426452637e-01
-1.172339797019958496e+00
1.244920253753662109e+00
5.475370287895202637e-01
3.217093646526336670e-01
6.808347702026367188e-01
1.140377759933471680e+00
8.584044575691223145e-01
-3.432917594909667969e-01
2.199794292449951172e+00
-1.258132010698318481e-01
-3.139010816812515259e-02
4.075162708759307861e-01
7.546265125274658203e-01
-7.648426294326782227e-01
-1.553748399019241333e-01
2.422522008419036865e-01
8.167569637298583984e-01
-1.993058063089847565e-02
1.175682544708251953e+00
-7.564320564270019531e-01
-1.477060437202453613e+00
2.155416160821914673e-01
1.084547281265258789e+00
1.373273372650146484e+00
-5.276630520820617676e-01
-9.536073803901672363e-01
9.848474860191345215e-01
-2.905123233795166016e-01
1.166364192962646484e+00
-4.996681809425354004e-01
-2.093834429979324341e-02
-1.005519509315490723e+00
-1.176998578011989594e-02
2.391953170299530029e-01
1.197207212448120117e+00
-2.275778055191040039e-01
-7.662950158119201660e-01
8.399191498756408691e-01
-7.395429015159606934e-01
-1.694423675537109375e+00
-3.671079874038696289e-01
5.232223495841026306e-02
-2.100726775825023651e-02
2.837900519371032715e-01
-3.541891574859619141e-01
5.407111644744873047e-01
1.749303340911865234e-01
1.079120397567749023e+00
3.010666966438293457e-01
-3.141970336437225342e-01
-7.179434299468994141e-01
-1.449173927307128906e+00
5.027814507484436035e-01
5.914576649665832520e-01
-1.581373959779739380e-01
-3.175110220909118652e-01
9.113785028457641602e-01
7.027422785758972168e-01
1.160431742668151855e+00
1.251499176025390625e+00
-1.133371829986572266e+00
-1.331916928291320801e+00
6.745959520339965820e-01
1.354608297348022461e+00
-5.657475590705871582e-01
-1.545131683349609375e+00
2.403717041015625000e+00
5.326511710882186890e-02
2.689915657043457031e+00
6.766543984413146973e-01
-1.560682296752929688e+00
5.381141901016235352e-01
7.494965791702270508e-01
8.488660454750061035e-01
1.843217730522155762e+00
6.204347610473632812e-01
-9.745030403137207031e-01
-1.423552911728620529e-02
-6.177147850394248962e-02
2.586698830127716064e-01
-2.642074227333068848e-01
1.718295335769653320e+00
-4.608096480369567871e-01
-7.756588459014892578e-01
7.627448439598083496e-01
1.797785282135009766e+00
3.166562914848327637e-01
1.317533016204833984e+00
-2.553863286972045898e+00
4.964208900928497314e-01
-1.164091110229492188e+00
-7.074881196022033691e-01
-1.505316495895385742e+00
-6.291359066963195801e-01
-3.283166587352752686e-01
3.385270237922668457e-01
-2.732266113162040710e-02
7.932900190353393555e-01
-6.891056299209594727e-01
1.706357346847653389e-03
-1.478997468948364258e+00
-6.557443141937255859e-01
-5.581472516059875488e-01
2.124394476413726807e-01
-2.022696435451507568e-01
6.767913699150085449e-01
1.774061471223831177e-01
-2.007327228784561157e-01
-9.318705648183822632e-03
-1.193386673927307129e+00
6.795441508293151855e-01
-7.631905078887939453e-01
5.692177414894104004e-01
7.849609106779098511e-02
4.501132369041442871e-01
1.116392135620117188e+00
-1.072094440460205078e+00
-1.269393682479858398e+00
-2.589713096618652344e+00
-8.594115376472473145e-01
-5.057587623596191406e-01
-1.989705681800842285e+00
-1.290620803833007812e+00
-9.813227057456970215e-01
-1.249688386917114258e+00
1.624787330627441406e+00
-4.858214557170867920e-01
-1.021237254142761230e+00
-7.194172739982604980e-01
-4.590649902820587158e-01
7.618957757949829102e-01
2.691641151905059814e-01
5.191466212272644043e-01
-3.538091480731964111e-01
-6.117606163024902344e-01
7.629400491714477539e-01
2.831920087337493896e-01
-5.734083056449890137e-01
-1.581754088401794434e+00
-1.158379316329956055e+00
-3.811591267585754395e-01
1.692052781581878662e-01
6.541870534420013428e-02
3.714852631092071533e-01
4.008328616619110107e-01
-8.178944587707519531e-01
1.609807372093200684e+00
-1.140631437301635742e-01
4.980723857879638672e-01
-4.026222229003906250e-01
-5.466420054435729980e-01
-4.134857952594757080e-01
-1.156744837760925293e+00
3.466808497905731201e-01
3.005912899971008301e-02
-6.139069199562072754e-01
-7.738760709762573242e-01
-2.830697774887084961e+00
-1.074985027313232422e+00
2.589790821075439453e-01
1.843595653772354126e-01
-5.737006068229675293e-01
2.990187108516693115e-01
1.435104608535766602e+00
-9.932590723037719727e-01
2.398720197379589081e-02
1.048081874847412109e+00
3.348044753074645996e-01
-2.447582781314849854e-01
-1.354252457618713379e+00
5.186890363693237305e-01
4.987260326743125916e-02
2.451803088188171387e-01
-2.441252171993255615e-01
-5.582155585289001465e-01
2.320964813232421875e+00
5.487319827079772949e-01
-8.621803484857082367e-03
-1.561910748481750488e+00
3.907782435417175293e-01
9.812182784080505371e-01
-4.550482332706451416e-01
-1.708343744277954102e+00
4.012110233306884766e-01
5.101897716522216797e-01
-1.348669648170471191e+00
-7.325633764266967773e-01
-9.104211926460266113e-01
-1.635701060295104980e+00
8.529980778694152832e-01
6.701936125755310059e-01
1.035493731498718262e+00
-1.813863158226013184e+00
-6.385502964258193970e-02
-1.210526108741760254e+00
1.474292427301406860e-01
1.492794156074523926e+00
-1.889376044273376465e+00
5.132921934127807617e-01
-8.260602951049804688e-01
1.610792279243469238e+00
8.024036288261413574e-01
1.587316751480102539e+00
1.064248800277709961e+00
-7.155888080596923828e-01
-2.769023776054382324e-01
5.411998033523559570e-01
-5.962685942649841309e-01
1.316509008407592773e+00
3.997843563556671143e-01
-1.687627136707305908e-01
2.274337291717529297e+00
-2.259972810745239258e+00
3.871909379959106445e-01
4.785037338733673096e-01
5.725206732749938965e-01
3.153071403503417969e+00
4.688487052917480469e-01
1.329872608184814453e-01
2.614270448684692383e-01
1.369357556104660034e-01
1.234888315200805664e+00
-3.819770812988281250e-01
-2.861561179161071777e-01
-7.356286048889160156e-01
8.005463480949401855e-01
-1.702467203140258789e+00
1.560960888862609863e+00
-1.352665424346923828e+00
-7.901915311813354492e-01
-1.456288576126098633e+00
-8.794716596603393555e-01
-1.146875694394111633e-01
8.244794607162475586e-01
-1.054535031318664551e+00
-7.142570614814758301e-01
-1.296649456024169922e+00
-1.941723823547363281e+00
-1.177713721990585327e-01
1.092439889907836914e+00
9.536248445510864258e-01
1.138203144073486328e-01
-4.699588119983673096e-01
5.940928459167480469e-01
-8.482390642166137695e-01
6.233381628990173340e-01
1.078153133392333984e+00
4.448779225349426270e-01
-2.214283943176269531e+00
1.113268733024597168e+00
-3.441639244556427002e-01
2.398449033498764038e-01
-1.114294603466987610e-01
-7.806659936904907227e-01
3.097033798694610596e-01
2.531415820121765137e-01
4.019550979137420654e-01
-6.574066877365112305e-01
1.149762034416198730e+00
4.155051410198211670e-01
-5.641699433326721191e-01
-1.694543480873107910e+00
-7.209657430648803711e-01
1.119961380958557129e+00
-9.806950688362121582e-01
1.797154903411865234e+00
9.180058240890502930e-01
2.270823121070861816e-01
-7.955957055091857910e-01
5.955177545547485352e-01
3.459724783897399902e-02
4.553780853748321533e-01
-3.840035200119018555e-01
-7.124620079994201660e-01
6.873869895935058594e-01
-3.612560629844665527e-01
3.836218714714050293e-01
1.174528241157531738e+00
8.670082092285156250e-01
3.869473338127136230e-01
-1.932224750518798828e+00
3.090130984783172607e-01
-1.171674966812133789e+00
-3.303967714309692383e-01
-2.178339213132858276e-01
-1.368456721305847168e+00
-3.772398829460144043e-01
-8.984915018081665039e-01
4.081397056579589844e-01
1.052137255668640137e+00
-1.673990041017532349e-01
-8.038350343704223633e-01
1.083194971084594727e+00
-1.812897175550460815e-01
-8.726989626884460449e-01
-3.507977426052093506e-01
-9.472028017044067383e-01
1.773920953273773193e-01
-1.344861626625061035e+00
-1.536070108413696289e-01
-5.587521195411682129e-01
1.391954064369201660e+00
1.448857665061950684e+00
9.545148015022277832e-01
9.904020279645919800e-02
-8.594911098480224609e-01
-1.235651850700378418e+00
1.071618556976318359e+00
-9.261240065097808838e-02
2.444508790969848633e+00
-1.841932177543640137e+00
1.049830555915832520e+00
7.351647317409515381e-02
1.328084707260131836e+00
1.468335866928100586e+00
-1.082906842231750488e+00
-2.294330894947052002e-01
2.369504719972610474e-01
-9.255253523588180542e-02
-1.643804609775543213e-01
2.145428806543350220e-01
1.589291572570800781e+00
-8.397996425628662109e-01
-8.749452978372573853e-02
5.913674235343933105e-01
-1.005680337548255920e-01
1.469738334417343140e-01
-6.528927683830261230e-01
3.327692747116088867e-01
-1.553415600210428238e-02
-1.004202365875244141e+00
1.427575051784515381e-01
-2.720585465431213379e-01
-1.302959799766540527e+00
2.220174968242645264e-01
-1.092753052711486816e+00
-5.783941596746444702e-02
-1.428513407707214355e+00
5.090390443801879883e-01
-4.271671175956726074e-01
2.477013319730758667e-01
4.466564059257507324e-01
-7.578176856040954590e-01
9.606209397315979004e-01
-1.083746701478958130e-01
-9.803617000579833984e-01
-1.070112466812133789e+00
-6.857418417930603027e-01
3.528104722499847412e-01
8.218561857938766479e-02
-1.961570024490356445e+00
-1.747884303331375122e-01
-1.419083029031753540e-01
7.679198384284973145e-01
-4.063744843006134033e-01
-3.825238943099975586e-01
-1.203678369522094727e+00
1.300949215888977051e+00
-3.514042356982827187e-03
-6.121966838836669922e-01
1.011658236384391785e-01
4.086808562278747559e-01
9.761542677879333496e-01
-1.384004592895507812e+00
-9.577418565750122070e-01
1.095608808100223541e-02
-6.088218092918395996e-01
8.100786805152893066e-01
1.111050605773925781e+00
-6.788654923439025879e-01
9.166396260261535645e-01
-9.912855029106140137e-01
1.689264655113220215e+00
-1.990219205617904663e-01
1.912903547286987305e+00
-8.915702104568481445e-01
7.646435499191284180e-01
5.170551538467407227e-01
2.893664240837097168e-01
-5.495163798332214355e-01
1.029786109924316406e+00
-1.268562525510787964e-01
-6.661154627799987793e-01
-2.602850496768951416e-01
-1.628406763076782227e+00
-5.304521322250366211e-01
-3.343428671360015869e-01
1.407027542591094971e-01
6.211608648300170898e-01
-1.831732988357543945e-01
-5.192229151725769043e-01
9.555866122245788574e-01
-3.552814200520515442e-02
-6.994893550872802734e-01
2.916379570960998535e-01
-8.156960010528564453e-01
-2.006077915430068970e-01
9.303876757621765137e-01
-1.494989395141601562e+00
-2.371820807456970215e-01
1.621213674545288086e+00
-2.069579213857650757e-01
-6.122855544090270996e-01
2.255384206771850586e+00
1.519830226898193359e-01
-1.113138318061828613e+00
-4.236082732677459717e-01
2.527635097503662109e-01
