1.306193470954895020e+00
-4.577494263648986816e-01
-7.206055521965026855e-01
2.577169239521026611e-01
1.053174853324890137e+00
-1.254363059997558594e+00
7.797995209693908691e-01
-2.548163652420043945e+00
-2.241370528936386108e-01
1.049858927726745605e+00
-1.796163201332092285e+00
2.857963144779205322e-01
-1.232233364135026932e-02
-1.092670440673828125e+00
2.479032039642333984e+00
-6.810056567192077637e-01
-1.078304648399353027e+00
-7.282732725143432617e-01
-7.976301014423370361e-02
3.070754110813140869e-01
2.759043872356414795e-01
8.911952972412109375e-01
2.775197625160217285e-01
-5.701315402984619141e-02
6.897927522659301758e-01
-8.282521367073059082e-01
7.835363149642944336e-01
1.848663926124572754e+00
6.221225261688232422e-01
-3.334304690361022949e-01
4.266252517700195312e-01
1.276359081268310547e+00
-2.089932680130004883e+00
-1.340293765068054199e+00
1.158828735351562500e+00
-2.319495201110839844e+00
-1.762941777706146240e-01
1.907720565795898438e-01
1.075897336006164551e+00
1.919584989547729492e+00
-1.218971014022827148e+00
-1.010338425636291504e+00
1.445634514093399048e-01
-5.887537002563476562e-01
1.454810976982116699e+00
-4.499056339263916016e-01
8.707563877105712891e-01
-5.164798498153686523e-01
2.729045152664184570e-01
9.030309319496154785e-01
6.053926944732666016e-01
7.028582692146301270e-01
1.066022276878356934e+00
1.051693201065063477e+00
2.914269566535949707e-01
-3.164734542369842529e-01
2.898030579090118408e-01
-1.086998656392097473e-01
-6.390225142240524292e-02
2.383771419525146484e+00
6.443542242050170898e-01
-1.580971926450729370e-01
2.346199601888656616e-01
1.383079648017883301e+00
1.704502463340759277e+00
-1.654520153999328613e+00
9.484677314758300781e-01
3.783614337444305420e-01
1.942054390907287598e+00
8.366982936859130859e-01
-2.747035026550292969e-01
1.333779692649841309e-01
-1.587491035461425781e+00
1.804189205169677734e+00
-6.969811320304870605e-01
6.221399903297424316e-01
-3.241170048713684082e-01
1.023296833038330078e+00
-7.809900045394897461e-01
8.634779453277587891e-01
-4.749933779239654541e-01
-1.570907711982727051e+00
1.378326416015625000e+00
-5.823606252670288086e-01
-7.138366699218750000e-01
-1.068377614021301270e+00
9.425847232341766357e-02
1.594866633415222168e+00
-7.490979433059692383e-01
-1.590319350361824036e-02
-8.024548888206481934e-01
7.611510157585144043e-01
2.665383219718933105e-01
1.713973522186279297e+00
-3.384542763233184814e-01
-2.023609876632690430e+00
-9.465175867080688477e-02
2.930983006954193115e-01
2.069820404052734375e+00
3.939809501171112061e-01
9.124096632003784180e-01
2.610994279384613037e-01
-2.603186070919036865e-01
1.657030731439590454e-01
-4.854844808578491211e-01
1.583053112030029297e+00
-2.299890041351318359e+00
-1.210342288017272949e+00
4.747937917709350586e-01
-4.555502235889434814e-01
-1.424167156219482422e+00
2.236081123352050781e+00
-4.297137260437011719e-01
-6.096775829792022705e-02
-1.531480431556701660e+00
1.441800117492675781e+00
7.723762392997741699e-01
7.922807335853576660e-01
-8.040286898612976074e-01
1.841852217912673950e-01
-1.095486402511596680e+00
-5.386586189270019531e-01
6.546970009803771973e-01
8.235228061676025391e-01
-1.351051092147827148e+00
3.482503294944763184e-01
-2.711139917373657227e-01
-5.934197306632995605e-01
-4.505837559700012207e-01
-6.602272391319274902e-01
-1.839387416839599609e+00
1.684530496597290039e+00
-5.696603059768676758e-01
9.603785276412963867e-01
1.483206450939178467e-01
-5.124548450112342834e-02
-1.272461116313934326e-01
-4.785883724689483643e-01
5.605314970016479492e-01
4.769255816936492920e-01
-1.256192684173583984e+00
-1.374610185623168945e+00
-3.804682195186614990e-01
1.474066495895385742e+00
-6.078454256057739258e-01
-7.503017783164978027e-01
6.618298292160034180e-01
3.473432362079620361e-01
-1.195601105690002441e+00
8.928898721933364868e-02
-4.425406455993652344e-01
4.592370092868804932e-01
9.572568535804748535e-01
1.512579917907714844e+00
3.909309208393096924e-01
-1.599496603012084961e+00
1.382069885730743408e-01
1.728115200996398926e+00
-7.519856095314025879e-01
1.076000213623046875e+00
-6.071487069129943848e-01
2.114558696746826172e+00
-4.078198671340942383e-01
-1.848504304885864258e+00
5.235472694039344788e-02
1.293530225753784180e+00
1.522961258888244629e+00
-7.922422885894775391e-01
1.592876575887203217e-02
-1.610251188278198242e+00
2.920771837234497070e-01
-9.213046431541442871e-01
-1.098889470100402832e+00
7.673693895339965820e-01
-5.155289173126220703e-01
5.153032541275024414e-01
-1.284864306449890137e+00
9.407392740249633789e-01
6.666571497917175293e-01
6.400026679039001465e-01
-8.682739138603210449e-01
1.331194162368774414e+00
4.202113747596740723e-01
-1.720865070819854736e-01
2.550244629383087158e-01
-5.910615622997283936e-02
-8.931847214698791504e-01
8.913595676422119141e-01
2.126864671707153320e+00
-1.932055652141571045e-01
-6.166438013315200806e-02
6.196014881134033203e-01
-2.218784242868423462e-01
-1.686292052268981934e+00
1.830814778804779053e-01
-9.487802386283874512e-01
-2.154030323028564453e+00
6.694034337997436523e-01
4.896464645862579346e-01
7.085469365119934082e-01
3.098965585231781006e-01
-9.946894645690917969e-01
-1.129258632659912109e+00
6.362320184707641602e-01
-3.081498444080352783e-01
1.202222704887390137e+00
7.339001297950744629e-01
2.973934710025787354e-01
1.686901092529296875e+00
-2.739683985710144043e-01
1.556101918220520020e+00
2.354893982410430908e-01
-2.823146879673004150e-01
-8.489341139793395996e-01
9.197425842285156250e-01
-1.949763298034667969e-01
6.082168221473693848e-01
1.865519285202026367e+00
-2.012897282838821411e-01
-1.870029807090759277e+00
3.991208374500274658e-01
3.608423471450805664e-01
8.017697930335998535e-01
-7.536063194274902344e-01
-7.146068215370178223e-01
9.612207412719726562e-01
1.351572573184967041e-01
-1.705600500106811523e+00
-5.069840550422668457e-01
5.285481736063957214e-02
-1.957745105028152466e-02
1.295926570892333984e+00
-9.966935515403747559e-01
2.664244174957275391e-01
-2.473523855209350586e+00
-1.149783492088317871e+00
9.042754173278808594e-01
4.453191459178924561e-01
-1.081156373023986816e+00
-4.830570518970489502e-01
-1.554757356643676758e+00
-6.183302402496337891e-01
-6.729646921157836914e-01
1.465646505355834961e+00
1.402450323104858398e+00
-6.359528899192810059e-01
-1.196863532066345215e+00
-9.920855611562728882e-02
1.471596240997314453e+00
-3.772308826446533203e-01
-1.408971428871154785e+00
-7.308371067047119141e-01
-5.410013794898986816e-01
-4.227075576782226562e-01
1.873616576194763184e-01
2.025411128997802734e-01
-2.272553920745849609e+00
1.761376410722732544e-01
-1.293483972549438477e+00
-1.038454532623291016e+00
-1.167414426803588867e+00
-4.557090625166893005e-02
1.025457501411437988e+00
4.605666995048522949e-01
-1.873100280761718750e+00
-5.913201570510864258e-01
9.013614803552627563e-02
1.409033894538879395e+00
7.266420722007751465e-01
-2.045361280441284180e+00
1.154597878456115723e+00
-2.738418340682983398e+00
6.498713493347167969e-01
-1.599449992179870605e+00
-1.745619535446166992e+00
1.133266806602478027e+00
-1.026161909103393555e+00
1.162049770355224609e+00
7.819544076919555664e-01
1.064412593841552734e+00
4.333248138427734375e-01
7.123842239379882812e-01
5.168624520301818848e-01
5.234882831573486328e-01
-1.332080602645874023e+00
-9.633492827415466309e-01
-1.597020149230957031e+00
5.846872925758361816e-01
3.038192510604858398e+00
1.034206390380859375e+00
1.502930521965026855e+00
4.683278203010559082e-01
-6.049876809120178223e-01
9.846557378768920898e-01
-1.076053738594055176e+00
1.241330385208129883e+00
-2.796473801136016846e-01
3.060760200023651123e-01
-5.075770616531372070e-01
6.004143133759498596e-02
-3.938584923744201660e-01
-1.348112970590591431e-01
1.225255489349365234e+00
7.749628424644470215e-01
5.300897955894470215e-01
-1.577968239784240723e+00
-5.485053062438964844e-01
3.101521432399749756e-01
-5.376058220863342285e-01
1.157472133636474609e+00
5.449864268302917480e-01
-1.407547235488891602e+00
8.046064972877502441e-01
6.586425900459289551e-01
-1.085944652557373047e+00
1.580372095108032227e+00
-1.542242288589477539e+00
-1.041073322296142578e+00
4.732144176959991455e-01
1.704965949058532715e+00
-8.908886313438415527e-01
1.662376999855041504e+00
-3.938876390457153320e-01
-6.600671410560607910e-01
-4.488075375556945801e-01
5.574741363525390625e-01
1.052273869514465332e+00
1.364162921905517578e+00
-1.049650073051452637e+00
-1.286548852920532227e+00
9.732320308685302734e-01
1.686244159936904907e-01
-1.130248427391052246e+00
-1.584139466285705566e+00
1.026984333992004395e+00
1.976679861545562744e-01
-2.866684436798095703e+00
9.716882705688476562e-01
1.254631519317626953e+00
-1.920360326766967773e+00
6.687480956315994263e-02
-9.418601989746093750e-01
-1.227887630462646484e+00
1.747546076774597168e+00
-5.744690299034118652e-01
1.909976840019226074e+00
-1.351876378059387207e+00
5.492608547210693359e-01
1.136885166168212891e+00
-5.030485391616821289e-01
3.537727296352386475e-01
-5.433223247528076172e-01
-1.113779306411743164e+00
4.625794291496276855e-01
-5.366487056016921997e-02
-8.821299076080322266e-01
1.770613938570022583e-01
-7.459934353828430176e-01
-3.250698149204254150e-01
-1.189396619796752930e+00
5.540216565132141113e-01
5.792753100395202637e-01
-1.385149240493774414e+00
1.237043857574462891e+00
-3.267146348953247070e-01
7.542565464973449707e-01
-1.333132863044738770e+00
4.324853718280792236e-01
5.035049319267272949e-01
-7.415370345115661621e-01
1.300562620162963867e+00
5.864655971527099609e-01
-1.908342987298965454e-01
-4.395782351493835449e-01
-1.341838002204895020e+00
1.007654070854187012e+00
-8.755235075950622559e-01
1.218111291527748108e-01
-6.589654088020324707e-01
-1.327205061912536621e+00
-1.660802602767944336e+00
5.181388258934020996e-01
8.264935016632080078e-01
6.445454955101013184e-01
-1.700104773044586182e-01
6.568693518638610840e-01
-2.297592461109161377e-01
1.288074731826782227e+00
9.741963744163513184e-01
-1.875125288963317871e+00
3.243149518966674805e+00
-7.017065882682800293e-01
-2.006402492523193359e+00
1.392293691635131836e+00
1.237273812294006348e+00
4.038704633712768555e-01
3.185115456581115723e-01
2.922033965587615967e-01
1.816397905349731445e-01
-7.712981104850769043e-01
4.747050404548645020e-01
-6.473305225372314453e-01
-1.102889537811279297e+00
1.838944315910339355e+00
1.208006501197814941e+00
-4.561921656131744385e-01
-1.778982579708099365e-01
-3.282545804977416992e-01
-8.938267827033996582e-01
-5.023989677429199219e-01
-4.525781571865081787e-01
1.196194767951965332e+00
1.482347011566162109e+00
-3.562786579132080078e-01
-4.089697077870368958e-02
-7.001877427101135254e-01
-7.514559477567672729e-02
-1.157125607132911682e-01
-3.016476631164550781e-01
-4.490019381046295166e-01
1.622812598943710327e-01
5.484459176659584045e-02
6.787847280502319336e-01
4.605788290500640869e-01
-9.461562633514404297e-01
-1.042743921279907227e+00
-5.708169937133789062e-01
3.997850120067596436e-01
2.316732257604598999e-01
8.990088701248168945e-01
-3.406465649604797363e-01
7.889192700386047363e-01
1.104420304298400879e+00
-1.615992903709411621e+00
1.912764608860015869e-01
8.395852893590927124e-02
7.351056337356567383e-01
1.110665649175643921e-01
4.171715378761291504e-01
3.856596648693084717e-01
5.690632462501525879e-01
-8.966720104217529297e-01
-1.296621281653642654e-02
2.980085909366607666e-01
-6.241071820259094238e-01
-6.976377367973327637e-01
-9.209979176521301270e-01
-9.644193053245544434e-01
3.693890869617462158e-01
6.440280675888061523e-01
3.182451725006103516e-01
5.936262011528015137e-01
1.014876604080200195e+00
-4.989069700241088867e-01
-5.024842619895935059e-01
-7.368682622909545898e-01
9.432870149612426758e-01
9.309127330780029297e-01
5.945989489555358887e-01
1.197541594505310059e+00
6.120997667312622070e-01
1.330568939447402954e-01
-6.306413412094116211e-01
1.177402496337890625e+00
-1.119689106941223145e+00
3.711902722716331482e-02
8.040783405303955078e-01
-7.754561305046081543e-02
-1.142560765147209167e-01
-2.308911830186843872e-01
-1.071727350354194641e-01
-1.401330530643463135e-01
-2.323321819305419922e+00
-1.631242394447326660e+00
-5.250742435455322266e-01
9.399330019950866699e-01
5.497331172227859497e-02
4.650730490684509277e-01
-2.044780969619750977e+00
4.824193120002746582e-01
-1.466141223907470703e+00
1.513229846954345703e+00
-8.671422004699707031e-01
5.968101024627685547e-01
7.940532565116882324e-01
-1.530277281999588013e-01
-3.802562057971954346e-01
-7.260429114103317261e-02
-2.024877071380615234e+00
5.522558689117431641e-01
1.126900240778923035e-01
1.872848272323608398e+00
2.529545307159423828e+00
-2.482750177383422852e+00
7.260959744453430176e-01
-4.187736511230468750e-01
-5.826158523559570312e-01
-5.487234592437744141e-01
-1.302859663963317871e+00
-1.403866052627563477e+00
-8.665089607238769531e-01
2.316637754440307617e+00
-8.365690112113952637e-01
-1.905158162117004395e-02
-6.680068373680114746e-01
-8.149906396865844727e-01
-1.027811169624328613e+00
5.333923920989036560e-02
-1.812844872474670410e-01
8.618161678314208984e-01
5.183714628219604492e-01
-3.278767168521881104e-01
-1.107855081558227539e+00
-2.684646368026733398e+00
8.876373767852783203e-01
1.007821321487426758e+00
-1.343398094177246094e+00
-7.524740099906921387e-01
6.072610616683959961e-01
-6.080027222633361816e-01
-3.185646533966064453e-01
-5.417840480804443359e-01
6.133468151092529297e-01
-1.416826367378234863e+00
-1.237875968217849731e-02
-7.561678886413574219e-01
-7.919685840606689453e-01
-1.775736212730407715e-01
-1.156900525093078613e+00
-1.221487484872341156e-02
8.192273974418640137e-01
-8.508062362670898438e-01
1.168215870857238770e+00
-2.290235608816146851e-01
3.037698566913604736e-01
-5.322113633155822754e-01
2.673614621162414551e-01
2.926673173904418945e+00
-1.182943701744079590e+00
1.820214033126831055e+00
-9.789455533027648926e-01
1.262969255447387695e+00
-8.093714118003845215e-01
-7.168559432029724121e-01
-5.151895880699157715e-01
-2.552200853824615479e-01
-7.233642935752868652e-01
-5.801255702972412109e-01
-4.783267974853515625e-01
1.136248946189880371e+00
3.273133635520935059e-01
-1.905846714973449707e+00
3.088595569133758545e-01
2.418996989727020264e-01
-4.917184114456176758e-01
1.422768738120794296e-02
1.049927949905395508e+00
3.188738524913787842e-01
4.617140293121337891e-01
-1.409413069486618042e-01
-6.002089977264404297e-01
2.676926255226135254e-01
2.010604858398437500e+00
-6.933928132057189941e-01
4.780628085136413574e-01
-2.398466765880584717e-01
-5.500175803899765015e-02
1.354776144027709961e+00
8.710202574729919434e-01
5.096483826637268066e-01
5.103680491447448730e-01
-8.918353915214538574e-02
-5.238229632377624512e-01
-2.879330702126026154e-02
-1.887846708297729492e+00
-2.607289329171180725e-02
-1.064626574516296387e+00
-9.170613288879394531e-01
2.379545569419860840e-01
-9.334466457366943359e-01
3.341875374317169189e-01
-1.113916158676147461e+00
-6.216295361518859863e-01
1.378558397293090820e+00
7.008275985717773438e-01
-5.530781745910644531e-01
4.214449599385261536e-02
1.425561666488647461e+00
1.029936820268630981e-01
1.682194918394088745e-01
2.860599756240844727e-01
-3.879539966583251953e-01
-7.698945403099060059e-01
-1.015165925025939941e+00
9.363164901733398438e-01
-1.693474948406219482e-01
1.042199850082397461e+00
-1.276202082633972168e+00
-9.829843044281005859e-01
7.279223203659057617e-01
-3.136627376079559326e-01
-2.072274088859558105e-01
-9.162260890007019043e-01
2.825920581817626953e-01
1.521878600120544434e+00
4.915502965450286865e-01
-1.065122604370117188e+00
-1.071003198623657227e+00
-1.082715034484863281e+00
-1.238213896751403809e+00
1.321549415588378906e+00
-3.098659217357635498e-01
-4.704023525118827820e-02
1.742777943611145020e+00
2.929361164569854736e-01
7.783286273479461670e-02
-1.606691956520080566e+00
-9.373081475496292114e-02
5.696085691452026367e-01
4.030615389347076416e-01
-1.134424924850463867e+00
1.260334104299545288e-01
-6.699101328849792480e-01
5.941724777221679688e-01
1.219483852386474609e+00
9.651913046836853027e-01
2.670729756355285645e-01
-1.804776340723037720e-01
-7.409471273422241211e-02
-1.090539917349815369e-01
1.043620824813842773e+00
1.725254356861114502e-01
1.075678586959838867e+00
-1.073900341987609863e+00
6.172304153442382812e-01
-8.041004538536071777e-01
-1.467867970466613770e+00
-5.430667847394943237e-02
6.793931126594543457e-01
1.056636691093444824e+00
4.364897906780242920e-01
5.695512294769287109e-01
1.061963200569152832e+00
-1.255511045455932617e-01
-3.318609595298767090e-01
-1.003017783164978027e+00
1.776488423347473145e-01
-2.527543604373931885e-01
4.472537338733673096e-01
1.254490494728088379e+00
1.267049431800842285e+00
-4.018853902816772461e-01
-9.657504968345165253e-03
-7.979200482368469238e-01
-6.640235185623168945e-01
-8.533231616020202637e-01
-6.514098644256591797e-01
-7.921274304389953613e-01
-1.101855397224426270e+00
-2.892391979694366455e-01
3.904048800468444824e-01
-5.862058401107788086e-01
2.370222330093383789e+00
6.200078129768371582e-01
1.656320393085479736e-01
-1.972897052764892578e+00
-6.761036515235900879e-01
-1.021960973739624023e+00
1.217778801918029785e+00
6.544952988624572754e-01
-1.262207031250000000e+00
3.804253935813903809e-01
2.453295737504959106e-01
-6.014879345893859863e-01
3.109494149684906006e-01
-6.584463119506835938e-01
-9.749945253133773804e-02
1.933893084526062012e+00
-1.211165308952331543e+00
2.050669193267822266e+00
1.117527127265930176e+00
2.809687852859497070e-01
6.731182932853698730e-01
1.360182166099548340e+00
4.066109657287597656e-01
1.150798082351684570e+00
1.372076749801635742e+00
-9.296891093254089355e-02
1.132539063692092896e-01
3.050931990146636963e-01
-1.745498329401016235e-01
-4.559991359710693359e-01
9.512280821800231934e-01
-1.116426706314086914e+00
-1.554273366928100586e+00
-1.040715456008911133e+00
-1.480727314949035645e+00
-9.479550123214721680e-01
2.526138424873352051e-01
-4.572326838970184326e-01
-8.424298167228698730e-01
3.814801275730133057e-01
5.754577517509460449e-01
-4.842588603496551514e-01
1.081605076789855957e+00
-2.242374181747436523e+00
1.720180809497833252e-01
6.961935162544250488e-01
4.678915739059448242e-01
3.130726218223571777e-01
2.265280634164810181e-01
2.200607061386108398e+00
1.762064218521118164e+00
4.103560745716094971e-01
1.292348206043243408e-01
-1.083601191639900208e-01
8.778287172317504883e-01
6.010824069380760193e-02
2.068411588668823242e+00
3.715783059597015381e-01
-4.646727442741394043e-01
3.627809882164001465e-01
5.832927227020263672e-01
-2.613249063491821289e+00
-3.902243375778198242e-01
-8.844214081764221191e-01
4.312568306922912598e-01
4.796223938465118408e-01
-2.839859127998352051e-01
-2.731322646141052246e-01
-1.878709346055984497e-01
-3.126766383647918701e-01
6.182169914245605469e-01
3.630717396736145020e-01
1.266124844551086426e+00
-6.612378358840942383e-01
1.381089687347412109e+00
2.448790147900581360e-02
-7.495856285095214844e-01
-9.964401721954345703e-01
-4.895204603672027588e-01
1.814197540283203125e+00
1.363855451345443726e-01
-1.030036926269531250e+00
-8.899072408676147461e-01
-3.500554338097572327e-02
1.510596394538879395e+00
2.905442118644714355e-01
-1.138389587402343750e+00
-9.135130643844604492e-01
4.885583221912384033e-01
2.115191370248794556e-01
2.930548191070556641e-01
3.490196466445922852e-01
5.149990320205688477e-01
4.715131819248199463e-01
-1.829889714717864990e-01
1.008581399917602539e+00
-5.983656644821166992e-01
-1.391337066888809204e-01
6.931842565536499023e-01
1.135964274406433105e+00
1.538077950477600098e+00
-4.950147271156311035e-01
-1.536097005009651184e-02
3.548665046691894531e-01
-3.581893742084503174e-01
9.909377694129943848e-01
-6.208000183105468750e-01
3.129865229129791260e-01
3.596406280994415283e-01
-7.847223281860351562e-01
-1.458773970603942871e+00
-1.097987741231918335e-01
-1.704104661941528320e+00
1.856164097785949707e+00
-7.731789350509643555e-01
-6.546688079833984375e-02
-2.124727725982666016e+00
-6.106793880462646484e-01
-2.606823921203613281e+00
-2.709672972559928894e-02
-6.370776295661926270e-01
7.915574908256530762e-01
-2.037632092833518982e-02
-1.547412514686584473e+00
3.554320335388183594e-01
-6.146732252091169357e-03
1.103172183036804199e+00
7.702129483222961426e-01
8.774823695421218872e-02
8.780334591865539551e-01
4.001334011554718018e-01
1.798340439796447754e+00
1.148407459259033203e+00
-5.567744374275207520e-01
-1.154590487480163574e+00
1.866899132728576660e-01
-1.288749575614929199e-01
-6.167338490486145020e-01
-2.470482587814331055e+00
-5.057928562164306641e-01
1.594895839691162109e+00
-5.349491834640502930e-01
1.596305727958679199e+00
-2.105133771896362305e+00
-1.780412077903747559e+00
-8.619139790534973145e-01
-3.029907047748565674e-01
-1.531468033790588379e+00
1.094705581665039062e+00
-3.041173219680786133e-01
-6.951573491096496582e-01
-2.012104272842407227e+00
-1.866903156042098999e-01
5.272328257560729980e-01
-2.582567632198333740e-01
3.700159788131713867e-01
-2.961498498916625977e-01
-1.369251489639282227e+00
1.715786576271057129e+00
-2.192025184631347656e+00
6.594375371932983398e-01
3.308331966400146484e-01
-1.185239911079406738e+00
-7.870933413505554199e-01
-8.109888434410095215e-01
-6.015581488609313965e-01
-4.170507490634918213e-01
7.494083046913146973e-01
6.667807698249816895e-01
1.993002176284790039e+00
1.420948743820190430e+00
-4.135054647922515869e-01
-1.084842458367347717e-01
6.138009950518608093e-02
5.407210588455200195e-01
6.580432057380676270e-01
2.347768396139144897e-01
-8.061160445213317871e-01
4.579659998416900635e-01
-3.540590107440948486e-01
3.168532550334930420e-01
1.157371923327445984e-01
1.398105978965759277e+00
-7.951125502586364746e-01
4.328813552856445312e-01
-2.318179756402969360e-01
1.607575893402099609e+00
-6.635569334030151367e-01
6.624551415443420410e-01
-1.235806584358215332e+00
-6.068640351295471191e-01
5.794758200645446777e-01
1.513681650161743164e+00
-4.441537559032440186e-01
1.105883002281188965e+00
3.803168833255767822e-01
-1.411414623260498047e+00
3.656033277511596680e-01
3.372732996940612793e-01
1.313366055488586426e+00
4.536869823932647705e-01
2.872102260589599609e-01
4.709000289440155029e-01
2.301495552062988281e+00
9.363224506378173828e-01
8.833923935890197754e-01
6.780104041099548340e-01
8.268913030624389648e-01
-6.953096389770507812e-01
-1.465117692947387695e+00
1.495807766914367676e+00
2.379787340760231018e-02
5.782771110534667969e-01
1.055934667587280273e+00
-1.982591152191162109e+00
-3.034490644931793213e-01
3.152996003627777100e-01
1.059256315231323242e+00
1.032366231083869934e-01
1.427689313888549805e+00
1.126145243644714355e+00
2.051780223846435547e+00
4.187307655811309814e-01
-4.497814476490020752e-01
1.058071136474609375e+00
4.371730610728263855e-02
1.249827384948730469e+00
1.037720322608947754e+00
3.365292549133300781e-01
5.416268110275268555e-01
1.689637780189514160e+00
-1.231505990028381348e+00
1.862279295921325684e+00
-1.604154556989669800e-01
-1.867294162511825562e-01
1.050633549690246582e+00
1.139714360237121582e+00
-3.604454398155212402e-01
7.137683629989624023e-01
-4.856252297759056091e-02
6.227635145187377930e-01
-5.682964920997619629e-01
1.799081265926361084e-01
-2.308841049671173096e-01
6.581078171730041504e-01
-2.222817420959472656e+00
1.053459882736206055e+00
8.610255718231201172e-01
2.868066310882568359e+00
1.024925231933593750e+00
-4.773544073104858398e-01
1.094003558158874512e+00
-1.683457851409912109e+00
1.446932852268218994e-01
1.806303381919860840e+00
9.650985598564147949e-01
4.005141556262969971e-01
-6.663081049919128418e-01
-9.334776997566223145e-01
8.083975911140441895e-01
4.499273840337991714e-03
-8.803554177284240723e-01
1.041547417640686035e+00
2.214696109294891357e-01
3.305010870099067688e-02
6.870082765817642212e-02
-1.020980834960937500e+00
1.464633822441101074e+00
-1.786440610885620117e-01
-2.863793969154357910e-01
-3.642230108380317688e-02
1.987331151962280273e+00
6.051201224327087402e-01
2.020961046218872070e+00
4.088992774486541748e-01
3.042285442352294922e-01
-2.207699120044708252e-01
-3.377022445201873779e-01
-2.281157970428466797e-01
5.000776648521423340e-01
9.228587150573730469e-01
-8.107917904853820801e-01
1.573820352554321289e+00
1.142216682434082031e+00
-2.914189398288726807e-01
6.429126858711242676e-01
-5.787592530250549316e-01
-8.925967216491699219e-01
5.306960344314575195e-01
-1.411666154861450195e+00
-2.081081271171569824e-01
-1.186515688896179199e+00
-1.278684854507446289e+00
-8.348265886306762695e-01
-1.184990167617797852e+00
-9.295375943183898926e-01
1.733999371528625488e+00
-8.251309394836425781e-01
4.544287919998168945e-01
-6.502873301506042480e-01
-8.000422120094299316e-01
1.787788569927215576e-01
1.366028666496276855e+00
3.395812213420867920e-01
2.016455978155136108e-01
1.162520125508308411e-01
-2.921776473522186279e-01
-1.057745337486267090e+00
-1.224496886134147644e-01
4.951585829257965088e-01
1.151267737150192261e-01
1.493949055671691895e+00
-8.590097427368164062e-01
9.590871930122375488e-01
1.454294025897979736e-01
8.477235436439514160e-01
1.021087884902954102e+00
-1.894603013992309570e+00
-8.687258958816528320e-01
1.132616996765136719e-01
-2.194269895553588867e-01
1.966715753078460693e-01
-2.222970724105834961e-01
7.993687987327575684e-01
-8.750122785568237305e-02
9.403629302978515625e-01
2.150069713592529297e+00
1.056649208068847656e+00
-4.835134148597717285e-01
-6.986509561538696289e-01
-8.190920352935791016e-01
1.767361640930175781e+00
2.637555360794067383e+00
-1.099741458892822266e+00
-6.673237681388854980e-01
-4.431248307228088379e-01
9.144605994224548340e-01
-4.659174382686614990e-01
5.138704180717468262e-01
-2.528179287910461426e-01
6.179064512252807617e-01
-1.179186463356018066e+00
1.099135160446166992e+00
1.549637436866760254e+00
-1.296241879463195801e-01
2.571053616702556610e-02
6.284994073212146759e-03
5.099751949310302734e-01
-6.766269803047180176e-01
2.759900987148284912e-01
-9.336180090904235840e-01
-4.007613360881805420e-01
1.288361698389053345e-01
-8.905641436576843262e-01
8.293523192405700684e-01
3.222114443778991699e-01
-7.787245512008666992e-01
-6.151068806648254395e-01
-1.206940054893493652e+00
1.441742777824401855e+00
-1.590025901794433594e+00
-2.784740209579467773e+00
-7.015140652656555176e-01
6.005554199218750000e-01
-4.029128253459930420e-01
7.911622524261474609e-01
2.097714692354202271e-01
-3.907833695411682129e-01
-2.689458429813385010e-01
-7.256718873977661133e-01
-9.471808075904846191e-01
-1.726537048816680908e-01
5.983440876007080078e-01
-1.639612436294555664e+00
-6.723589897155761719e-01
-6.301186680793762207e-01
-1.377779006958007812e+00
-5.612840652465820312e-01
-3.876218199729919434e-01
4.734499007463455200e-02
-8.025763630867004395e-01
-3.167643845081329346e-01
-1.790487021207809448e-01
-1.577780127525329590e+00
1.116839528083801270e+00
1.579093933105468750e-01
4.154041111469268799e-01
-1.320659995079040527e+00
-8.952568173408508301e-01
-8.706639409065246582e-01
2.184320092201232910e-01
5.355247259140014648e-01
-3.739846646785736084e-01
-1.679623574018478394e-01
5.295218825340270996e-01
1.321490168571472168e+00
1.835525870323181152e+00
-2.197781562805175781e+00
1.585396826267242432e-01
-1.316289544105529785e+00
-7.693870067596435547e-01
1.679891705513000488e+00
-5.309343338012695312e-01
-7.309005856513977051e-01
1.099165797233581543e+00
-5.893245935440063477e-01
-2.883173823356628418e-01
-2.223703145980834961e+00
-2.265380620956420898e+00
1.756913065910339355e+00
2.908262610435485840e-01
-1.045183181762695312e+00
6.681511998176574707e-01
-1.332523107528686523e+00
-2.779769301414489746e-01
-3.991010785102844238e-01
-1.168075799942016602e+00
1.470382928848266602e+00
-5.416766181588172913e-02
1.107626557350158691e+00
-2.744599878787994385e-01
1.837205171585083008e+00
-1.968359589576721191e+00
6.990781426429748535e-01
1.890294402837753296e-01
2.747251987457275391e-01
5.680620670318603516e-01
1.131194353103637695e+00
8.888481855392456055e-01
-4.584519267082214355e-01
-1.180423021316528320e+00
8.294560909271240234e-01
3.855210542678833008e-01
4.804877042770385742e-01
-9.150758981704711914e-01
4.201867282390594482e-01
9.619369357824325562e-02
-3.485668301582336426e-01
1.156305074691772461e+00
-1.078270375728607178e-01
4.405837655067443848e-01
1.773755550384521484e+00
2.858396470546722412e-01
-8.465631604194641113e-01
8.489188551902770996e-01
-3.534101247787475586e-01
5.116077661514282227e-01
7.311693429946899414e-01
-1.417888402938842773e+00
1.936155110597610474e-01
3.170351386070251465e-01
4.460301101207733154e-01
4.305610656738281250e-01
1.680567383766174316e+00
-3.068053424358367920e-01
-1.320584416389465332e-01
-4.991911351680755615e-01
-2.878366708755493164e-01
3.035340607166290283e-01
-1.533526539802551270e+00
-3.098390400409698486e-01
-2.979250550270080566e-01
-1.540855646133422852e+00
-2.592155933380126953e-01
-1.070991516113281250e+00
2.348885983228683472e-01
1.214914321899414062e+00
-2.413149118423461914e+00
-7.029543817043304443e-02
-6.028285622596740723e-01
8.776867985725402832e-01
-1.373215913772583008e-01
7.443749159574508667e-02
4.598373547196388245e-02
-1.553011417388916016e+00
2.709112502634525299e-02
1.906418949365615845e-01
-5.165087580680847168e-01
-1.465752422809600830e-01
9.496362805366516113e-01
1.961291313171386719e+00
2.316937446594238281e-01
1.157902121543884277e+00
-1.253405027091503143e-02
-1.811496019363403320e+00
-6.211031675338745117e-01
-2.542667150497436523e+00
1.013313889503479004e+00
-4.134748876094818115e-01
5.101180672645568848e-01
-1.828292250633239746e+00
-3.114532828330993652e-01
8.953984826803207397e-02
2.749803066253662109e+00
-1.069204449653625488e+00
1.760193258523941040e-01
4.239455461502075195e-01
4.574041068553924561e-01
-6.801007390022277832e-01
-1.171695113182067871e+00
1.469455003738403320e+00
-1.020448088645935059e+00
-2.536723315715789795e-01
5.245174765586853027e-01
-8.880187273025512695e-01
-1.002250075340270996e+00
-1.228508502244949341e-01
3.910583853721618652e-01
-1.275550603866577148e+00
7.113627195358276367e-01
6.484425663948059082e-01
-1.444813609123229980e-01
7.971892952919006348e-01
-1.855738401412963867e+00
3.470591828227043152e-02
-1.219270452857017517e-01
-1.212075114250183105e+00
-1.414578318595886230e+00
4.644359350204467773e-01
-2.206476926803588867e+00
-6.191250309348106384e-02
5.672264099121093750e-01
-8.770690560340881348e-01
-1.104106903076171875e+00
-4.876279532909393311e-01
6.395698189735412598e-01
7.403166033327579498e-03
1.982481479644775391e+00
3.138062655925750732e-01
-4.807145334780216217e-03
3.075346708297729492e+00
-1.634210231713950634e-03
2.229629009962081909e-01
1.159104034304618835e-01
1.099434852600097656e+00
1.532728075981140137e-01
-8.844850063323974609e-01
1.162130355834960938e+00
-2.058427333831787109e+00
1.178367212414741516e-01
6.551569104194641113e-01
-6.920805573463439941e-01
-1.603577494621276855e+00
-2.059333324432373047e+00
1.333704948425292969e+00
2.229374460875988007e-02
7.527321577072143555e-01
6.244976520538330078e-01
9.341794252395629883e-01
4.587768316268920898e-01
-9.257914423942565918e-01
7.649710774421691895e-02
-7.908294796943664551e-01
-1.162883639335632324e+00
3.992666304111480713e-01
6.703961491584777832e-01
1.451906681060791016e+00
1.312279462814331055e+00
-6.452210545539855957e-01
4.402042031288146973e-01
1.563368558883666992e+00
1.684447288513183594e+00
-3.765026330947875977e-01
-5.910168960690498352e-02
9.114083647727966309e-01
-4.601946473121643066e-02
-3.793439865112304688e-01
5.026766657829284668e-01
-6.853386759757995605e-01
-7.682945728302001953e-01
-1.431759238243103027e+00
-1.387660503387451172e+00
7.882817983627319336e-01
-5.533059835433959961e-01
-4.451522529125213623e-01
-1.678960919380187988e+00
-3.679859042167663574e-01
5.438696742057800293e-01
-1.186639070510864258e+00
4.021419882774353027e-01
-5.445748567581176758e-01
-1.134192109107971191e+00
9.293553829193115234e-01
-1.384714603424072266e+00
7.862101793289184570e-01
1.951424241065979004e+00
5.754482746124267578e-01
-5.113327875733375549e-02
1.037014842033386230e+00
9.930604696273803711e-01
-6.393685340881347656e-01
1.372580409049987793e+00
-1.322454065084457397e-01
-1.229055881500244141e+00
5.140206217765808105e-01
-1.080803751945495605e+00
-5.393999218940734863e-01
7.670267820358276367e-01
-1.199479028582572937e-01
6.579159200191497803e-02
-3.114030361175537109e-01
-1.317125558853149414e+00
-1.137594580650329590e-01
-3.727223277091979980e-01
5.319732800126075745e-02
5.695893242955207825e-02
-9.352495670318603516e-01
1.002638459205627441e+00
1.018607616424560547e+00
-2.646972611546516418e-02
-3.571397364139556885e-01
-7.216863632202148438e-01
-1.815704512409865856e-03
3.668862208724021912e-02
1.012458562850952148e+00
-1.452105402946472168e+00
-9.551534652709960938e-01
3.992301225662231445e-01
-5.956885218620300293e-01
3.697010576725006104e-01
-2.074270248413085938e+00
1.042899489402770996e+00
7.127993106842041016e-01
-7.851774692535400391e-01
-3.266721069812774658e-01
-4.930441975593566895e-01
-1.701232433319091797e+00
-1.471928596496582031e+00
2.959227859973907471e-01
-1.330237269401550293e+00
-9.575347900390625000e-01
8.297781944274902344e-01
-1.472691655158996582e+00
-6.761157512664794922e-01
-4.886953532695770264e-01
1.064734458923339844e+00
-1.148520350456237793e+00
3.466803729534149170e-01
4.425040483474731445e-01
-2.482643365859985352e+00
-5.463755130767822266e-01
4.571435153484344482e-01
-9.353296160697937012e-01
-1.261609196662902832e+00
6.399141550064086914e-01
-1.198966860771179199e+00
3.441073894500732422e-01
-6.911454349756240845e-02
-6.759572029113769531e-02
-1.959286689758300781e+00
4.170673489570617676e-01
-2.271575033664703369e-01
-8.504552841186523438e-01
-7.748115658760070801e-01
-1.504890561103820801e+00
3.655148446559906006e-01
2.289437055587768555e+00
3.416412174701690674e-01
1.308732867240905762e+00
1.425271630287170410e-01
4.740013778209686279e-01
-3.252926766872406006e-01
-3.175795674324035645e-01
-3.509672880172729492e-01
9.550587832927703857e-02
1.246573090553283691e+00
-4.837938547134399414e-01
-2.822261452674865723e-01
-2.039905786514282227e-01
1.823110461235046387e+00
1.024834632873535156e+00
-1.635151267051696777e+00
-3.453406393527984619e-01
-5.058268085122108459e-02
5.726310610771179199e-01
5.274944007396697998e-02
-1.889379322528839111e-01
2.276988267898559570e+00
8.478943109512329102e-01
-8.173557519912719727e-01
-4.793257415294647217e-01
-6.238318681716918945e-01
-2.546545267105102539e-01
-9.925167560577392578e-01
-5.315098762512207031e-01
-2.473118543624877930e+00
-5.609883666038513184e-01
-1.877567648887634277e+00
-1.306303739547729492e+00
2.181875109672546387e-01
1.698231339454650879e+00
3.420202136039733887e-01
8.638281226158142090e-01
1.530792474746704102e+00
2.440157532691955566e-01
2.085495233535766602e+00
-1.094671726226806641e+00
-6.743744015693664551e-01
-2.283823210746049881e-03
-7.961340546607971191e-01
-3.902341127395629883e-01
1.505784511566162109e+00
-1.615637093782424927e-01
-8.802440017461776733e-02
1.048812747001647949e+00
9.218791127204895020e-01
9.768455028533935547e-01
-1.322240233421325684e+00
1.669277995824813843e-01
-1.443341672420501709e-01
1.543758362531661987e-01
7.694238424301147461e-01
1.312948167324066162e-01
1.454540729522705078e+00
-1.764064788818359375e+00
1.419382393360137939e-01
-3.331638872623443604e-01
-5.724167823791503906e-01
-5.257320031523704529e-02
8.387327790260314941e-01
1.874929219484329224e-01
-4.776082634925842285e-01
-4.086792841553688049e-02
7.376868128776550293e-01
-2.717530429363250732e-01
-1.122183818370103836e-02
-9.743703007698059082e-01
-1.533581733703613281e+00
-1.382345080375671387e+00
2.016541063785552979e-01
-1.969344764947891235e-01
-4.351151585578918457e-01
-1.361265063285827637e+00
-2.826572358608245850e-01
-3.253889977931976318e-01
-2.216824769973754883e+00
-7.868196815252304077e-02
-1.789017766714096069e-01
-5.503871440887451172e-01
-9.406238198280334473e-01
6.461724042892456055e-01
-4.378538131713867188e-01
-2.169667035341262817e-01
1.620423078536987305e+00
-1.387026667594909668e+00
5.518098473548889160e-01
-2.541427612304687500e-01
-6.037970781326293945e-01
-6.747009158134460449e-01
-1.037661552429199219e+00
-8.315069079399108887e-01
9.682682752609252930e-01
8.872929811477661133e-01
-1.025280281901359558e-01
-7.997043728828430176e-01
-1.358619451522827148e+00
-8.918524980545043945e-01
-6.529930233955383301e-02
9.095291495323181152e-01
-1.501458287239074707e+00
7.964301109313964844e-01
1.458970308303833008e+00
-9.133626818656921387e-01
9.961984157562255859e-01
3.037332892417907715e-01
1.113821268081665039e+00
-2.648077607154846191e-01
5.028961896896362305e-01
-1.208484172821044922e+00
1.351685166358947754e+00
-8.519396781921386719e-01
6.982300877571105957e-01
-6.079915761947631836e-01
4.888034760951995850e-01
2.217655181884765625e+00
1.976020336151123047e+00
-4.593098461627960205e-01
-7.404167652130126953e-01
-1.002009749412536621e+00
-7.149922102689743042e-02
-1.078025341033935547e+00
1.803249359130859375e+00
6.426101922988891602e-01
-4.039977192878723145e-01
-5.638427138328552246e-01
4.731614291667938232e-01
1.401999711990356445e+00
6.686809062957763672e-01
1.044564723968505859e+00
-5.271344184875488281e-01
1.106855034828186035e+00
-2.444261789321899414e+00
-5.023306608200073242e-01
-3.115135133266448975e-01
-7.349612116813659668e-01
1.924254536628723145e+00
-2.110306322574615479e-01
2.402135610580444336e+00
3.817736804485321045e-01
-5.785391330718994141e-01
-9.071384072303771973e-01
9.329652786254882812e-01
7.421495914459228516e-01
1.616387605667114258e+00
-5.189428925514221191e-01
-1.383547782897949219e-01
-4.323400557041168213e-01
-4.776118397712707520e-01
-5.916286110877990723e-01
1.129232253879308701e-02
-5.731945037841796875e-01
-1.692572534084320068e-01
4.767012223601341248e-02
1.441720008850097656e+00
-4.139056205749511719e-01
-6.448263525962829590e-01
-9.091294407844543457e-01
-1.186629459261894226e-01
-8.732655048370361328e-01
8.661436438560485840e-01
-1.187533617019653320e+00
-4.387331306934356689e-01
6.447821855545043945e-02
-8.384622931480407715e-01
-4.267534613609313965e-01
1.063763856887817383e+00
1.311241865158081055e+00
-7.859115600585937500e-01
-8.041239976882934570e-01
-9.494364857673645020e-01
-8.474707007408142090e-01
-1.446433305740356445e+00
1.139804840087890625e+00
5.650965571403503418e-01
1.372776985168457031e+00
-9.999913573265075684e-01
9.196708798408508301e-01
5.668659210205078125e-01
1.749096989631652832e+00
1.239142656326293945e+00
1.774776935577392578e+00
3.260352611541748047e-01
9.830193519592285156e-01
1.019005060195922852e+00
-4.045433998107910156e-01
-9.841781854629516602e-01
-6.261702775955200195e-01
9.085329771041870117e-01
4.537646770477294922e-01
-7.017827033996582031e-01
8.155452087521553040e-03
-7.396688461303710938e-01
-9.145479798316955566e-01
3.729458153247833252e-01
-1.165838837623596191e+00
-5.510384440422058105e-01
-2.737747430801391602e-01
9.301400184631347656e-01
1.555275559425354004e+00
8.102955222129821777e-01
-5.104765892028808594e-01
1.296152472496032715e+00
1.232854127883911133e+00
1.009047031402587891e+00
1.568646907806396484e+00
8.956435918807983398e-01
-1.217616438865661621e+00
8.164284229278564453e-01
5.610052347183227539e-01
1.902102231979370117e+00
6.517505049705505371e-01
-9.193120598793029785e-01
-6.949980258941650391e-01
2.964359819889068604e-01
1.019122123718261719e+00
9.239211678504943848e-01
4.892734587192535400e-01
7.971437573432922363e-01
-5.023487210273742676e-01
-8.899596929550170898e-01
-4.586501121520996094e-01
1.908805847167968750e+00
-7.565399408340454102e-01
8.832748532295227051e-01
-5.672200918197631836e-01
7.438818812370300293e-01
-1.610806882381439209e-01
2.123438119888305664e-01
-3.371383845806121826e-01
-1.187234044075012207e+00
-1.974246650934219360e-01
-1.328994512557983398e+00
5.330333709716796875e-01
-6.811472773551940918e-01
2.091756820678710938e+00
9.941574335098266602e-01
-1.111832737922668457e+00
1.915760636329650879e-01
-7.478732466697692871e-01
-2.957762181758880615e-01
-1.614678978919982910e+00
2.178495883941650391e+00
2.664268016815185547e-01
-9.005667567253112793e-01
5.900205969810485840e-01
1.103503108024597168e+00
-5.985387563705444336e-01
-1.140776276588439941e+00
-3.465089201927185059e-01
1.081889748573303223e+00
-3.340262174606323242e-01
-8.927452564239501953e-01
5.763002038002014160e-01
-1.045786023139953613e+00
-2.506927251815795898e-01
5.590489134192466736e-02
-2.510769605636596680e+00
-1.066416382789611816e+00
-5.345420241355895996e-01
-1.651219129562377930e-01
1.840524375438690186e-01
-8.519365787506103516e-01
7.029834985733032227e-01
1.118626832962036133e+00
2.777774631977081299e-01
-5.569872856140136719e-01
1.653824895620346069e-01
1.460396777838468552e-02
-1.733878612518310547e+00
1.972152829170227051e+00
6.028481125831604004e-01
1.834188222885131836e+00
-3.338164389133453369e-01
-7.206032276153564453e-01
4.550374150276184082e-01
-2.265606969594955444e-01
-1.647457242012023926e+00
-3.810978531837463379e-01
-1.124771714210510254e+00
1.248090863227844238e+00
-2.600537240505218506e-01
1.738664388656616211e+00
4.402793049812316895e-01
1.176765933632850647e-02
-1.341519802808761597e-01
-2.369812488555908203e+00
1.295010209083557129e+00
9.625673294067382812e-01
1.022444009780883789e+00
4.849510639905929565e-02
-3.260422945022583008e-01
-4.352361261844635010e-01
-6.676163524389266968e-02
8.467243909835815430e-01
6.829622387886047363e-02
5.622689127922058105e-01
-2.389626741409301758e+00
-1.126403093338012695e+00
-7.494053244590759277e-01
-3.564328253269195557e-01
-9.107189178466796875e-01
-1.264048933982849121e+00
1.962659478187561035e+00
1.262709856033325195e+00
7.799897193908691406e-01
-2.641401588916778564e-01
1.160738348960876465e+00
6.662029027938842773e-02
-2.270205736160278320e+00
8.901560306549072266e-01
2.904568314552307129e-01
-1.259341090917587280e-01
3.582599759101867676e-01
2.242871284484863281e+00
2.094496488571166992e+00
2.284149825572967529e-01
-3.083323836326599121e-01
-1.512665033340454102e+00
-8.832919001579284668e-01
9.699038267135620117e-01
-5.768952965736389160e-01
-1.851073145866394043e+00
3.436249196529388428e-01
6.511018276214599609e-01
1.034215539693832397e-01
-6.747471690177917480e-01
-1.516455888748168945e+00
1.464785337448120117e+00
-1.767301440238952637e+00
4.601528346538543701e-01
1.545927882194519043e+00
-7.216008007526397705e-02
4.370373189449310303e-01
2.766328155994415283e-01
1.164829373359680176e+00
6.166515350341796875e-01
-3.263901174068450928e-01
-9.551846422255039215e-03
-1.384603045880794525e-02
-1.725221514701843262e+00
-1.026920914649963379e+00
-8.474315404891967773e-01
9.289222359657287598e-01
-5.226207375526428223e-01
4.347634315490722656e-01
3.203881084918975830e-01
1.477073550224304199e+00
6.492647528648376465e-01
-1.035639405250549316e+00
4.610667228698730469e-01
6.771892905235290527e-01
1.317104816436767578e+00
9.336619824171066284e-02
4.496912062168121338e-01
9.519399404525756836e-01
-1.371985435485839844e+00
1.568280100822448730e+00
-1.941277980804443359e+00
3.800602555274963379e-01
-9.332645535469055176e-01
-1.215841397643089294e-01
1.849860139191150665e-02
-9.665916673839092255e-03
-1.225249916315078735e-01
3.955672979354858398e-01
1.622038930654525757e-01
1.880903124809265137e+00
5.706470012664794922e-01
1.483993530273437500e+00
-4.531877040863037109e-01
1.484305024147033691e+00
-2.475793361663818359e+00
1.312808096408843994e-01
-1.607444524765014648e+00
3.346225023269653320e-01
1.651914417743682861e-01
8.697783350944519043e-01
1.373027920722961426e+00
7.612427473068237305e-01
-1.386922001838684082e+00
-1.674954652786254883e+00
-3.460476398468017578e-01
-1.498667120933532715e+00
-3.638579845428466797e+00
5.568120479583740234e-01
-1.393338888883590698e-01
-2.782753705978393555e+00
5.356758236885070801e-01
1.385265439748764038e-01
5.749058723449707031e-02
-7.345720529556274414e-01
-1.043124198913574219e-01
7.680720090866088867e-02
-3.393546938896179199e-01
7.006463408470153809e-01
4.985432922840118408e-01
-3.508297801017761230e-01
2.468683868646621704e-01
-2.046532630920410156e+00
4.787221848964691162e-01
1.407453715801239014e-01
1.528595447540283203e+00
-4.225730895996093750e-01
-5.495836734771728516e-01
1.257289171218872070e+00
4.977408349514007568e-01
8.718552589416503906e-01
-9.547501802444458008e-01
3.385016024112701416e-01
3.719599917531013489e-02
6.496195197105407715e-01
-9.472624063491821289e-01
-1.726330518722534180e+00
-2.375143289566040039e+00
5.395702123641967773e-01
-1.279843449592590332e+00
1.747413873672485352e-01
2.794437706470489502e-01
1.814948320388793945e+00
-1.727916121482849121e+00
8.178239464759826660e-01
-9.629797339439392090e-01
1.541420102119445801e+00
4.765912592411041260e-01
-6.428509354591369629e-01
-9.806590676307678223e-01
1.683312773704528809e+00
-3.971943855285644531e-01
-1.811086237430572510e-01
5.205156207084655762e-01
3.477916419506072998e-01
2.529009282588958740e-01
4.076734781265258789e-01
-1.320400357246398926e+00
2.890889346599578857e-01
1.075778484344482422e+00
6.975069642066955566e-01
-4.172431230545043945e-01
3.751723095774650574e-02
-3.522429764270782471e-01
-9.679368138313293457e-01
-7.684674263000488281e-01
-4.314459264278411865e-01
4.680931568145751953e-01
-2.987359285354614258e+00
5.013605356216430664e-01
8.147488832473754883e-01
1.400778174400329590e+00
-4.114581942558288574e-01
-6.635230034589767456e-02
-4.792445003986358643e-01
2.518880367279052734e-01
3.697369098663330078e-01
1.070779860019683838e-01
-4.218805432319641113e-01
-7.419777512550354004e-01
1.491208195686340332e+00
-2.639587223529815674e-01
2.047461986541748047e+00
-1.359731674194335938e+00
-8.684545159339904785e-01
-6.169930696487426758e-01
-1.497395634651184082e+00
4.137955009937286377e-01
-6.934132426977157593e-02
-2.191192865371704102e+00
-3.263537287712097168e-01
3.045057058334350586e-01
1.010864078998565674e-01
-7.084977626800537109e-02
4.372714161872863770e-01
-1.982634365558624268e-01
9.218428730964660645e-01
2.724363803863525391e-01
-8.434801101684570312e-01
1.298565883189439774e-02
3.995181322097778320e-01
-7.589562535285949707e-01
1.057529211044311523e+00
-8.786744624376296997e-02
1.296372771263122559e+00
-3.897584974765777588e-01
-7.734131813049316406e-02
6.496444940567016602e-01
-7.131986021995544434e-01
-9.214820861816406250e-01
1.107700586318969727e+00
1.622367620468139648e+00
6.066495776176452637e-01
-5.642362833023071289e-01
-1.068536639213562012e+00
4.648353159427642822e-01
4.040173590183258057e-01
2.138896286487579346e-02
5.794932246208190918e-01
-1.991829574108123779e-01
6.011008620262145996e-01
5.949903652071952820e-02
1.213382959365844727e+00
6.584128737449645996e-01
-9.586217999458312988e-01
1.397227406501770020e+00
-1.923341304063796997e-01
7.679293304681777954e-02
2.831257283687591553e-01
5.148555040359497070e-01
-1.440459191799163818e-01
7.757236957550048828e-01
-5.486703477799892426e-03
-3.696506917476654053e-01
-9.768487811088562012e-01
-7.550824284553527832e-01
4.319369792938232422e-01
-2.880477309226989746e-01
-6.124799251556396484e-01
-9.468193054199218750e-01
1.527867078781127930e+00
-5.224930644035339355e-01
1.387623310089111328e+00
4.748504161834716797e-01
-1.416627883911132812e+00
2.368767559528350830e-02
1.028915643692016602e+00
2.876029908657073975e-01
5.914517641067504883e-01
-3.064763545989990234e-01
-1.029709219932556152e+00
-1.164667010307312012e+00
1.857275605201721191e+00
-2.559998333454132080e-01
-4.897690415382385254e-01
1.989507317543029785e+00
-5.914121270179748535e-01
-1.956834673881530762e+00
-2.270908594131469727e+00
-1.086504578590393066e+00
7.497189640998840332e-01
1.026458859443664551e+00
6.621158123016357422e-01
-2.013450413942337036e-01
-3.083196878433227539e-01
4.382816851139068604e-01
2.556182146072387695e-01
-1.564319729804992676e-01
4.324931800365447998e-01
-7.694535851478576660e-01
-4.096573591232299805e-01
-1.250991225242614746e+00
-8.720747828483581543e-01
1.378073811531066895e+00
-7.932873368263244629e-01
-1.470184087753295898e+00
6.177858114242553711e-01
-7.602016925811767578e-01
2.930241525173187256e-01
8.626192808151245117e-01
2.101970314979553223e-01
-8.567780852317810059e-01
1.206258654594421387e+00
8.257732391357421875e-01
2.538538694381713867e+00
9.407479763031005859e-01
2.951274216175079346e-01
2.862765192985534668e-01
4.662157297134399414e-01
1.891521513462066650e-01
-5.997100472450256348e-01
-1.320291519165039062e+00
1.276955604553222656e+00
-2.066345691680908203e+00
-1.328386515378952026e-01
3.390710353851318359e-01
7.824328541755676270e-01
1.193804144859313965e+00
-3.350827097892761230e-01
2.315069139003753662e-01
3.173218667507171631e-01
-7.806011438369750977e-01
-4.142177402973175049e-01
1.098063349723815918e+00
6.881240010261535645e-01
-8.567353487014770508e-01
-1.648717164993286133e+00
-2.953253686428070068e-01
-3.616673350334167480e-01
4.240657091140747070e-01
-9.122254848480224609e-01
-1.200368523597717285e+00
-5.502486974000930786e-02
2.919470965862274170e-01
6.082536578178405762e-01
6.600694730877876282e-03
-3.799514770507812500e-01
-3.936682045459747314e-01
7.293727397918701172e-01
3.477905392646789551e-01
-6.052182316780090332e-01
-9.314178824424743652e-01
-7.868311405181884766e-01
-2.304308265447616577e-01
7.048112750053405762e-01
2.138473272323608398e+00
2.047224044799804688e+00
6.225952133536338806e-02
-2.131675183773040771e-02
4.462202191352844238e-01
3.274374604225158691e-01
8.532216548919677734e-01
4.588406980037689209e-01
-1.368420600891113281e+00
-5.355301499366760254e-01
2.702359557151794434e-01
-5.025930404663085938e-01
9.830068349838256836e-01
2.621233224868774414e+00
4.852327406406402588e-01
-1.283566474914550781e+00
1.196874976158142090e+00
-1.238507628440856934e+00
6.803055405616760254e-01
2.831445038318634033e-01
-5.326198935508728027e-01
2.149356454610824585e-01
-6.270187497138977051e-01
8.996735513210296631e-02
-1.781158894300460815e-02
1.367844820022583008e+00
-8.758609294891357422e-01
-1.746960282325744629e-01
2.067533254623413086e+00
6.130777597427368164e-01
-1.550645947456359863e+00
-2.683229207992553711e+00
-8.647944778203964233e-02
-9.818528294563293457e-01
-2.130347788333892822e-01
4.060211479663848877e-01
-1.694956980645656586e-02
-9.653664827346801758e-01
-2.681123092770576477e-02
-8.950683474540710449e-01
-2.587339282035827637e-01
3.189498186111450195e-01
1.461745142936706543e+00
-2.004615813493728638e-01
6.627700924873352051e-01
-5.527502894401550293e-01
1.214460611343383789e+00
-2.621017694473266602e-01
-1.978225857019424438e-01
8.007957339286804199e-01
4.271337687969207764e-01
7.292202115058898926e-01
1.095833554863929749e-01
-1.274175286293029785e+00
4.274658858776092529e-03
-7.967065572738647461e-01
1.748992443084716797e+00
1.693691134452819824e+00
-5.163137912750244141e-01
-1.007132887840270996e+00
2.449061535298824310e-02
-1.829872608184814453e+00
-3.930304944515228271e-01
2.909152805805206299e-01
8.277016282081604004e-01
6.234759837388992310e-02
8.896224200725555420e-03
-1.185645580291748047e+00
1.270050257444381714e-01
-8.318983316421508789e-01
-6.387297809123992920e-02
-1.655945926904678345e-01
7.381424307823181152e-01
1.599758028984069824e+00
1.455974698066711426e+00
1.731215268373489380e-01
2.101054191589355469e+00
-4.079256653785705566e-01
1.710744053125381470e-01
3.263245820999145508e-01
1.816420435905456543e+00
5.222232341766357422e-01
-2.807745039463043213e-01
1.503378432244062424e-02
7.233970165252685547e-01
3.099969327449798584e-01
-6.062557101249694824e-01
1.236673712730407715e+00
1.085816621780395508e+00
1.121350526809692383e+00
-5.703164935111999512e-01
-6.082124710083007812e-01
-9.117068648338317871e-01
-6.983386278152465820e-01
9.052434563636779785e-01
-5.879535675048828125e-01
-5.477959513664245605e-01
4.926595091819763184e-01
1.839874833822250366e-01
6.894640326499938965e-01
1.461549401283264160e-01
-8.349456191062927246e-01
1.625926375389099121e+00
-4.515736699104309082e-01
-9.525685906410217285e-01
-1.149667054414749146e-01
-9.383954405784606934e-01
-1.800134181976318359e+00
-7.221056222915649414e-01
-7.147423028945922852e-01
4.513279795646667480e-01
-3.820735812187194824e-01
1.289312690496444702e-01
-1.806929349899291992e+00
8.880931138992309570e-01
3.494573831558227539e-01
8.335534334182739258e-01
2.377123571932315826e-02
1.577994585037231445e+00
7.850623726844787598e-01
-2.881492674350738525e-01
-5.387794971466064453e-01
5.210497602820396423e-02
1.396509647369384766e+00
2.833290398120880127e-01
6.437200903892517090e-01
-6.208920478820800781e-01
3.972682952880859375e-01
-5.583120584487915039e-01
7.061309218406677246e-01
-2.675188481807708740e-01
4.663156270980834961e-01
-8.799049258232116699e-01
2.479516506195068359e+00
1.653983443975448608e-01
5.463791489601135254e-01
-2.523445487022399902e-01
-1.646773815155029297e+00
5.998564958572387695e-01
7.049201130867004395e-01
1.078881978988647461e+00
1.651839613914489746e+00
-5.994929075241088867e-01
-6.247993707656860352e-01
6.136582493782043457e-01
-6.582868695259094238e-01
1.561444997787475586e-01
-1.075953006744384766e+00
2.031390190124511719e+00
-1.873934984207153320e+00
-7.629783153533935547e-01
-2.296329736709594727e+00
1.635736346244812012e+00
2.437352180480957031e+00
4.398369193077087402e-01
-1.464543461799621582e+00
-2.919330894947052002e-01
1.256818294525146484e+00
8.378208279609680176e-01
3.778554499149322510e-02
-6.572015285491943359e-01
-6.925438046455383301e-01
-7.051677703857421875e-01
-6.321951746940612793e-01
-1.016725897789001465e-01
1.358392089605331421e-01
-6.945274472236633301e-01
-8.828414082527160645e-01
4.806439578533172607e-01
-1.009234264492988586e-01
-6.980720162391662598e-01
1.043526649475097656e+00
-6.478670239448547363e-02
1.227011382579803467e-01
1.981532812118530273e+00
-3.788510560989379883e-01
-1.100813269615173340e+00
1.744639396667480469e+00
-4.979663714766502380e-02
-1.639520406723022461e+00
2.089877277612686157e-01
3.645266592502593994e-01
6.884802877902984619e-02
-1.994205713272094727e+00
-5.250235199928283691e-01
1.391675829887390137e+00
7.492929697036743164e-01
1.766029715538024902e+00
5.314689874649047852e-01
-9.137247800827026367e-01
2.838072478771209717e-01
1.752806067466735840e+00
7.121992707252502441e-01
-6.246889233589172363e-01
-1.366750478744506836e+00
5.065364241600036621e-01
7.784318327903747559e-01
1.568794012069702148e+00
5.697472691535949707e-01
1.311014741659164429e-01
-5.510219335556030273e-01
1.163566350936889648e+00
1.314444541931152344e+00
1.641547560691833496e+00
-1.055302858352661133e+00
-1.680054306983947754e+00
3.643205463886260986e-01
3.084466159343719482e-01
-5.530325770378112793e-01
1.605726003646850586e+00
3.462273180484771729e-01
-5.381671190261840820e-01
1.865286350250244141e+00
4.373399615287780762e-01
7.039012312889099121e-01
-1.164761066436767578e+00
1.104822158813476562e+00
-9.010181427001953125e-01
4.001060724258422852e-01
-7.718235254287719727e-02
-3.566464409232139587e-02
-5.869843959808349609e-01
5.212808027863502502e-02
8.399718999862670898e-01
-3.054567813873291016e+00
1.325442552566528320e+00
5.983335375785827637e-01
2.546509027481079102e+00
8.302119374275207520e-01
-8.779158592224121094e-01
2.287553310394287109e+00
7.940182089805603027e-01
-1.530938267707824707e+00
-5.709913372993469238e-01
3.860993683338165283e-02
-2.529437065124511719e+00
8.922126889228820801e-01
4.832484573125839233e-02
-5.945477485656738281e-01
1.286427497863769531e+00
6.759051680564880371e-01
1.206776142120361328e+00
-1.500213861465454102e+00
6.871008276939392090e-01
1.107136726379394531e+00
-2.401396036148071289e+00
-1.309669137001037598e+00
1.467834949493408203e+00
5.474013090133666992e-01
1.419490218162536621e+00
-4.359460175037384033e-01
-8.738405704498291016e-01
-5.527891516685485840e-01
-3.264749348163604736e-01
-6.638756990432739258e-01
3.524648249149322510e-01
-1.141323745250701904e-01
-4.673383235931396484e-01
1.069987043738365173e-01
-2.661872506141662598e-01
-2.387477308511734009e-01
-1.693010330200195312e-01
-6.987389326095581055e-01
4.965927898883819580e-01
9.158092737197875977e-01
6.381136924028396606e-02
-1.201291561126708984e+00
-1.269084215164184570e-01
-1.285780817270278931e-01
1.558961868286132812e+00
-5.326794385910034180e-01
6.587923169136047363e-01
1.280103206634521484e+00
-3.992001116275787354e-01
1.225725173950195312e+00
-7.345529794692993164e-01
-1.231006026268005371e+00
-7.519828081130981445e-01
-1.165492892265319824e+00
9.107181429862976074e-01
-2.906379103660583496e-01
-1.163096427917480469e+00
-3.776242733001708984e-01
-2.089422494173049927e-01
2.243386358022689819e-01
-4.814064502716064453e-01
6.700976490974426270e-01
2.527430653572082520e-01
2.118487596511840820e+00
-5.344805866479873657e-02
8.856128454208374023e-01
7.870992422103881836e-01
-1.458678364753723145e+00
9.377290606498718262e-01
1.292541325092315674e-01
-1.497473716735839844e+00
-1.380786001682281494e-01
-1.124200105667114258e+00
-1.920628100633621216e-01
-9.820421040058135986e-02
7.433899044990539551e-01
6.293264031410217285e-01
5.395101010799407959e-02
-6.839462518692016602e-01
-6.906517595052719116e-02
2.606099367141723633e+00
-2.775465250015258789e+00
-8.610319495201110840e-01
-2.105163097381591797e+00
1.567099988460540771e-01
-1.684685498476028442e-01
1.343947172164916992e+00
2.328727096319198608e-01
7.086372375488281250e-01
5.124183371663093567e-02
-4.579102396965026855e-01
-7.347859740257263184e-01
1.738151311874389648e+00
5.270914733409881592e-02
-2.764958143234252930e-01
5.854689478874206543e-01
3.164886962622404099e-03
1.374107360839843750e+00
-5.958840847015380859e-01
8.203480839729309082e-01
-8.708784580230712891e-01
4.300871491432189941e-01
2.650817297399044037e-02
2.416918240487575531e-02
-5.442525073885917664e-02
6.363708376884460449e-01
-1.218702197074890137e+00
-1.663190960884094238e+00
-1.471375346183776855e+00
-1.174908041954040527e+00
1.511969715356826782e-01
-2.441989630460739136e-01
1.518197774887084961e+00
1.810476183891296387e+00
-1.310082793235778809e+00
1.169673442840576172e+00
7.627577781677246094e-01
5.317102670669555664e-01
1.519978046417236328e-01
1.057433366775512695e+00
-7.698011994361877441e-01
-6.252456903457641602e-01
-3.591346442699432373e-01
7.244035601615905762e-01
2.211363017559051514e-01
1.388958245515823364e-01
1.739696979522705078e+00
3.851549923419952393e-01
9.463086724281311035e-01
4.240985512733459473e-01
1.081820204854011536e-01
3.213218152523040771e-01
6.385356783866882324e-01
-5.869333632290363312e-03
-4.418697059154510498e-01
-6.298751384019851685e-02
8.091998696327209473e-01
8.575870394706726074e-01
-4.532387852668762207e-01
8.979613780975341797e-01
-7.744876146316528320e-01
-2.511849880218505859e+00
-6.421985030174255371e-01
2.720495164394378662e-01
1.200604736804962158e-01
-1.177700877189636230e+00
-1.111621499061584473e+00
-8.547716140747070312e-01
6.114606261253356934e-01
-7.878983616828918457e-01
-3.541218340396881104e-01
2.991225421428680420e-01
-7.218556404113769531e-01
6.191425397992134094e-02
7.298295497894287109e-01
-7.781841158866882324e-01
-1.600162863731384277e+00
1.588604092597961426e+00
5.182952433824539185e-02
-1.710114479064941406e+00
2.606072127819061279e-01
1.257388591766357422e+00
1.446632444858551025e-01
-2.896150946617126465e-01
-5.313284993171691895e-01
-1.986385881900787354e-01
-6.757719069719314575e-02
2.677006959915161133e+00
-6.095439568161964417e-02
-5.688685774803161621e-01
-4.394969344139099121e-01
1.335313677787780762e+00
2.111458539962768555e+00
5.346111655235290527e-01
9.233794361352920532e-02
-2.460634708404541016e-01
-1.880576484836637974e-03
-8.943995833396911621e-02
1.845730185508728027e+00
-3.239100575447082520e-01
-5.044012069702148438e-01
9.828206300735473633e-01
1.413688421249389648e+00
6.628820300102233887e-02
5.421584472060203552e-02
-2.142978645861148834e-02
2.169461101293563843e-01
-5.535145401954650879e-01
6.035104393959045410e-01
-2.431986808776855469e+00
3.894452750682830811e-01
-4.292996525764465332e-01
-7.121189832687377930e-01
-2.112726449966430664e+00
-1.611159682273864746e+00
5.151342600584030151e-02
-3.009743094444274902e-01
5.819134712219238281e-01
1.398486047983169556e-01
-8.856842517852783203e-01
2.604832649230957031e-01
-4.075328409671783447e-01
2.537355720996856689e-01
-2.596505880355834961e-01
-1.269258022308349609e+00
1.776886582374572754e-01
-1.009270787239074707e+00
-4.777616262435913086e-01
5.891314148902893066e-01
7.521749138832092285e-01
3.192941844463348389e-01
8.087893128395080566e-01
6.639348268508911133e-01
1.268936634063720703e+00
1.261268258094787598e+00
1.196322202682495117e+00
-1.084659844636917114e-01
-5.736938118934631348e-01
-6.259247660636901855e-01
1.194376349449157715e+00
1.625947803258895874e-01
1.042996942996978760e-01
5.017258524894714355e-01
6.280697137117385864e-02
-2.583427727222442627e-01
-9.582678973674774170e-02
-1.551425814628601074e+00
-1.769085884094238281e+00
3.611327707767486572e-01
-8.361207693815231323e-02
7.661788463592529297e-01
-3.672635853290557861e-01
-9.569426774978637695e-01
-5.709497928619384766e-01
9.434930682182312012e-01
4.166615307331085205e-01
9.774437546730041504e-01
-1.238291189074516296e-01
-8.785138130187988281e-01
3.705271184444427490e-01
4.156398773193359375e-01
-2.331569641828536987e-01
-1.174580931663513184e+00
-1.447310447692871094e+00
-9.440357685089111328e-01
5.217194557189941406e-01
-3.599118292331695557e-01
3.717410266399383545e-01
-1.841877818107604980e+00
3.834947645664215088e-01
1.371923565864562988e+00
1.268042325973510742e+00
-4.727650880813598633e-01
9.811513423919677734e-01
-1.295636653900146484e+00
-5.911678075790405273e-01
-5.778980851173400879e-01
-2.331909656524658203e+00
-9.826705455780029297e-01
-1.092769026756286621e+00
-2.938713729381561279e-01
-3.951736986637115479e-01
-1.476290941238403320e+00
2.905235886573791504e-01
-1.354682147502899170e-01
-1.582323670387268066e+00
1.620288133621215820e+00
-2.966498732566833496e-01
6.560209393501281738e-01
3.996273130178451538e-02
8.745577335357666016e-01
7.013994455337524414e-01
-2.144107103347778320e+00
1.007085442543029785e+00
-9.629079103469848633e-01
6.900607943534851074e-01
-1.632250428199768066e+00
-1.236927032470703125e+00
-7.780353426933288574e-01
1.087949037551879883e+00
-1.912810683250427246e+00
1.253481864929199219e+00
1.076235413551330566e+00
1.187983512878417969e+00
3.749025762081146240e-01
-4.136409163475036621e-01
9.958712011575698853e-02
-1.154064610600471497e-01
2.491409063339233398e+00
-1.334030628204345703e+00
2.600314617156982422e-01
-2.212110757827758789e-01
7.539688348770141602e-01
2.066489160060882568e-01
1.238115191459655762e+00
4.291383624076843262e-01
-4.383246004581451416e-01
-8.035160303115844727e-01
8.041533082723617554e-02
-3.007827401161193848e-01
-2.048928737640380859e+00
-1.086686253547668457e+00
-1.443464159965515137e+00
-1.760516881942749023e+00
4.952610135078430176e-01
-9.770253300666809082e-01
-4.910259544849395752e-01
7.690492272377014160e-01
-8.510418534278869629e-01
5.382497906684875488e-01
-1.064917445182800293e+00
-1.354893088340759277e+00
3.184004426002502441e-01
1.621512919664382935e-01
-1.610822558403015137e+00
-2.965751290321350098e-01
1.910525202751159668e+00
1.069436073303222656e+00
-9.336229562759399414e-01
-4.949756860733032227e-01
-8.616261482238769531e-01
-2.182024002075195312e+00
-2.092164516448974609e+00
9.247882962226867676e-01
-5.348467826843261719e-01
5.096629261970520020e-01
-6.867981553077697754e-01
4.015119075775146484e-01
1.592891812324523926e-01
9.522460103034973145e-01
3.802690505981445312e-01
3.243294358253479004e-01
1.689736098051071167e-01
-5.396600365638732910e-01
1.437590479850769043e+00
4.024249017238616943e-01
-1.713634282350540161e-01
5.828698277473449707e-01
-1.069036364555358887e+00
4.664288461208343506e-01
-5.890038013458251953e-01
-8.831828832626342773e-01
7.723295688629150391e-01
-3.603459894657135010e-01
-1.265321969985961914e+00
-2.144216746091842651e-01
-5.924460887908935547e-01
-7.705416679382324219e-01
9.728702902793884277e-01
8.402916193008422852e-01
-2.405481576919555664e+00
-5.223765969276428223e-01
-1.124946951866149902e+00
-1.827929466962814331e-01
4.326131343841552734e-01
1.097419142723083496e+00
5.066684484481811523e-01
-8.846362233161926270e-01
-5.917430520057678223e-01
-1.057046413421630859e+00
2.576831281185150146e-01
-5.027267932891845703e-01
-1.486475467681884766e+00
6.378000378608703613e-01
-1.804662704467773438e+00
-1.005199551582336426e+00
-5.444239079952239990e-02
9.559766054153442383e-01
-7.751148343086242676e-01
-1.834698021411895752e-01
-1.150418758392333984e+00
1.492176055908203125e-01
1.776106059551239014e-01
-4.993186146020889282e-02
2.301167547702789307e-01
7.578294873237609863e-01
2.059592485427856445e+00
3.248108327388763428e-01
-1.247089028358459473e+00
-3.977833986282348633e-01
1.032679915428161621e+00
7.582328468561172485e-02
5.082224011421203613e-01
5.313567519187927246e-01
1.229545235633850098e+00
3.741688132286071777e-01
-4.382414221763610840e-01
-1.711644530296325684e-01
1.043884873390197754e+00
-1.035815358161926270e+00
2.920334637165069580e-01
-1.138491705060005188e-01
4.768853485584259033e-01
-1.291018366813659668e+00
-2.690841436386108398e+00
1.505502462387084961e+00
1.736491173505783081e-01
-8.210901916027069092e-02
1.065947562456130981e-01
-7.111403346061706543e-01
1.244444131851196289e+00
8.037683367729187012e-01
1.363948881626129150e-01
-3.035424947738647461e-01
3.616302013397216797e-01
9.103860259056091309e-01
1.393837213516235352e+00
-1.215865135192871094e+00
4.697036370635032654e-02
1.779576390981674194e-01
1.391399264335632324e+00
-1.175417900085449219e+00
2.036624431610107422e+00
-3.640849888324737549e-01
-1.088573858141899109e-01
-4.331650733947753906e-01
5.140644907951354980e-01
-1.121911332011222839e-01
1.130778416991233826e-01
-1.038851022720336914e+00
1.978051811456680298e-01
3.035602569580078125e-01
-2.557163476943969727e+00
1.210560679435729980e+00
2.318093329668045044e-01
1.924317926168441772e-01
-1.153051495552062988e+00
-6.067597866058349609e-01
1.445808261632919312e-01
-1.377165168523788452e-01
2.813775539398193359e-01
-1.245808005332946777e+00
-1.468394875526428223e+00
-1.235652044415473938e-01
1.077532172203063965e+00
2.403068244457244873e-01
-6.555482745170593262e-01
-1.311295628547668457e-01
6.829658746719360352e-01
1.368849396705627441e+00
7.271044850349426270e-01
-1.591977000236511230e+00
-3.491537868976593018e-01
-6.067584156990051270e-01
1.081724643707275391e+00
3.959926962852478027e-01
-5.183299630880355835e-02
-6.151083111763000488e-01
-1.411893963813781738e+00
-1.810764312744140625e+00
1.026854991912841797e+00
-5.858935713768005371e-01
-4.505955576896667480e-01
-5.500522255897521973e-01
3.131555020809173584e-02
-9.493141770362854004e-01
-1.693890802562236786e-02
8.463525772094726562e-01
1.174196362495422363e+00
-5.606068372726440430e-01
-3.424607217311859131e-01
1.188565269112586975e-01
-1.105989515781402588e-01
-2.198067188262939453e+00
-6.623551249504089355e-01
4.132782220840454102e-01
1.441734433174133301e+00
-1.413377881050109863e+00
-4.701024591922760010e-01
1.243845224380493164e+00
-1.408295989036560059e+00
8.187505602836608887e-01
7.904713600873947144e-02
-2.418713331222534180e+00
4.129339754581451416e-01
6.704788804054260254e-01
1.209591031074523926e-01
1.102103114128112793e+00
-5.406495183706283569e-02
-3.801662623882293701e-01
1.961520195007324219e+00
5.345721244812011719e-01
-6.586893200874328613e-01
-5.268160104751586914e-01
-1.275610566139221191e+00
9.249982833862304688e-01
-4.591330289840698242e-01
9.352443218231201172e-01
1.834716200828552246e+00
-1.046713829040527344e+00
1.340772151947021484e+00
-3.429943323135375977e-01
-9.331072568893432617e-01
8.993527293205261230e-01
-1.240910053253173828e+00
6.675107479095458984e-01
-1.546741604804992676e+00
1.080069780349731445e+00
-7.130762934684753418e-01
-1.600844711065292358e-01
-6.389093399047851562e-01
1.608870387077331543e+00
7.764173150062561035e-01
-1.236765146255493164e+00
1.662290543317794800e-01
4.086081683635711670e-01
-7.463904470205307007e-02
-3.887069821357727051e-01
-1.797832846641540527e+00
8.924307227134704590e-01
2.991510033607482910e-01
-1.306023448705673218e-03
4.260472357273101807e-01
-1.794438719749450684e+00
-8.090683817863464355e-01
-1.175303578376770020e+00
-3.100935816764831543e-01
-6.690026521682739258e-01
7.472410798072814941e-02
-1.676140427589416504e+00
-9.753979444503784180e-01
4.967215955257415771e-01
5.020253360271453857e-02
1.591624259948730469e+00
1.132590413093566895e+00
7.021876573562622070e-01
6.464573740959167480e-01
3.091005682945251465e-01
-1.742623746395111084e-01
-2.661903500556945801e-01
1.168654561042785645e+00
-4.332086145877838135e-01
1.609498858451843262e-01
-1.199444010853767395e-02
1.005873560905456543e+00
-9.114254117012023926e-01
1.004139661788940430e+00
-8.241093754768371582e-01
4.801417589187622070e-01
-9.378895759582519531e-01
4.775812029838562012e-01
1.670470476150512695e+00
-5.224217772483825684e-01
1.909069716930389404e-01
-1.992220580577850342e-01
5.376656055450439453e-01
1.873903989791870117e+00
-1.227786660194396973e+00
4.581661820411682129e-01
-8.347590565681457520e-01
2.028371572494506836e+00
-5.466439723968505859e-01
-1.765354350209236145e-02
-8.701091408729553223e-01
-4.046131670475006104e-01
-1.847359180450439453e+00
1.320924878120422363e+00
-6.702403426170349121e-01
3.816759884357452393e-01
9.076169133186340332e-01
-1.034984111785888672e+00
-1.117477193474769592e-01
-1.090626358985900879e+00
7.961764931678771973e-02
-7.211554050445556641e-01
-1.242511153221130371e+00
-1.158080339431762695e+00
1.170787692070007324e+00
5.495979785919189453e-01
1.931021690368652344e+00
-3.416466712951660156e-01
1.480398058891296387e+00
-1.205212593078613281e+00
3.692383170127868652e-01
1.013609647750854492e+00
8.621585369110107422e-01
-4.183310568332672119e-01
-9.035354852676391602e-01
-4.566089510917663574e-01
1.993352651596069336e+00
-2.329280376434326172e+00
-2.162364870309829712e-01
1.615150213241577148e+00
-1.473315477371215820e+00
-4.501027464866638184e-01
4.253199398517608643e-01
-1.966712355613708496e+00
-1.120269656181335449e+00
-9.407820105552673340e-01
6.257645487785339355e-01
-5.127023458480834961e-01
4.015410840511322021e-01
-2.148259878158569336e-01
5.942424535751342773e-01
2.577955007553100586e+00
1.260005712509155273e+00
-6.417043209075927734e-01
-7.433447837829589844e-01
-1.088874220848083496e+00
-1.780563443899154663e-01
-2.387367188930511475e-01
-1.723755896091461182e-01
-6.204399466514587402e-01
9.864809513092041016e-01
-1.826865792274475098e+00
2.039921760559082031e+00
-2.697034776210784912e-01
1.545752286911010742e+00
-3.722758591175079346e-01
1.068929672241210938e+00
3.185198903083801270e-01
-1.458438992500305176e+00
5.956745743751525879e-01
9.183236956596374512e-01
-3.112085163593292236e-02
-3.206781744956970215e-01
-8.601763844490051270e-01
-2.191143989562988281e+00
-5.372496247291564941e-01
-2.453941106796264648e-01
-2.195700645446777344e+00
-3.138179481029510498e-01
-3.636605739593505859e-01
1.981330871582031250e+00
-5.844685062766075134e-02
-2.624383866786956787e-01
-7.698086500167846680e-01
5.529861152172088623e-02
1.576763749122619629e+00
-3.130083978176116943e-01
1.312622189521789551e+00
1.519925832748413086e+00
6.193043589591979980e-01
1.223414391279220581e-01
1.043384790420532227e+00
-5.156616568565368652e-01
-1.353577822446823120e-01
7.218133211135864258e-01
-4.436671435832977295e-01
-8.513573408126831055e-01
-8.782573938369750977e-01
-1.306449174880981445e+00
6.403357982635498047e-01
4.352730512619018555e-01
-1.929023981094360352e+00
1.680780500173568726e-01
-9.780668467283248901e-02
-1.338464617729187012e+00
7.688562870025634766e-01
9.136295914649963379e-01
-1.447216868400573730e+00
6.907917857170104980e-01
7.106124758720397949e-01
-1.070630620233714581e-03
1.986812613904476166e-02
-1.511289834976196289e+00
3.269198238849639893e-01
-8.467569351196289062e-01
8.692422509193420410e-01
-1.766687035560607910e+00
1.574308991432189941e+00
1.329621076583862305e+00
2.156709283590316772e-01
5.638676285743713379e-01
1.288811564445495605e-01
1.934860229492187500e+00
4.186728596687316895e-01
-1.287083983421325684e+00
-4.579507708549499512e-01
-7.216799259185791016e-01
1.128000259399414062e+00
-6.286042332649230957e-01
-1.385189741849899292e-01
7.586924433708190918e-01
1.073098063468933105e+00
-1.217274188995361328e+00
6.590744853019714355e-01
5.214274525642395020e-01
-1.011330842971801758e+00
-5.343662500381469727e-01
-3.469567000865936279e-02
2.194508314132690430e+00
-1.573997288942337036e-01
2.766633033752441406e-01
9.814738631248474121e-01
-9.752283096313476562e-01
5.823928713798522949e-01
1.511393904685974121e+00
6.851724982261657715e-01
1.549151778221130371e+00
-3.833992481231689453e-01
2.328557968139648438e-01
-9.337341189384460449e-01
7.337647676467895508e-01
-3.406852483749389648e-01
-6.776455640792846680e-01
8.194462060928344727e-01
-2.235717535018920898e+00
-8.036333322525024414e-01
-1.709549665451049805e+00
-7.817764282226562500e-01
2.357937842607498169e-01
-2.881363928318023682e-01
-7.384795546531677246e-01
-9.990847706794738770e-01
-1.568438261747360229e-01
7.703600525856018066e-01
-9.543830752372741699e-01
2.160496711730957031e-01
-1.323379427194595337e-01
-4.605334997177124023e-01
-1.330926895141601562e+00
1.645648032426834106e-01
5.677326321601867676e-01
-1.254507303237915039e+00
7.300089001655578613e-01
1.668821573257446289e-01
-1.320368885993957520e+00
6.789699792861938477e-01
-5.498827099800109863e-01
-1.274454355239868164e+00
3.360847532749176025e-01
5.413050651550292969e-01
4.339331984519958496e-01
1.370383501052856445e+00
1.504466414451599121e+00
-3.984828293323516846e-01
-8.093336224555969238e-01
-1.586722582578659058e-01
5.654279589653015137e-01
-1.012843012809753418e+00
1.515131831169128418e+00
-1.517403841018676758e+00
-8.937378227710723877e-02
-5.557798743247985840e-01
9.122986793518066406e-01
6.431956291198730469e-01
-1.883174031972885132e-01
-4.063058793544769287e-01
4.857880473136901855e-01
-1.130746126174926758e+00
7.174164056777954102e-01
-4.602531716227531433e-02
8.754488825798034668e-01
-7.639560103416442871e-01
-8.688136935234069824e-01
6.594079732894897461e-01
-2.005433559417724609e+00
1.259069919586181641e+00
-1.793471097946166992e+00
3.222086131572723389e-01
1.729105591773986816e+00
1.337081074714660645e+00
3.304592669010162354e-01
1.166567921638488770e+00
1.352967977523803711e+00
2.176042497158050537e-01
-8.892554640769958496e-01
-3.928931951522827148e-01
-1.436535716056823730e+00
1.088920593261718750e+00
-6.572479009628295898e-02
7.735306024551391602e-01
5.377805829048156738e-01
7.478551268577575684e-01
7.646760344505310059e-01
7.258114218711853027e-01
-2.348434478044509888e-01
-6.654594540596008301e-01
-8.572956174612045288e-02
-2.736257910728454590e-01
-2.734992012847214937e-04
3.171794116497039795e-01
-9.846486449241638184e-01
7.072745561599731445e-01
-5.807871818542480469e-01
1.557074040174484253e-01
1.204998612403869629e+00
2.874325752258300781e+00
3.278610408306121826e-01
1.087803959846496582e+00
-1.608007401227951050e-01
1.886915117502212524e-01
-1.284439802169799805e+00
-1.045923352241516113e+00
6.295851469039916992e-01
-8.427598476409912109e-01
-1.639392822980880737e-01
2.103276699781417847e-01
-3.007487952709197998e-01
-6.926408410072326660e-02
-1.185097455978393555e+00
6.600915193557739258e-01
6.580522656440734863e-01
1.724334239959716797e+00
-1.854695558547973633e+00
2.679068744182586670e-01
2.186086922883987427e-01
2.296200543642044067e-01
-2.256010174751281738e-01
1.407582908868789673e-01
-5.055471062660217285e-01
3.930352628231048584e-01
-8.462282419204711914e-01
-5.171743407845497131e-02
8.082962781190872192e-02
-6.255144476890563965e-01
1.669134646654129028e-01
3.433801829814910889e-01
-6.059700250625610352e-01
1.150923013687133789e+00
-3.581205010414123535e-02
-5.240648388862609863e-01
-6.507717967033386230e-01
1.571592688560485840e+00
-3.677243888378143311e-01
1.103280663490295410e+00
1.328971385955810547e+00
-1.674022793769836426e+00
-6.275826096534729004e-01
-7.130330204963684082e-01
6.103147268295288086e-01
1.551406737416982651e-02
-3.411665791645646095e-03
2.046157360076904297e+00
-7.607007622718811035e-01
8.720287680625915527e-01
1.202714800834655762e+00
5.892577767372131348e-01
7.007684111595153809e-01
1.102627754211425781e+00
2.455802679061889648e+00
9.328671693801879883e-01
9.227206707000732422e-01
9.156675338745117188e-01
3.588139712810516357e-01
-9.748991131782531738e-01
-1.175944566726684570e+00
6.562618017196655273e-01
5.550017952919006348e-01
1.765323430299758911e-01
-3.195362985134124756e-01
9.311789274215698242e-01
-4.343329071998596191e-01
-3.457527160644531250e-01
-1.290691852569580078e+00
-3.546726405620574951e-01
1.512043595314025879e+00
8.950682282447814941e-01
-1.235955730080604553e-01
5.265490412712097168e-01
-8.018768429756164551e-01
-1.971228718757629395e+00
1.204730272293090820e+00
1.866210997104644775e-01
-1.932011842727661133e+00
6.770629286766052246e-01
3.746677637100219727e-01
7.131367921829223633e-01
-8.507217168807983398e-01
9.983693249523639679e-03
9.679648876190185547e-01
-5.316764116287231445e-01
9.889463186264038086e-01
1.463535308837890625e+00
1.065577626228332520e+00
7.841082215309143066e-01
-5.132074281573295593e-02
7.856879830360412598e-01
6.657193303108215332e-01
-2.815291881561279297e-01
-8.669798970222473145e-01
5.216002464294433594e-01
1.880137473344802856e-01
-2.637726783752441406e+00
-2.662700712680816650e-01
1.865247130393981934e+00
-7.583786249160766602e-01
1.735107660293579102e+00
1.381463050842285156e+00
4.038104712963104248e-01
1.460444808006286621e+00
8.038156628608703613e-01
-2.929043173789978027e-01
8.029939979314804077e-02
7.086137309670448303e-03
-1.474415183067321777e+00
1.261571347713470459e-01
5.768529176712036133e-01
-1.594963856041431427e-02
-3.516722470521926880e-02
-1.105140328407287598e+00
-5.758863091468811035e-01
-1.951538562774658203e+00
-8.391042351722717285e-01
-5.445188879966735840e-01
-3.357897102832794189e-01
-4.123222231864929199e-01
-1.947252392768859863e+00
5.487504601478576660e-01
-8.933657407760620117e-01
4.716609418392181396e-01
-8.360500931739807129e-01
3.367499113082885742e-01
-5.220150575041770935e-02
7.482487559318542480e-01
-3.060662746429443359e-01
4.736533761024475098e-02
-1.495080232620239258e+00
1.767553687095642090e-01
-5.512809157371520996e-01
1.763163506984710693e-01
1.414257407188415527e+00
-8.271329998970031738e-01
2.990226447582244873e-01
-2.350205421447753906e+00
-7.216362953186035156e-01
-4.997971057891845703e-01
-1.227717280387878418e+00
6.550841331481933594e-01
2.188214361667633057e-01
3.576581776142120361e-01
-7.858836650848388672e-01
4.499441981315612793e-01
-6.846739649772644043e-01
1.545085757970809937e-01
1.060393810272216797e+00
6.829539537429809570e-01
3.597533106803894043e-01
4.353252351284027100e-01
8.894129395484924316e-01
2.120577812194824219e+00
-2.560767889022827148e+00
-1.318064808845520020e+00
1.749282717704772949e+00
-8.394064009189605713e-02
-7.126460671424865723e-01
-1.141602277755737305e+00
-1.060991048812866211e+00
-1.768768131732940674e-01
-1.691532373428344727e+00
-4.428004622459411621e-01
-1.048825502395629883e+00
-1.180202841758728027e+00
-8.449820876121520996e-01
-1.694774150848388672e+00
1.268731802701950073e-01
1.832130849361419678e-01
1.026051163673400879e+00
5.408635139465332031e-01
1.098762273788452148e+00
-5.554702281951904297e-01
-1.825585484504699707e+00
7.627063393592834473e-01
1.892126321792602539e+00
-9.529577493667602539e-01
-7.751625776290893555e-01
-1.658543467521667480e+00
-1.738024830818176270e+00
-4.190773665904998779e-01
2.042197883129119873e-01
-1.310167551040649414e+00
4.869582056999206543e-01
-7.303540706634521484e-01
3.209526538848876953e-01
-6.477314233779907227e-01
1.248414039611816406e+00
1.606302335858345032e-02
6.716491580009460449e-01
-7.122114300727844238e-01
2.189477920532226562e+00
-9.199997037649154663e-02
8.183162212371826172e-01
-1.008953452110290527e+00
2.155688524246215820e+00
6.900547146797180176e-01
1.882545471191406250e+00
5.523210763931274414e-01
3.306036815047264099e-02
4.112524986267089844e-01
4.822985082864761353e-02
-3.474068045616149902e-01
-2.576744794845581055e+00
9.576336741447448730e-01
1.797791719436645508e-01
-1.893377304077148438e-01
-2.899407744407653809e-01
-3.038039058446884155e-02
8.884980082511901855e-01
-3.840048313140869141e-01
5.279178265482187271e-03
1.042622208595275879e+00
1.520394384860992432e-01
-6.995685696601867676e-01
-4.329376518726348877e-01
3.159149885177612305e-01
-5.695271492004394531e-01
5.039542913436889648e-02
-1.867828726768493652e+00
8.237114548683166504e-01
-1.142719149589538574e+00
-2.192684859037399292e-01
4.771724045276641846e-01
1.660029411315917969e+00
1.350129604339599609e+00
-8.777405023574829102e-01
7.372472882270812988e-01
-6.195613145828247070e-01
-7.273172736167907715e-01
7.319747805595397949e-01
3.168027102947235107e-01
1.349502682685852051e+00
-8.744988441467285156e-01
-1.062858700752258301e+00
-1.812907606363296509e-01
-4.499519467353820801e-01
2.999493181705474854e-01
-4.001368582248687744e-01
4.036068916320800781e-02
-3.659310936927795410e-01
-2.842931509017944336e+00
1.017811149358749390e-01
-1.401269137859344482e-01
9.658301472663879395e-01
1.530936211347579956e-01
5.332125425338745117e-01
7.558634877204895020e-01
-1.361631751060485840e+00
-8.871219158172607422e-01
1.364409923553466797e+00
6.768669486045837402e-01
-1.090273618698120117e+00
-1.302205085754394531e+00
-2.127025365829467773e+00
-2.123411417007446289e+00
-1.485859394073486328e+00
1.798184871673583984e+00
-1.161571860313415527e+00
1.869949817657470703e+00
4.323942065238952637e-01
-2.997691929340362549e-01
-7.594999670982360840e-01
-4.967961013317108154e-01
-2.293969504535198212e-03
1.084860682487487793e+00
-4.441137015819549561e-01
3.577194511890411377e-01
2.764496505260467529e-01
9.402627348899841309e-01
-2.571527659893035889e-01
-4.176933467388153076e-01
-8.238689303398132324e-01
-3.636472101788967848e-04
4.617522060871124268e-01
-1.620319128036499023e+00
-1.331587195396423340e+00
7.310848832130432129e-01
1.076076745986938477e+00
3.563201427459716797e-01
-2.399381846189498901e-01
9.084607958793640137e-01
-1.280878633260726929e-01
1.008101224899291992e+00
4.437980651855468750e-01
-4.237398505210876465e-01
1.739573478698730469e+00
-2.325209230184555054e-01
2.315103054046630859e+00
1.950728893280029297e+00
-5.297023057937622070e-01
9.132328033447265625e-01
5.281873792409896851e-02
3.301568031311035156e-01
4.612032473087310791e-01
2.444621324539184570e+00
6.292525529861450195e-01
9.284294247627258301e-01
2.199837207794189453e+00
5.181099176406860352e-01
8.767246603965759277e-01
3.049865961074829102e-01
4.639181792736053467e-01
-1.450202584266662598e+00
7.369123697280883789e-01
1.024284958839416504e+00
2.027808666229248047e+00
5.694414377212524414e-01
-1.055050790309906006e-01
6.965650916099548340e-01
-8.439280390739440918e-01
8.035781383514404297e-01
-1.259364604949951172e+00
3.107287585735321045e-01
-1.379039287567138672e-01
-3.196248412132263184e-01
-3.165235221385955811e-01
-2.113925457000732422e+00
-8.344348669052124023e-01
-7.393720746040344238e-01
-1.082013845443725586e+00
5.445650592446327209e-02
-8.376871347427368164e-01
5.262984037399291992e-01
-7.433324586600065231e-03
1.193108320236206055e+00
-1.441533267498016357e-01
-1.727693527936935425e-01
8.233333230018615723e-01
-3.822636008262634277e-01
-2.115009307861328125e+00
1.943893432617187500e+00
-2.233666658401489258e+00
-1.805269598960876465e+00
-6.027241945266723633e-01
-6.598196029663085938e-01
-1.232070326805114746e+00
-4.988309442996978760e-01
2.464707382023334503e-02
-1.236430048942565918e+00
-1.445801705121994019e-01
6.060046553611755371e-01
-1.769471168518066406e+00
4.910651477985084057e-04
-3.843641281127929688e-01
6.052089929580688477e-01
-4.982458651065826416e-01
-3.642153143882751465e-01
-6.716880202293395996e-01
3.186061382293701172e-01
1.633709907531738281e+00
-7.432871460914611816e-01
-1.681742668151855469e+00
-9.632349610328674316e-01
-7.846946120262145996e-01
1.543120384216308594e+00
-6.801855564117431641e-01
1.471300959587097168e+00
4.000870585441589355e-01
1.893032789230346680e-01
-5.647928714752197266e-01
1.588891446590423584e-02
-4.802954196929931641e-01
-4.939382076263427734e-01
1.647742241621017456e-01
-2.053695917129516602e+00
-7.693762779235839844e-01
7.888335585594177246e-01
-1.462373256683349609e+00
2.718105077743530273e+00
7.952263951301574707e-02
-7.572137713432312012e-01
-1.455271959304809570e+00
-4.750986695289611816e-01
-6.810235977172851562e-01
-2.113985270261764526e-01
1.032366752624511719e+00
1.063237309455871582e+00
-2.238210916519165039e+00
2.816321849822998047e-01
9.339692443609237671e-02
-2.759612500667572021e-01
6.098000407218933105e-01
-1.036358833312988281e+00
6.650076508522033691e-01
-9.253963828086853027e-01
1.289314925670623779e-01
1.613493561744689941e-01
1.864959478378295898e+00
1.119117856025695801e+00
-4.684619009494781494e-01
-2.316144108772277832e-01
-7.962296605110168457e-01
-1.047603130340576172e+00
8.815572857856750488e-01
1.236474871635437012e+00
-8.885955214500427246e-01
-1.649828314781188965e+00
4.559225440025329590e-01
-8.292418718338012695e-01
4.537420570850372314e-01
-1.028440117835998535e+00
4.496345818042755127e-01
-4.627750813961029053e-01
-1.069438457489013672e+00
2.407423734664916992e+00
1.013803601264953613e+00
-8.988892287015914917e-02
-1.121942400932312012e+00
3.104214072227478027e-01
-1.148955464363098145e+00
6.976386904716491699e-01
-9.836561083793640137e-01
-1.407767891883850098e+00
5.413948893547058105e-01
9.074189066886901855e-01
8.337632417678833008e-01
-7.499795556068420410e-01
-6.127818226814270020e-01
-3.378863930702209473e-01
1.751440882682800293e+00
1.502000927925109863e+00
-1.119141504168510437e-01
-1.135281562805175781e+00
1.005903482437133789e+00
-1.168300390243530273e+00
-6.870365738868713379e-01
-7.950714826583862305e-01
-1.060407981276512146e-01
7.029443383216857910e-01
1.502287983894348145e+00
-2.138774633407592773e+00
3.135127723217010498e-01
3.178246915340423584e-01
5.996657535433769226e-02
1.262635827064514160e+00
1.601440906524658203e+00
-7.925332784652709961e-01
8.254702091217041016e-01
-1.588083386421203613e+00
6.809926629066467285e-01
-4.153609275817871094e-01
-1.508959412574768066e+00
7.908917032182216644e-03
-1.335375428199768066e+00
-8.294475823640823364e-02
-4.174588322639465332e-01
-5.150342583656311035e-01
7.250875830650329590e-01
2.396471500396728516e-01
-8.357275128364562988e-01
1.063427329063415527e+00
9.704610109329223633e-01
3.676331834867596626e-03
2.405529618263244629e-01
-6.579408645629882812e-01
1.023272633552551270e+00
1.703452169895172119e-01
-6.212123036384582520e-01
3.972305357456207275e-01
-7.387993335723876953e-01
3.932384550571441650e-01
-2.753181755542755127e-01
2.244766205549240112e-01
-9.337580204010009766e-02
-6.705201864242553711e-01
-1.659926027059555054e-01
-6.172080039978027344e-01
4.659405350685119629e-01
-5.419415831565856934e-01
1.389946322888135910e-02
-4.780448079109191895e-01
-6.919275522232055664e-01
-6.831628084182739258e-01
-1.101684346795082092e-01
-4.127759635448455811e-01
1.742366433143615723e+00
1.156205162405967712e-01
3.647111892700195312e+00
7.205798625946044922e-01
-4.164299964904785156e-01
7.607971429824829102e-01
-8.367549777030944824e-01
1.497743248939514160e+00
1.597286701202392578e+00
1.016169115900993347e-01
9.504784345626831055e-01
1.579501867294311523e+00
1.582947850227355957e+00
-2.800250612199306488e-02
-1.466168463230133057e-01
-1.002697110176086426e+00
-6.590405851602554321e-02
-2.350563704967498779e-01
6.295011639595031738e-01
-4.391708672046661377e-01
-2.174160778522491455e-01
7.943106889724731445e-01
-1.092502951622009277e+00
8.882209658622741699e-01
1.694089412689208984e+00
8.855966925621032715e-01
2.474177598953247070e+00
-2.396037578582763672e-01
5.121973156929016113e-01
-9.643559157848358154e-02
1.655632555484771729e-01
-2.077478170394897461e-01
8.026074767112731934e-01
-5.585200712084770203e-02
7.340644598007202148e-01
1.575718283653259277e+00
-2.808867096900939941e-01
1.808917671442031860e-01
4.496826231479644775e-01
9.976316690444946289e-01
-5.752806663513183594e-01
1.531933546066284180e-01
-3.331454098224639893e-01
1.086590051651000977e+00
-1.140643656253814697e-02
1.156025767326354980e+00
-6.766571104526519775e-02
-1.894653320312500000e+00
4.371533393859863281e-01
9.406359791755676270e-01
-7.267137169837951660e-01
3.411569595336914062e-01
9.067181944847106934e-01
1.356648802757263184e+00
-8.961511254310607910e-01
5.374051332473754883e-01
1.043500006198883057e-01
-2.833019793033599854e-01
-3.396737277507781982e-01
-1.379270434379577637e+00
-2.903593480587005615e-01
1.433832168579101562e+00
-4.999414682388305664e-01
5.429503917694091797e-01
-7.743244171142578125e-01
6.253872811794281006e-02
1.108530640602111816e+00
4.207322895526885986e-01
-5.501943230628967285e-01
-5.186406970024108887e-01
-2.144251585006713867e+00
-7.303183432668447495e-03
3.621595501899719238e-01
-6.649308204650878906e-01
6.999685764312744141e-01
3.737913072109222412e-01
1.133133530616760254e+00
-7.441218495368957520e-01
4.047614336013793945e-01
2.431643307209014893e-01
-1.628072142601013184e+00
1.429386258125305176e+00
-2.580302059650421143e-01
-5.497955679893493652e-01
1.487854570150375366e-01
4.225137531757354736e-01
6.119782924652099609e-01
-9.624962806701660156e-01
1.312516331672668457e+00
-9.209880232810974121e-01
-1.522678613662719727e+00
-7.407094836235046387e-01
3.438114225864410400e-01
-5.043718814849853516e-01
1.786314487457275391e+00
-1.657520532608032227e-01
-1.257997602224349976e-01
-8.968707919120788574e-01
1.395365715026855469e+00
-1.008392572402954102e+00
6.079745292663574219e-01
-2.952131628990173340e-01
-8.572073578834533691e-01
-8.166429400444030762e-01
7.412751764059066772e-02
8.875281810760498047e-01
8.447379469871520996e-01
8.731730580329895020e-01
1.059809565544128418e+00
3.898331820964813232e-01
-1.108437299728393555e+00
1.239306688308715820e+00
5.556335449218750000e-01
3.310345709323883057e-01
7.665502429008483887e-01
1.127549529075622559e+00
8.897919058799743652e-01
-3.680604696273803711e-01
2.105477809906005859e+00
-1.691767424345016479e-01
-6.047553569078445435e-02
4.269682168960571289e-01
8.472800254821777344e-01
-7.775011658668518066e-01
-1.310721784830093384e-01
2.772197425365447998e-01
8.093359470367431641e-01
2.575354650616645813e-03
1.224740505218505859e+00
-8.057749271392822266e-01
-1.385159730911254883e+00
3.054973483085632324e-01
1.077386260032653809e+00
1.294961094856262207e+00
-5.029907822608947754e-01
-8.837987184524536133e-01
1.006740450859069824e+00
-3.544458746910095215e-01
1.222224593162536621e+00
-4.675770401954650879e-01
2.206958830356597900e-02
-9.595448374748229980e-01
5.250775441527366638e-02
2.745899856090545654e-01
1.218013882637023926e+00
-1.667942553758621216e-01
-7.861567735671997070e-01
8.528198599815368652e-01
-6.778355240821838379e-01
-1.692264080047607422e+00
-3.030561208724975586e-01
3.558563068509101868e-02
-6.885200738906860352e-03
3.410653769969940186e-01
-3.947632014751434326e-01
5.175155401229858398e-01
1.541661322116851807e-01
1.100716829299926758e+00
2.557578086853027344e-01
-2.904599308967590332e-01
-7.412998080253601074e-01
-1.425563812255859375e+00
5.591637492179870605e-01
5.472140908241271973e-01
-1.449406892061233521e-01
-2.871687114238739014e-01
9.908991456031799316e-01
7.477480769157409668e-01
1.156539201736450195e+00
1.200988769531250000e+00
-1.032991290092468262e+00
-1.312631487846374512e+00
5.821605920791625977e-01
1.455258607864379883e+00
-5.666026473045349121e-01
-1.593971014022827148e+00
2.321089982986450195e+00
-4.689712449908256531e-02
2.658833265304565430e+00
6.917896270751953125e-01
-1.463438868522644043e+00
5.501900315284729004e-01
7.746040821075439453e-01
8.161407709121704102e-01
1.933881759643554688e+00
7.127826809883117676e-01
-1.059205532073974609e+00
-3.938475623726844788e-02
-2.197943069040775299e-02
1.770595610141754150e-01
-2.501567602157592773e-01
1.808375239372253418e+00
-4.379038512706756592e-01
-8.414041996002197266e-01
7.734775543212890625e-01
1.846194028854370117e+00
3.591571152210235596e-01
1.400462031364440918e+00
-2.515946865081787109e+00
5.121168494224548340e-01
-1.209418535232543945e+00
-7.579649686813354492e-01
-1.476030707359313965e+00
-6.137396693229675293e-01
-3.496319949626922607e-01
3.749921917915344238e-01
-3.812251612544059753e-02
7.371646761894226074e-01
-6.453439593315124512e-01
1.709261909127235413e-02
-1.509056329727172852e+00
-6.251632571220397949e-01
-5.260919928550720215e-01
2.212387472391128540e-01
-1.987916827201843262e-01
6.631476283073425293e-01
1.327259391546249390e-01
-1.979175508022308350e-01
1.349362079054117203e-02
-1.244991064071655273e+00
6.751330494880676270e-01
-7.292886972427368164e-01
5.975048542022705078e-01
5.888235569000244141e-02
4.600307941436767578e-01
1.160773634910583496e+00
-1.065442681312561035e+00
-1.368038415908813477e+00
-2.613827943801879883e+00
-9.159633517265319824e-01
-5.223561525344848633e-01
-2.006003379821777344e+00
-1.262734770774841309e+00
-9.705546498298645020e-01
-1.244988203048706055e+00
1.571999549865722656e+00
-5.727021098136901855e-01
-9.641177654266357422e-01
-6.920883059501647949e-01
-4.682410359382629395e-01
8.191412687301635742e-01
2.630799412727355957e-01
4.280657768249511719e-01
-4.054794013500213623e-01
-6.444579958915710449e-01
7.119855284690856934e-01
3.098954856395721436e-01
-6.014841198921203613e-01
-1.605449914932250977e+00
-1.128928899765014648e+00
-4.113025367259979248e-01
1.594388335943222046e-01
3.051198460161685944e-02
3.485268652439117432e-01
3.999741375446319580e-01
-7.669394612312316895e-01
1.605015993118286133e+00
-1.051478981971740723e-01
5.325013995170593262e-01
-4.634123742580413818e-01
-5.969000458717346191e-01
-4.283202588558197021e-01
-1.175419569015502930e+00
3.399424254894256592e-01
5.012413952499628067e-03
-6.700489521026611328e-01
-7.848013043403625488e-01
-2.865302324295043945e+00
-1.070378780364990234e+00
2.943929433822631836e-01
1.327767670154571533e-01
-5.681790709495544434e-01
3.454859256744384766e-01
1.440486550331115723e+00
-1.033836007118225098e+00
4.120809584856033325e-02
1.073610663414001465e+00
3.768345415592193604e-01
-2.304996550083160400e-01
-1.404371023178100586e+00
4.843176603317260742e-01
8.259116671979427338e-03
1.167734339833259583e-01
-2.130928486585617065e-01
-5.171642303466796875e-01
2.313851118087768555e+00
4.620861411094665527e-01
4.951552674174308777e-02
-1.533485174179077148e+00
4.087702333927154541e-01
9.021822214126586914e-01
-4.819166064262390137e-01
-1.673932909965515137e+00
3.853473365306854248e-01
5.018717646598815918e-01
-1.365200161933898926e+00
-6.871113181114196777e-01
-8.952204585075378418e-01
-1.592874884605407715e+00
8.187816739082336426e-01
6.552367210388183594e-01
1.057303428649902344e+00
-1.838194131851196289e+00
-1.203760504722595215e-01
-1.214156508445739746e+00
7.508330792188644409e-02
1.408102512359619141e+00
-1.815882802009582520e+00
5.441063642501831055e-01
-7.927988767623901367e-01
1.636903524398803711e+00
7.728983163833618164e-01
1.565596580505371094e+00
1.055592656135559082e+00
-7.850960493087768555e-01
-2.429425865411758423e-01
5.705165863037109375e-01
-6.425418257713317871e-01
1.249795317649841309e+00
3.992524445056915283e-01
-9.109706431627273560e-02
2.197213649749755859e+00
-2.281025171279907227e+00
3.997205495834350586e-01
5.282807946205139160e-01
5.994356274604797363e-01
3.140241861343383789e+00
5.221955180168151855e-01
1.288257837295532227e-01
2.207596749067306519e-01
1.258701235055923462e-01
1.208895444869995117e+00
-4.030520617961883545e-01
-2.316339910030364990e-01
-7.402238845825195312e-01
8.156343102455139160e-01
-1.698472976684570312e+00
1.628632426261901855e+00
-1.478310823440551758e+00
-6.719341278076171875e-01
-1.447296261787414551e+00
-9.135668277740478516e-01
-4.325293749570846558e-02
7.777250409126281738e-01
-1.060722708702087402e+00
-6.847848892211914062e-01
-1.303104043006896973e+00
-1.912183523178100586e+00
-1.083707064390182495e-01
1.156269669532775879e+00
1.012265324592590332e+00
5.616436898708343506e-02
-5.059614777565002441e-01
5.489891171455383301e-01
-8.757194280624389648e-01
5.120479464530944824e-01
1.163607120513916016e+00
3.649294078350067139e-01
-2.287242650985717773e+00
9.955952763557434082e-01
-3.620529174804687500e-01
2.314133346080780029e-01
-1.389497369527816772e-01
-7.562831044197082520e-01
4.767553806304931641e-01
2.838101983070373535e-01
3.360046744346618652e-01
-5.795366168022155762e-01
1.179779171943664551e+00
3.514674901962280273e-01
-5.603532791137695312e-01
-1.634284257888793945e+00
-7.075752019882202148e-01
1.119634985923767090e+00
-9.609093666076660156e-01
1.805750966072082520e+00
8.811336755752563477e-01
2.038267105817794800e-01
-8.454411625862121582e-01
5.696604251861572266e-01
6.814747303724288940e-02
4.676069021224975586e-01
-3.895420134067535400e-01
-7.474815845489501953e-01
7.203336954116821289e-01
-3.465360403060913086e-01
4.298424720764160156e-01
1.183412194252014160e+00
8.623791337013244629e-01
4.038154184818267822e-01
-1.845946550369262695e+00
2.643351554870605469e-01
-1.190289974212646484e+00
-3.308002650737762451e-01
-2.364815324544906616e-01
-1.391381978988647461e+00
-3.262834548950195312e-01
-8.842298388481140137e-01
4.057220816612243652e-01
1.044919490814208984e+00
-5.584365129470825195e-02
-7.067244052886962891e-01
1.129539489746093750e+00
-2.686884403228759766e-01
-9.247143268585205078e-01
-3.615564107894897461e-01
-9.206740856170654297e-01
1.833598017692565918e-01
-1.371452450752258301e+00
-1.733069866895675659e-01
-4.898117482662200928e-01
1.318465352058410645e+00
1.407077312469482422e+00
9.808968305587768555e-01
6.937779486179351807e-02
-8.768992424011230469e-01
-1.282598257064819336e+00
1.025001406669616699e+00
-1.299708634614944458e-01
2.457764387130737305e+00
-1.820393085479736328e+00
1.027969837188720703e+00
1.176823675632476807e-01
1.393084168434143066e+00
1.449401140213012695e+00
-1.009485483169555664e+00
-2.306779921054840088e-01
2.252910286188125610e-01
-2.283578217029571533e-01
-2.285998761653900146e-01
2.147761434316635132e-01
1.504474043846130371e+00
-8.300635218620300293e-01
-1.602781265974044800e-01
5.912186503410339355e-01
-2.184555977582931519e-01
1.964326351881027222e-01
-5.163657665252685547e-01
3.148494362831115723e-01
-1.322974413633346558e-01
-9.583245515823364258e-01
2.155839800834655762e-01
-3.715306222438812256e-01
-1.353499650955200195e+00
1.557003706693649292e-01
-1.061271071434020996e+00
-7.808401435613632202e-02
-1.530700564384460449e+00
5.241055488586425781e-01
-3.708449304103851318e-01
2.287059277296066284e-01
4.790864884853363037e-01
-7.907916307449340820e-01
8.966324329376220703e-01
-1.203038543462753296e-01
-9.898809194564819336e-01
-1.018343806266784668e+00
-7.273573279380798340e-01
4.656290411949157715e-01
3.028261475265026093e-02
-2.004994630813598633e+00
-4.907198250293731689e-02
-1.351455152034759521e-01
7.361258268356323242e-01
-4.941226840019226074e-01
-3.897445201873779297e-01
-1.192224860191345215e+00
1.251891970634460449e+00
-1.697915606200695038e-02
-5.865358710289001465e-01
1.959202624857425690e-02
5.391443371772766113e-01
9.211047291755676270e-01
-1.359774470329284668e+00
-9.897306561470031738e-01
2.526942268013954163e-02
-6.236178278923034668e-01
7.914102077484130859e-01
1.116484165191650391e+00
-6.364244818687438965e-01
1.025667071342468262e+00
-1.090103745460510254e+00
1.658193707466125488e+00
-1.001960933208465576e-01
1.981968998908996582e+00
-9.058850407600402832e-01
7.741582989692687988e-01
5.010854005813598633e-01
1.882203668355941772e-01
-5.118554234504699707e-01
1.041362881660461426e+00
-1.441656798124313354e-01
-6.941576004028320312e-01
-2.615569233894348145e-01
-1.672787547111511230e+00
-5.877543091773986816e-01
-3.900722861289978027e-01
1.345546543598175049e-01
5.513473749160766602e-01
-1.542552262544631958e-01
-5.544263720512390137e-01
9.716659784317016602e-01
-7.757364213466644287e-02
-6.904819011688232422e-01
2.319119125604629517e-01
-6.908593773841857910e-01
-2.031757384538650513e-01
7.537424564361572266e-01
-1.544627785682678223e+00
-2.426856607198715210e-01
1.509846448898315430e+00
-2.679581046104431152e-01
-6.757413148880004883e-01
2.243261337280273438e+00
2.660694420337677002e-01
-9.856426715850830078e-01
-4.662068188190460205e-01
2.395052015781402588e-01
