1.174544811248779297e+00
-7.150477766990661621e-01
-1.008357048034667969e+00
4.741926118731498718e-02
8.284050822257995605e-01
-1.498934030532836914e+00
5.015342831611633301e-01
-2.409789085388183594e+00
-2.367310076951980591e-01
7.196590900421142578e-01
-1.840246558189392090e+00
-1.635784804821014404e-01
-1.729676425457000732e-01
-1.314369320869445801e+00
2.149431467056274414e+00
-8.882851600646972656e-01
-1.166062116622924805e+00
-7.936359643936157227e-01
-4.287439882755279541e-01
1.141243707388639450e-02
-3.875199705362319946e-02
8.463911414146423340e-01
2.358468025922775269e-01
-1.966179013252258301e-01
4.399914741516113281e-01
-6.060740947723388672e-01
5.535594820976257324e-01
1.589954495429992676e+00
4.568420052528381348e-01
-2.916184663772583008e-01
4.150468856096267700e-02
1.123284220695495605e+00
-2.301970481872558594e+00
-1.620848536491394043e+00
9.477310776710510254e-01
-2.494597673416137695e+00
-6.010313518345355988e-04
8.338006585836410522e-02
8.574520945549011230e-01
1.806288480758666992e+00
-1.240328073501586914e+00
-1.197642326354980469e+00
-1.517278105020523071e-01
-7.339110374450683594e-01
1.106577873229980469e+00
-3.950186073780059814e-01
6.421015262603759766e-01
-6.298371553421020508e-01
1.850469261407852173e-01
6.344811320304870605e-01
2.486184388399124146e-01
5.642122030258178711e-01
7.790852785110473633e-01
7.227323651313781738e-01
2.360878512263298035e-02
-5.462735891342163086e-01
2.364657521247863770e-01
-2.153239957988262177e-02
-4.309609234333038330e-01
2.472371339797973633e+00
3.241925835609436035e-01
-2.978258430957794189e-01
1.999778002500534058e-01
1.660380482673645020e+00
1.655194640159606934e+00
-1.680973410606384277e+00
6.457209587097167969e-01
1.098641566932201385e-02
1.449579119682312012e+00
5.456655025482177734e-01
-5.766723155975341797e-01
1.834436692297458649e-02
-1.533570766448974609e+00
1.785032629966735840e+00
-8.614701628684997559e-01
2.604357600212097168e-01
-3.060384988784790039e-01
9.127873182296752930e-01
-1.033805489540100098e+00
6.408272385597229004e-01
-5.264865159988403320e-01
-1.461738109588623047e+00
1.532467007637023926e+00
-6.911047101020812988e-01
-8.149397969245910645e-01
-9.528013467788696289e-01
5.698360130190849304e-02
1.451639652252197266e+00
-9.402327537536621094e-01
-1.599660664796829224e-01
-6.196222901344299316e-01
8.350266814231872559e-01
4.063801169395446777e-01
1.618344306945800781e+00
-2.214288264513015747e-01
-2.046663522720336914e+00
3.464446961879730225e-02
1.314963400363922119e-01
2.164461135864257812e+00
3.692078292369842529e-01
7.878074645996093750e-01
1.099219322204589844e-01
-1.872933954000473022e-01
4.267709702253341675e-02
-5.566844940185546875e-01
1.372788190841674805e+00
-2.318214416503906250e+00
-9.919062256813049316e-01
5.190867185592651367e-01
-5.928463935852050781e-01
-1.170141577720642090e+00
2.332214117050170898e+00
-4.399128556251525879e-01
1.119631230831146240e-01
-1.391137838363647461e+00
1.254186511039733887e+00
5.919694304466247559e-01
8.133075237274169922e-01
-9.039497375488281250e-01
3.506237864494323730e-01
-1.141954898834228516e+00
-5.661190152168273926e-01
6.732963919639587402e-01
7.594291567802429199e-01
-1.298071026802062988e+00
1.819245517253875732e-01
-2.634198069572448730e-01
-5.119913816452026367e-01
-5.852670073509216309e-01
-5.741825699806213379e-01
-1.612717270851135254e+00
1.609967947006225586e+00
-5.542885065078735352e-01
9.809792041778564453e-01
-1.016389280557632446e-01
-2.158789709210395813e-02
-7.195333391427993774e-02
-6.751710772514343262e-01
7.087739706039428711e-01
3.808575272560119629e-01
-1.316602110862731934e+00
-1.331893444061279297e+00
-4.495477974414825439e-01
1.324777722358703613e+00
-6.124963760375976562e-01
-8.318459391593933105e-01
6.769348382949829102e-01
3.952242732048034668e-01
-1.204674005508422852e+00
2.900645434856414795e-01
-3.276489973068237305e-01
2.170996069908142090e-01
1.028671622276306152e+00
1.343833684921264648e+00
3.618918061256408691e-01
-1.703566670417785645e+00
9.663041681051254272e-03
1.483197808265686035e+00
-5.859468579292297363e-01
9.087712764739990234e-01
-7.578495144844055176e-01
2.031399726867675781e+00
-4.824977740645408630e-02
-1.829058647155761719e+00
1.326868832111358643e-01
9.687044620513916016e-01
1.534107565879821777e+00
-7.247299551963806152e-01
-7.764620333909988403e-02
-1.505501627922058105e+00
3.998061418533325195e-01
-1.087906599044799805e+00
-7.161401510238647461e-01
5.620706081390380859e-01
-3.157191276550292969e-01
4.994381964206695557e-01
-1.158037424087524414e+00
1.124936580657958984e+00
4.549717903137207031e-01
4.637380242347717285e-01
-7.782770395278930664e-01
1.177310466766357422e+00
3.624847829341888428e-01
-4.806645587086677551e-02
2.228890210390090942e-01
-3.426288366317749023e-01
-1.097523689270019531e+00
7.449027895927429199e-01
1.873600482940673828e+00
-1.906671673059463501e-01
-2.275969535112380981e-01
5.245511531829833984e-01
-3.434224724769592285e-01
-1.721112608909606934e+00
1.042785570025444031e-01
-1.071591138839721680e+00
-2.117700815200805664e+00
9.262557625770568848e-01
3.777353763580322266e-01
7.522110939025878906e-01
1.771833151578903198e-01
-7.612209916114807129e-01
-1.044534206390380859e+00
9.345918893814086914e-01
-4.525595903396606445e-01
1.060156702995300293e+00
8.863964080810546875e-01
6.033704876899719238e-01
1.444246172904968262e+00
-1.959674805402755737e-01
1.511535167694091797e+00
2.499915808439254761e-01
-2.453638315200805664e-01
-8.059130311012268066e-01
1.320831775665283203e+00
-2.603125870227813721e-01
5.362238883972167969e-01
1.589674353599548340e+00
-7.190272212028503418e-02
-1.781024456024169922e+00
3.074228465557098389e-01
1.750346273183822632e-01
6.792520284652709961e-01
-7.218863368034362793e-01
-6.454330682754516602e-01
7.393804788589477539e-01
4.311688542366027832e-01
-1.674558043479919434e+00
-6.161004900932312012e-01
4.494122415781021118e-02
-5.105923116207122803e-02
1.338036060333251953e+00
-1.061708569526672363e+00
4.009712338447570801e-01
-2.490825891494750977e+00
-1.174965143203735352e+00
7.926584482192993164e-01
7.241074442863464355e-01
-7.922591567039489746e-01
-1.664389669895172119e-01
-1.425538778305053711e+00
-6.284993290901184082e-01
-7.313707470893859863e-01
9.509019851684570312e-01
1.714708089828491211e+00
-2.998591065406799316e-01
-7.263531088829040527e-01
-3.561505675315856934e-02
1.317833304405212402e+00
-3.920261561870574951e-01
-1.262689709663391113e+00
-6.708540320396423340e-01
-4.277316033840179443e-01
-1.380044072866439819e-01
4.842868447303771973e-01
1.706933677196502686e-01
-2.212012767791748047e+00
3.900342881679534912e-01
-1.288655519485473633e+00
-1.030187726020812988e+00
-1.089770078659057617e+00
-3.853255137801170349e-02
1.150628447532653809e+00
6.370413303375244141e-01
-1.631209611892700195e+00
-5.316764712333679199e-01
3.586141765117645264e-02
1.344874143600463867e+00
7.301748394966125488e-01
-1.806219458580017090e+00
9.768091440200805664e-01
-2.564592361450195312e+00
7.469536066055297852e-01
-1.571994066238403320e+00
-1.656913518905639648e+00
1.200411438941955566e+00
-9.149637222290039062e-01
1.187743782997131348e+00
8.766474723815917969e-01
1.067141771316528320e+00
2.856041789054870605e-01
6.844892501831054688e-01
5.073054432868957520e-01
7.444031834602355957e-01
-1.381789684295654297e+00
-1.054888129234313965e+00
-1.439199090003967285e+00
5.990214943885803223e-01
2.788998365402221680e+00
1.079574584960937500e+00
1.553864359855651855e+00
4.571431577205657959e-01
-7.152268290519714355e-01
8.762095570564270020e-01
-9.874451160430908203e-01
1.239715814590454102e+00
-2.948350608348846436e-01
4.275250136852264404e-01
-3.764327764511108398e-01
-9.409078955650329590e-02
-4.380412399768829346e-01
-9.090544283390045166e-02
1.398027777671813965e+00
7.202095389366149902e-01
6.559572219848632812e-01
-1.642548203468322754e+00
-5.327849388122558594e-01
3.799526095390319824e-01
-1.136514097452163696e-01
1.155068993568420410e+00
5.075286030769348145e-01
-1.286686539649963379e+00
6.354732513427734375e-01
5.572766065597534180e-01
-1.107043504714965820e+00
1.420207500457763672e+00
-1.385485887527465820e+00
-9.454309940338134766e-01
8.686307072639465332e-01
1.760095834732055664e+00
-8.632451891899108887e-01
1.834893226623535156e+00
-2.696700096130371094e-01
-4.978434443473815918e-01
-6.095721125602722168e-01
5.821921825408935547e-01
8.501136302947998047e-01
1.211675882339477539e+00
-7.763155102729797363e-01
-1.172376751899719238e+00
8.198271393775939941e-01
1.536058783531188965e-01
-1.196456313133239746e+00
-1.592449188232421875e+00
8.838980793952941895e-01
2.216167300939559937e-01
-2.828291416168212891e+00
8.480595946311950684e-01
1.148231387138366699e+00
-1.677722692489624023e+00
-1.811748743057250977e-02
-6.776953339576721191e-01
-1.249787092208862305e+00
1.671204209327697754e+00
-5.700026154518127441e-01
1.891925811767578125e+00
-1.270424365997314453e+00
4.764296710491180420e-01
1.174228429794311523e+00
-4.407978355884552002e-01
4.144616127014160156e-01
-3.689194321632385254e-01
-7.602558732032775879e-01
1.926981359720230103e-01
1.192171126604080200e-01
-8.109762072563171387e-01
1.223058104515075684e-01
-6.753490567207336426e-01
-4.467557966709136963e-01
-1.169413208961486816e+00
5.100841522216796875e-01
7.072570323944091797e-01
-1.114650845527648926e+00
1.071051716804504395e+00
-2.676641941070556641e-01
7.932626605033874512e-01
-1.363685369491577148e+00
2.221321314573287964e-01
4.970733523368835449e-01
-7.465330362319946289e-01
1.260327458381652832e+00
6.089648008346557617e-01
-1.037765964865684509e-01
-2.143080383539199829e-01
-1.197735190391540527e+00
1.150228857994079590e+00
-9.319978356361389160e-01
2.805734574794769287e-01
-6.736648678779602051e-01
-1.324687600135803223e+00
-1.581607818603515625e+00
5.416789650917053223e-01
6.685763597488403320e-01
7.071110010147094727e-01
-4.180345237255096436e-01
5.073739886283874512e-01
-2.510965764522552490e-01
1.589852809906005859e+00
7.031968832015991211e-01
-1.648503422737121582e+00
2.993602514266967773e+00
-5.210731625556945801e-01
-1.985012650489807129e+00
1.556609869003295898e+00
1.119137525558471680e+00
5.415072441101074219e-01
1.679843366146087646e-01
2.633158564567565918e-01
1.318808794021606445e-01
-7.213485240936279297e-01
9.699235558509826660e-01
-6.387269496917724609e-01
-1.221475362777709961e+00
1.694094061851501465e+00
1.161599755287170410e+00
-4.286445975303649902e-01
-6.004907190799713135e-02
-3.359668850898742676e-01
-9.418464899063110352e-01
-6.285753846168518066e-01
-3.250642716884613037e-01
1.545914769172668457e+00
1.263904690742492676e+00
-2.628287076950073242e-01
-1.092906296253204346e-01
-6.540596485137939453e-01
-2.807259559631347656e-01
-2.344817519187927246e-01
-4.922253265976905823e-02
-4.323172271251678467e-01
3.854068517684936523e-01
1.582003235816955566e-01
7.157025337219238281e-01
4.091498553752899170e-01
-8.706839084625244141e-01
-9.688875079154968262e-01
-3.658965528011322021e-01
4.718463718891143799e-01
1.031470075249671936e-01
8.317117094993591309e-01
-9.093891829252243042e-03
7.590014934539794922e-01
9.912132024765014648e-01
-1.403818488121032715e+00
9.625604003667831421e-02
7.253342121839523315e-02
6.743729710578918457e-01
5.261058360338211060e-02
5.462121367454528809e-01
4.934955835342407227e-01
5.989127159118652344e-01
-9.518889188766479492e-01
-7.992977276444435120e-03
2.383148968219757080e-01
-6.679725646972656250e-01
-6.779532432556152344e-01
-9.662223458290100098e-01
-9.653505086898803711e-01
6.916206479072570801e-01
6.229412555694580078e-01
4.965375661849975586e-01
7.258807420730590820e-01
1.092777729034423828e+00
-5.814087986946105957e-01
-6.807007789611816406e-01
-6.780438423156738281e-01
8.814995288848876953e-01
9.316932559013366699e-01
5.965735912322998047e-01
1.041785001754760742e+00
5.982798337936401367e-01
2.610748708248138428e-01
-5.220136642456054688e-01
1.017163991928100586e+00
-1.091569185256958008e+00
2.940042912960052490e-01
6.084063053131103516e-01
-2.231367677450180054e-02
1.717923134565353394e-01
-2.649891972541809082e-01
9.899801015853881836e-02
-3.611682653427124023e-01
-2.004688501358032227e+00
-1.673364639282226562e+00
-3.516097366809844971e-01
6.405516266822814941e-01
-2.976107597351074219e-02
3.049255013465881348e-01
-1.925829291343688965e+00
6.308069825172424316e-01
-1.315796732902526855e+00
1.410949468612670898e+00
-7.921724319458007812e-01
6.889342069625854492e-01
6.981618404388427734e-01
-1.297208666801452637e-01
-2.167164087295532227e-01
-1.255801171064376831e-01
-1.985005497932434082e+00
5.886222720146179199e-01
1.181220635771751404e-01
2.120738029479980469e+00
2.667475700378417969e+00
-2.414400339126586914e+00
9.345196485519409180e-01
-3.760126531124114990e-01
-5.216497778892517090e-01
-2.150572389364242554e-01
-8.818132877349853516e-01
-1.155929684638977051e+00
-7.018877267837524414e-01
2.228257179260253906e+00
-4.368493258953094482e-01
1.787320226430892944e-01
-8.306538462638854980e-01
-9.023247957229614258e-01
-9.406466484069824219e-01
2.648745179176330566e-01
1.396153587847948074e-02
7.534338831901550293e-01
6.140620708465576172e-01
-2.436406910419464111e-01
-1.058172225952148438e+00
-2.487381935119628906e+00
9.776192307472229004e-01
1.122053265571594238e+00
-1.385138630867004395e+00
-6.293863058090209961e-01
7.436506152153015137e-01
-4.203188717365264893e-01
2.305931597948074341e-01
-3.257007002830505371e-01
7.235410213470458984e-01
-1.381435751914978027e+00
3.762158006429672241e-02
-5.304294824600219727e-01
-6.909084916114807129e-01
-2.424840182065963745e-01
-8.836487531661987305e-01
1.968136429786682129e-01
1.071640729904174805e+00
-7.673932313919067383e-01
1.761124014854431152e+00
-1.112552583217620850e-01
5.682513713836669922e-01
-5.051796436309814453e-01
3.847727775573730469e-01
2.936339616775512695e+00
-1.056336164474487305e+00
1.899435281753540039e+00
-7.470353841781616211e-01
1.201891779899597168e+00
-7.225216627120971680e-01
-7.474566102027893066e-01
-2.556649446487426758e-01
-7.928846776485443115e-02
-5.862305760383605957e-01
-5.803993940353393555e-01
-4.829604625701904297e-01
1.127031087875366211e+00
6.261298060417175293e-01
-1.828103303909301758e+00
4.432790577411651611e-01
3.279620409011840820e-01
-4.229537546634674072e-01
3.220565915107727051e-01
1.064832687377929688e+00
3.884677886962890625e-01
4.914396703243255615e-01
4.823648929595947266e-02
-7.392196655273437500e-01
1.790321469306945801e-01
2.038255453109741211e+00
-6.118367314338684082e-01
7.401875257492065430e-01
-2.592295408248901367e-01
-9.978521615266799927e-02
1.151598691940307617e+00
1.003558754920959473e+00
4.765914380550384521e-01
4.309070706367492676e-01
-1.629400402307510376e-01
-4.802889823913574219e-01
-5.263671651482582092e-02
-1.955181002616882324e+00
7.186207920312881470e-02
-1.029212474822998047e+00
-6.647729277610778809e-01
1.237418353557586670e-01
-9.800754189491271973e-01
2.729575634002685547e-01
-1.125351190567016602e+00
-5.995507240295410156e-01
1.274541258811950684e+00
5.709073543548583984e-01
-2.970270216464996338e-01
4.796333983540534973e-02
1.382455348968505859e+00
5.612595006823539734e-02
8.992473781108856201e-02
3.456268608570098877e-01
-4.167666435241699219e-01
-7.134833335876464844e-01
-1.173449635505676270e+00
1.248956799507141113e+00
-1.730162054300308228e-01
1.125669360160827637e+00
-1.393375396728515625e+00
-1.129667043685913086e+00
6.463402509689331055e-01
-4.171500205993652344e-01
-1.298465430736541748e-01
-8.363962173461914062e-01
4.495734572410583496e-01
1.437567234039306641e+00
6.454281806945800781e-01
-1.024337768554687500e+00
-9.590225815773010254e-01
-1.119542360305786133e+00
-1.103079795837402344e+00
1.105140209197998047e+00
-2.007967680692672729e-01
-1.757578104734420776e-01
1.775579690933227539e+00
2.569645047187805176e-01
2.419962286949157715e-01
-1.620881915092468262e+00
1.158339902758598328e-01
4.709239900112152100e-01
3.881495594978332520e-01
-1.217334032058715820e+00
2.116757482290267944e-01
-4.530434012413024902e-01
6.838315129280090332e-01
1.039311051368713379e+00
8.108870983123779297e-01
3.226100802421569824e-01
-2.957404255867004395e-01
-3.283146768808364868e-02
2.325249277055263519e-02
9.177418351173400879e-01
4.630845189094543457e-01
9.911757111549377441e-01
-1.064062714576721191e+00
6.506724953651428223e-01
-7.899642586708068848e-01
-1.543418526649475098e+00
-1.164059564471244812e-01
4.900680184364318848e-01
9.458509683609008789e-01
3.299923837184906006e-01
6.430988311767578125e-01
7.849282026290893555e-01
-1.460291165858507156e-02
-5.062049031257629395e-01
-1.043523073196411133e+00
-5.433920025825500488e-02
-6.388891488313674927e-02
3.320279717445373535e-01
1.164675712585449219e+00
9.759029150009155273e-01
-4.145764112472534180e-01
-2.191873192787170410e-01
-6.160403490066528320e-01
-7.471466660499572754e-01
-1.005726814270019531e+00
-7.063094377517700195e-01
-1.076707959175109863e+00
-1.072797894477844238e+00
-4.035911262035369873e-01
2.452099919319152832e-01
-4.122758805751800537e-01
1.967318892478942871e+00
5.126437544822692871e-01
2.636936902999877930e-01
-2.055288553237915039e+00
-4.146226942539215088e-01
-9.977656602859497070e-01
1.245820879936218262e+00
5.598925948143005371e-01
-1.336010694503784180e+00
2.941263616085052490e-01
1.852133274078369141e-01
-6.741667985916137695e-01
5.764678493142127991e-02
-5.756605267524719238e-01
-2.359149605035781860e-01
1.969846963882446289e+00
-1.080486655235290527e+00
1.808506131172180176e+00
9.784973859786987305e-01
2.301467955112457275e-02
3.804428279399871826e-01
1.006437063217163086e+00
3.836969137191772461e-01
9.557668566703796387e-01
1.109924554824829102e+00
-3.418562710285186768e-01
1.519474238157272339e-01
1.436838656663894653e-01
-3.203640580177307129e-01
-6.154379248619079590e-01
7.069078087806701660e-01
-1.176876425743103027e+00
-1.794428586959838867e+00
-1.026463747024536133e+00
-1.567700028419494629e+00
-1.001638054847717285e+00
2.472267858684062958e-02
-4.383992850780487061e-01
-7.517322301864624023e-01
2.899074852466583252e-01
5.246344208717346191e-01
-5.670728087425231934e-01
1.043659925460815430e+00
-2.113544940948486328e+00
-9.804442524909973145e-02
4.870047569274902344e-01
4.244439005851745605e-01
1.979220211505889893e-01
3.591871857643127441e-01
1.803553462028503418e+00
1.640936732292175293e+00
3.589161336421966553e-01
3.750294446945190430e-02
-1.917650997638702393e-01
8.943779468536376953e-01
2.522511873394250870e-03
1.825106501579284668e+00
1.935270130634307861e-01
-5.105630159378051758e-01
4.939921200275421143e-01
4.913505315780639648e-01
-2.238573074340820312e+00
-2.816511094570159912e-01
-7.084447145462036133e-01
3.999464213848114014e-01
5.155644416809082031e-01
-2.098201513290405273e-01
4.065695777535438538e-02
-1.712802648544311523e-01
-3.180323243141174316e-01
4.685642123222351074e-01
2.043561935424804688e-01
1.116878032684326172e+00
-5.729237794876098633e-01
1.174074888229370117e+00
-8.819947391748428345e-02
-7.677214145660400391e-01
-9.021672606468200684e-01
-2.608152031898498535e-01
1.847848892211914062e+00
-6.422839313745498657e-02
-9.743279814720153809e-01
-8.173170685768127441e-01
6.869170069694519043e-02
1.351079702377319336e+00
2.035574316978454590e-01
-9.403446912765502930e-01
-7.705165147781372070e-01
3.857240378856658936e-01
1.263886988162994385e-01
2.799891829490661621e-01
4.508572816848754883e-01
4.714594185352325439e-01
5.887156128883361816e-01
-5.291383340954780579e-02
8.724786043167114258e-01
-4.421404004096984863e-01
-2.584420144557952881e-01
6.411140561103820801e-01
1.030175447463989258e+00
1.720754861831665039e+00
-5.143873095512390137e-01
3.289282321929931641e-01
6.056467294692993164e-01
-2.012373656034469604e-01
1.054039359092712402e+00
-5.674805641174316406e-01
3.615610897541046143e-01
4.036000072956085205e-01
-8.687914013862609863e-01
-1.290721416473388672e+00
6.093866750597953796e-02
-1.762676954269409180e+00
1.762601852416992188e+00
-7.581596374511718750e-01
-2.580014765262603760e-01
-2.066121339797973633e+00
-6.420755982398986816e-01
-2.508971214294433594e+00
-2.490567788481712341e-02
-7.055813670158386230e-01
7.394897341728210449e-01
-5.721012875437736511e-02
-1.354951381683349609e+00
5.691155791282653809e-01
3.758785426616668701e-01
1.234152317047119141e+00
8.955634236335754395e-01
1.582854799926280975e-02
9.186744093894958496e-01
2.801244258880615234e-01
1.784472584724426270e+00
1.296960830688476562e+00
-1.692813038825988770e-01
-1.055752277374267578e+00
3.707793056964874268e-01
-2.816860675811767578e-01
-6.889511346817016602e-01
